1345 256
</s> 0.020438 0.025795 -0.027214 0.20656 -0.068501 -0.021624 0.04112 0.024204 0.21577 0.20604 -0.072816 -0.0045517 -0.18095 0.076344 -0.18018 -0.091196 -0.18187 0.084443 -0.063624 0.10098 0.117 0.077912 -0.062669 -0.1466 0.011263 -0.03139 -0.038084 -0.15831 0.19447 -0.030908 0.014605 -0.059884 -0.078917 -0.02296 0.033946 0.04962 0.021282 0.13759 -0.066947 0.051374 -0.069355 -0.030939 -0.12694 -0.013598 -0.063687 0.084104 -0.14805 0.11291 0.14775 -0.10144 -0.058138 0.018461 -0.10514 -0.053085 -0.052319 -0.022137 -0.0018506 0.22519 0.058962 0.11087 -0.019387 -0.12785 -0.02548 0.18904 0.027195 0.11077 -0.0025597 0.13353 0.090683 -0.083442 0.093124 -0.17615 0.23643 -0.082169 0.011662 0.025498 0.13048 0.19413 0.011685 0.074033 0.10877 0.1446 -0.026185 -0.097079 0.031424 0.0025465 -0.074812 0.041716 -0.11789 -0.12539 0.14919 0.18725 -0.046248 -0.034297 0.092297 -0.061478 -0.17294 0.019968 -0.066066 -0.018446 -0.20123 -0.059376 0.0026983 -0.017976 -0.28302 -0.086196 0.042988 -0.0018222 0.0038945 -0.052601 -0.14456 0.020762 0.26877 0.052575 0.088679 -0.12777 -0.068001 -0.037295 0.20219 0.054616 0.089365 -0.0012511 -0.0094977 -0.051089 0.10622 0.024965 -0.17777 0.016396 -0.22156 0.22659 -0.036548 0.2912 0.16927 0.0072878 -0.010193 -0.15186 -0.16317 -0.086996 0.022419 0.16946 0.063006 -0.039789 -0.14579 -0.11417 -0.091058 -0.019786 -0.079295 0.071164 -0.11135 -0.015652 0.0076035 -0.13249 -0.13406 -0.11736 0.062603 -0.042994 0.021467 0.052488 -0.060809 -0.077006 0.14208 0.033987 0.0020629 0.060602 0.20542 -0.12243 -0.068221 -0.045048 0.02124 -0.063816 0.073345 -0.22485 -0.10011 -0.07685 -0.082316 9.3212e-05 0.13699 -0.091705 -0.15604 0.050877 -0.091859 0.18945 -0.14858 0.011405 0.0029505 -0.096458 -0.16428 0.13598 -0.052211 0.14504 -0.059355 -0.093974 -0.26703 0.044942 -0.043519 -0.054625 -0.070945 -0.099149 -0.016697 0.091386 -0.20311 0.11937 0.055523 -0.0090576 0.12543 0.2241 -0.097622 0.015396 0.00060935 0.0010349 0.093607 0.040048 -0.01388 0.053597 -0.25179 -0.17138 -0.0030701 -0.04533 0.041443 0.051164 0.088046 0.079044 -0.13188 -0.29357 -0.24151 -0.19514 -0.036667 0.050324 -0.12161 -0.10191 0.17443 -0.075224 0.14191 -0.18025 0.065355 0.14113 0.094323 0.24664 -0.16609 0.028404 -0.16843 0.12507 0.14404 -0.072622 -0.080117 0.18537 -0.11284 -0.032556 0.068297 0.044745 0.043148 0.018326 -0.070568 -0.0042987 -0.021749 0.0015835 
the 0.053167 0.068739 -0.072341 0.54812 -0.18607 -0.059199 0.10839 0.064482 0.57346 0.54636 -0.1905 -0.012689 -0.48044 0.20345 -0.48269 -0.23919 -0.48652 0.223 -0.16901 0.26886 0.31017 0.20642 -0.16956 -0.39287 0.031327 -0.083736 -0.1004 -0.41915 0.51655 -0.083281 0.041817 -0.15561 -0.20609 -0.061886 0.09294 0.13086 0.059194 0.36523 -0.17727 0.13716 -0.18364 -0.083773 -0.3369 -0.03647 -0.17161 0.22522 -0.39475 0.29859 0.39504 -0.26875 -0.15228 0.048697 -0.2787 -0.14192 -0.14069 -0.04999 -0.0088851 0.59619 0.15654 0.29806 -0.052354 -0.34034 -0.068764 0.50352 0.073062 0.29172 -0.0053158 0.35296 0.24245 -0.22021 0.24803 -0.47009 0.63074 -0.2173 0.033439 0.065929 0.34516 0.5182 0.028186 0.19698 0.28868 0.38715 -0.067634 -0.25861 0.085805 0.0092223 -0.20024 0.11065 -0.31447 -0.33386 0.39661 0.49783 -0.12458 -0.09021 0.24672 -0.16215 -0.46173 0.055796 -0.17713 -0.050176 -0.53929 -0.15876 0.0055745 -0.047762 -0.75756 -0.2291 0.1183 -0.0051691 0.0074266 -0.14003 -0.38662 0.058126 0.71853 0.1405 0.23676 -0.34011 -0.18139 -0.10315 0.5407 0.14917 0.23578 -0.0034972 -0.024003 -0.13832 0.28371 0.070529 -0.47094 0.045032 -0.59059 0.60475 -0.099837 0.77669 0.45114 0.019487 -0.028221 -0.40398 -0.43429 -0.2336 0.059252 0.45121 0.16729 -0.10723 -0.38425 -0.30586 -0.24209 -0.051794 -0.21187 0.18602 -0.29455 -0.04439 0.022469 -0.35303 -0.35612 -0.31319 0.17116 -0.1136 0.054655 0.13796 -0.16328 -0.20347 0.38168 0.089007 0.0012042 0.16245 0.54613 -0.32721 -0.18177 -0.12338 0.059278 -0.16747 0.19577 -0.59757 -0.26629 -0.20277 -0.21792 -0.0034202 0.36428 -0.24547 -0.41831 0.13375 -0.24537 0.50886 -0.39457 0.029548 0.0090553 -0.25889 -0.4334 0.36522 -0.13675 0.38699 -0.1597 -0.25045 -0.71358 0.12134 -0.11658 -0.14758 -0.18668 -0.2651 -0.045703 0.24438 -0.54241 0.31839 0.14641 -0.024825 0.33061 0.59701 -0.25921 0.042236 0.0017015 0.00013234 0.24799 0.10396 -0.037575 0.14376 -0.67203 -0.45473 -0.0091256 -0.11913 0.11089 0.13751 0.2334 0.20857 -0.35352 -0.78275 -0.64391 -0.51731 -0.096005 0.13426 -0.32298 -0.27273 0.46613 -0.20312 0.37876 -0.48206 0.17313 0.3725 0.25378 0.65711 -0.4482 0.074401 -0.44794 0.33508 0.38502 -0.19571 -0.21345 0.48924 -0.30142 -0.084681 0.182 0.11704 0.11527 0.049633 -0.19111 -0.01362 -0.055369 9.731e-05 
unknowntoken 0.014988 0.01849 -0.019655 0.14951 -0.050443 -0.016486 0.030288 0.01719 0.15664 0.14858 -0.052055 -0.0033548 -0.13115 0.0561 -0.13196 -0.065223 -0.13333 0.061647 -0.046638 0.073507 0.084312 0.056516 -0.046159 -0.10678 0.0083907 -0.023506 -0.028027 -0.11456 0.14105 -0.023047 0.01111 -0.043111 -0.057307 -0.017057 0.025426 0.034769 0.01605 0.10022 -0.049019 0.037261 -0.049989 -0.022524 -0.092511 -0.0093977 -0.046439 0.061413 -0.10714 0.081139 0.10747 -0.072998 -0.041693 0.012972 -0.077293 -0.039089 -0.038461 -0.014639 -0.001797 0.16318 0.042107 0.081613 -0.014159 -0.092722 -0.019397 0.13742 0.020237 0.081116 -0.002443 0.097763 0.06582 -0.059926 0.068312 -0.12789 0.17306 -0.059607 0.0093431 0.018195 0.094616 0.14075 0.0079198 0.053858 0.078678 0.10615 -0.018121 -0.07078 0.023298 0.0032252 -0.054624 0.030267 -0.086278 -0.091027 0.10799 0.13594 -0.033761 -0.025061 0.067871 -0.044554 -0.1259 0.015073 -0.048246 -0.013708 -0.1473 -0.043924 0.0010764 -0.012927 -0.20714 -0.06274 0.031958 -0.0015135 0.0021821 -0.038224 -0.10536 0.015892 0.19679 0.038752 0.064236 -0.092668 -0.049515 -0.027908 0.14812 0.04086 0.06442 -0.0011193 -0.0070184 -0.037519 0.077181 0.019596 -0.12901 0.012163 -0.16136 0.16539 -0.027411 0.21189 0.12427 0.00602 -0.007023 -0.10993 -0.1187 -0.064217 0.01667 0.12294 0.045827 -0.030059 -0.10472 -0.083387 -0.066142 -0.014095 -0.057129 0.051789 -0.08026 -0.012144 0.0064092 -0.097831 -0.09715 -0.085317 0.04664 -0.030848 0.014469 0.037931 -0.044442 -0.055918 0.10427 0.024847 0.00099368 0.043719 0.14912 -0.089725 -0.049791 -0.033362 0.016093 -0.045348 0.053722 -0.16383 -0.073199 -0.056222 -0.059843 -0.0012761 0.099284 -0.066783 -0.11405 0.035247 -0.066311 0.13889 -0.10815 0.0077986 0.0032426 -0.069815 -0.11833 0.099247 -0.037951 0.10519 -0.043935 -0.06865 -0.19436 0.032532 -0.031938 -0.040051 -0.050293 -0.072874 -0.012166 0.067071 -0.14798 0.086894 0.039247 -0.0068336 0.089868 0.1632 -0.070365 0.010972 0.00038629 -4.9838e-05 0.067604 0.029004 -0.010169 0.037961 -0.18341 -0.1238 -0.0032165 -0.032942 0.030846 0.038398 0.063814 0.057779 -0.096589 -0.21308 -0.17528 -0.14168 -0.026174 0.037148 -0.08804 -0.074063 0.12683 -0.055886 0.10408 -0.13103 0.046901 0.10149 0.068915 0.17954 -0.12211 0.0198 -0.12266 0.091735 0.10524 -0.053032 -0.05862 0.13414 -0.08277 -0.023615 0.049839 0.032123 0.031188 0.013054 -0.052187 -0.0037941 -0.015418 -0.00015378 
and 0.034897 0.043196 -0.048549 0.36342 -0.12131 -0.040147 0.073001 0.042527 0.37755 0.36146 -0.12706 -0.0076099 -0.31816 0.13397 -0.31767 -0.15777 -0.32146 0.1489 -0.11183 0.17779 0.20631 0.13791 -0.11085 -0.25881 0.018971 -0.054219 -0.065401 -0.27555 0.33861 -0.054228 0.026524 -0.10361 -0.13724 -0.041414 0.062608 0.086031 0.040676 0.24126 -0.11874 0.090218 -0.12179 -0.055234 -0.22374 -0.02355 -0.11307 0.14901 -0.25951 0.19756 0.26189 -0.17661 -0.099366 0.031777 -0.18475 -0.092457 -0.092123 -0.034937 -0.0058579 0.39221 0.10303 0.19498 -0.035403 -0.22493 -0.044962 0.33381 0.047115 0.19265 -0.0059839 0.23481 0.1597 -0.14599 0.16438 -0.3095 0.41687 -0.14425 0.021456 0.044505 0.22893 0.33979 0.0197 0.12934 0.18972 0.25648 -0.044758 -0.1714 0.055459 0.0075351 -0.13153 0.073962 -0.20745 -0.22158 0.26147 0.32836 -0.081844 -0.060027 0.16253 -0.10604 -0.30455 0.036641 -0.11642 -0.033429 -0.35602 -0.1055 0.0014234 -0.030298 -0.50128 -0.15238 0.0781 -0.0030626 0.0060388 -0.092685 -0.25561 0.0386 0.47316 0.093352 0.15578 -0.2255 -0.11828 -0.067293 0.3566 0.097655 0.15629 -0.0018709 -0.015835 -0.091094 0.18627 0.045404 -0.31117 0.028521 -0.38978 0.39802 -0.066144 0.51138 0.29932 0.013532 -0.017928 -0.26702 -0.28724 -0.15391 0.039555 0.29914 0.11187 -0.070701 -0.25332 -0.20221 -0.15921 -0.036941 -0.14128 0.12487 -0.19468 -0.028964 0.015255 -0.23394 -0.2355 -0.20749 0.11182 -0.075649 0.034719 0.091922 -0.10792 -0.13561 0.25272 0.058416 0.0017244 0.10689 0.35959 -0.21659 -0.12083 -0.080706 0.03805 -0.10994 0.12891 -0.39483 -0.1747 -0.13346 -0.14422 -0.0021059 0.24039 -0.16106 -0.27558 0.085805 -0.16029 0.33486 -0.26123 0.017339 0.006555 -0.17064 -0.28565 0.23868 -0.091957 0.25569 -0.10589 -0.16635 -0.47161 0.078375 -0.077637 -0.095886 -0.1236 -0.17547 -0.031054 0.16244 -0.3588 0.20952 0.095854 -0.014791 0.21946 0.39349 -0.17011 0.027765 0.00044299 -0.0012859 0.1644 0.06923 -0.02343 0.094464 -0.4431 -0.29938 -0.0067777 -0.080388 0.073509 0.089794 0.15409 0.13837 -0.2326 -0.51478 -0.42476 -0.34106 -0.064171 0.087781 -0.21324 -0.17929 0.30871 -0.13478 0.25112 -0.31817 0.11242 0.24656 0.16785 0.43388 -0.29395 0.047322 -0.29632 0.22154 0.25544 -0.12922 -0.14165 0.32358 -0.19962 -0.057657 0.12063 0.077956 0.076525 0.032987 -0.12484 -0.0078793 -0.036619 0.00093817 
a 0.014028 0.018396 -0.020266 0.16172 -0.056442 -0.019336 0.03285 0.01911 0.1717 0.16381 -0.05481 -0.0041515 -0.14269 0.062553 -0.14489 -0.072052 -0.1452 0.067114 -0.051131 0.080635 0.093759 0.064229 -0.051677 -0.11625 0.008479 -0.024164 -0.030468 -0.12465 0.15705 -0.023344 0.013072 -0.04735 -0.059744 -0.015498 0.030983 0.038941 0.017696 0.11049 -0.051231 0.044222 -0.054088 -0.021674 -0.098417 -0.0090997 -0.051708 0.067252 -0.11563 0.093025 0.12 -0.079721 -0.045527 0.014061 -0.081942 -0.042751 -0.039642 -0.017532 -0.0024874 0.1806 0.044387 0.087264 -0.012359 -0.10314 -0.02136 0.14915 0.019266 0.088812 -0.0022051 0.10467 0.072287 -0.066879 0.070933 -0.14293 0.18845 -0.066189 0.0083621 0.021831 0.10431 0.15581 0.009554 0.060889 0.083314 0.11524 -0.018138 -0.077419 0.025003 0.0038902 -0.059142 0.032446 -0.092051 -0.10138 0.11969 0.14953 -0.038315 -0.028447 0.073511 -0.049569 -0.13782 0.018055 -0.053196 -0.011818 -0.16325 -0.044859 -0.00091783 -0.011756 -0.22802 -0.066099 0.036557 -0.00039272 0.00072877 -0.044106 -0.11569 0.017827 0.21439 0.041706 0.072072 -0.099003 -0.05149 -0.029278 0.1608 0.046482 0.071735 3.894e-05 -0.0086685 -0.040139 0.083936 0.023011 -0.14333 0.011911 -0.17583 0.17822 -0.029529 0.23392 0.13591 0.0050583 -0.0061546 -0.1235 -0.1295 -0.070276 0.019182 0.13526 0.05235 -0.033233 -0.11617 -0.090616 -0.072097 -0.01371 -0.065847 0.054792 -0.087243 -0.01215 0.0038326 -0.10452 -0.10816 -0.094939 0.054073 -0.034617 0.015688 0.041452 -0.051725 -0.05903 0.11328 0.028311 0.004235 0.047661 0.16165 -0.099423 -0.056011 -0.034616 0.015909 -0.04798 0.058845 -0.17843 -0.079682 -0.059748 -0.068866 -0.0010921 0.10953 -0.074445 -0.1243 0.039998 -0.072844 0.15097 -0.11855 0.0088125 0.0019559 -0.076926 -0.12839 0.11072 -0.038885 0.11794 -0.046136 -0.073107 -0.21201 0.034283 -0.032153 -0.045662 -0.055056 -0.079715 -0.013671 0.071479 -0.16117 0.091603 0.045497 -0.004484 0.10043 0.17878 -0.075413 0.01204 0.00033825 0.00065514 0.073057 0.030759 -0.0089277 0.043261 -0.20337 -0.1378 -0.0032465 -0.035809 0.0367 0.040072 0.073042 0.060185 -0.10699 -0.2327 -0.19059 -0.15604 -0.029663 0.037677 -0.095672 -0.084231 0.13742 -0.062566 0.11088 -0.1461 0.048584 0.11234 0.078032 0.19875 -0.1331 0.019567 -0.13714 0.10056 0.11491 -0.059468 -0.06331 0.14461 -0.088695 -0.025182 0.056377 0.034306 0.034949 0.012696 -0.057774 -0.0021312 -0.017175 0.0013732 
is 0.01705 0.021884 -0.023615 0.18088 -0.059403 -0.017614 0.035296 0.020905 0.18929 0.1808 -0.062701 -0.0049445 -0.15895 0.065197 -0.15931 -0.078161 -0.1624 0.073784 -0.055847 0.08753 0.10122 0.067989 -0.053972 -0.13 0.0086279 -0.027437 -0.033593 -0.13983 0.17208 -0.025902 0.013939 -0.050961 -0.070176 -0.020509 0.032303 0.043711 0.018307 0.12018 -0.059488 0.043633 -0.06081 -0.028966 -0.11231 -0.010953 -0.056711 0.075661 -0.12997 0.099157 0.13307 -0.088353 -0.050013 0.016119 -0.094448 -0.046584 -0.047152 -0.016361 -0.0027657 0.19575 0.05127 0.098809 -0.0161 -0.11286 -0.02379 0.16648 0.024619 0.09483 -0.00086223 0.11662 0.081721 -0.075052 0.080855 -0.154 0.20968 -0.072544 0.0098161 0.02275 0.11501 0.16907 0.0089206 0.06495 0.093958 0.12783 -0.021465 -0.085484 0.028134 0.0039194 -0.066018 0.037087 -0.10541 -0.10951 0.13065 0.16457 -0.04079 -0.030441 0.08089 -0.054256 -0.15315 0.0174 -0.059004 -0.014482 -0.17841 -0.051177 0.00095936 -0.014565 -0.25085 -0.07427 0.040266 -0.0030977 0.0035435 -0.047407 -0.12968 0.019579 0.23683 0.046905 0.078926 -0.11256 -0.060665 -0.03342 0.17981 0.050122 0.080276 -0.0027083 -0.0065599 -0.044447 0.09476 0.023152 -0.15599 0.014601 -0.19625 0.19825 -0.033507 0.25851 0.15042 0.0069199 -0.01071 -0.13207 -0.14377 -0.074889 0.018217 0.15052 0.052966 -0.035762 -0.1255 -0.10098 -0.079728 -0.018457 -0.069666 0.059958 -0.097604 -0.012595 0.008807 -0.11581 -0.11925 -0.10411 0.058166 -0.037569 0.018485 0.045194 -0.055501 -0.067206 0.12596 0.029612 0.0010604 0.053968 0.18025 -0.10678 -0.058767 -0.040634 0.018724 -0.056151 0.062732 -0.19739 -0.088311 -0.068318 -0.074085 -0.00076546 0.11881 -0.083067 -0.13754 0.04405 -0.081772 0.16841 -0.13026 0.010263 0.0055976 -0.086143 -0.1442 0.11926 -0.046502 0.12796 -0.054706 -0.083417 -0.23399 0.039451 -0.039345 -0.048584 -0.060752 -0.088296 -0.015031 0.081005 -0.17912 0.10287 0.046875 -0.00749 0.1093 0.19486 -0.086003 0.012873 0.0011415 -0.0015781 0.083524 0.033683 -0.014205 0.046828 -0.22359 -0.15074 -0.0032584 -0.039481 0.036741 0.043619 0.078607 0.068835 -0.11776 -0.2594 -0.21341 -0.17138 -0.030956 0.043353 -0.10673 -0.088661 0.153 -0.068018 0.12512 -0.1602 0.055045 0.1261 0.083417 0.21687 -0.14872 0.023021 -0.14788 0.10972 0.12528 -0.065779 -0.071421 0.16119 -0.099611 -0.026979 0.060721 0.038253 0.038245 0.016912 -0.062958 -0.004852 -0.019647 -0.00036983 
i 0.011615 0.012777 -0.014525 0.13011 -0.04353 -0.014838 0.028047 0.015471 0.13308 0.125 -0.043777 0.00081445 -0.11093 0.048612 -0.11264 -0.055367 -0.1125 0.052057 -0.036676 0.065933 0.070033 0.04492 -0.038678 -0.093477 0.008727 -0.022672 -0.02508 -0.096801 0.12175 -0.019156 0.011634 -0.037249 -0.047784 -0.014684 0.024131 0.030697 0.0097776 0.084247 -0.041537 0.031898 -0.042163 -0.020621 -0.077424 -0.0087488 -0.038439 0.055649 -0.092698 0.069143 0.093352 -0.062078 -0.034136 0.0078309 -0.065783 -0.036641 -0.035277 -0.011641 -0.0021102 0.13723 0.036074 0.072069 -0.014916 -0.079397 -0.01606 0.11688 0.01813 0.067168 -0.0016881 0.081799 0.057277 -0.051756 0.056647 -0.1116 0.15058 -0.050024 0.0071212 0.015945 0.078648 0.12146 0.0058926 0.042993 0.069183 0.091413 -0.016704 -0.06095 0.018185 0.0051694 -0.045047 0.028904 -0.074878 -0.075227 0.09471 0.11716 -0.029725 -0.021649 0.059349 -0.037077 -0.10651 0.011808 -0.044839 -0.014099 -0.12782 -0.039163 0.001453 -0.010539 -0.17907 -0.050341 0.029719 -0.0014376 0.0026905 -0.030784 -0.092015 0.014901 0.17066 0.032736 0.057961 -0.080013 -0.043753 -0.024501 0.12525 0.035776 0.057999 -0.00017041 -0.0052009 -0.033121 0.067587 0.016279 -0.1071 0.01075 -0.13543 0.14016 -0.021461 0.18192 0.10806 0.0047734 -0.0062545 -0.09158 -0.099306 -0.052311 0.015268 0.10675 0.040888 -0.023705 -0.089711 -0.070451 -0.057961 -0.011952 -0.051109 0.044367 -0.066681 -0.0071497 0.0014841 -0.084331 -0.0808 -0.073629 0.040154 -0.025833 0.012972 0.035198 -0.035533 -0.050243 0.088977 0.023319 0.0013841 0.03824 0.1267 -0.079121 -0.043846 -0.030145 0.011582 -0.039337 0.043134 -0.13964 -0.062016 -0.04821 -0.051344 -0.0008573 0.083868 -0.057346 -0.099842 0.03074 -0.056446 0.11933 -0.090124 0.00531 0.0014202 -0.061323 -0.10417 0.084041 -0.03367 0.09334 -0.035238 -0.06115 -0.16522 0.02992 -0.026608 -0.035376 -0.044609 -0.064488 -0.010424 0.057459 -0.12581 0.075308 0.034557 -0.007025 0.078969 0.14095 -0.061442 0.010805 -0.00032938 0.00019561 0.057484 0.023572 -0.011484 0.031133 -0.15625 -0.10699 -0.0029859 -0.029682 0.026705 0.02899 0.055158 0.050632 -0.08101 -0.18116 -0.15056 -0.12409 -0.0229 0.03326 -0.076763 -0.063155 0.10911 -0.046691 0.088049 -0.10987 0.040084 0.088924 0.05895 0.15292 -0.10335 0.015349 -0.10408 0.079635 0.089854 -0.043231 -0.046584 0.11296 -0.0722 -0.02182 0.044245 0.027355 0.026659 0.010719 -0.040986 -0.0044633 -0.0095428 0.0007352 
was 0.026626 0.031848 -0.032578 0.25456 -0.085651 -0.028814 0.049735 0.031072 0.26575 0.25602 -0.089707 -0.0046353 -0.22348 0.094908 -0.22354 -0.11164 -0.22731 0.10388 -0.077902 0.12423 0.14516 0.097597 -0.079537 -0.18017 0.013906 -0.039935 -0.046412 -0.19472 0.23979 -0.039041 0.020663 -0.072522 -0.09629 -0.029232 0.045437 0.058355 0.027567 0.17028 -0.083797 0.0643 -0.085118 -0.03961 -0.1568 -0.016788 -0.079504 0.10401 -0.18424 0.14002 0.18421 -0.1245 -0.071195 0.020867 -0.12982 -0.066193 -0.067872 -0.023397 -0.0044694 0.27609 0.0721 0.13851 -0.024989 -0.15761 -0.032489 0.23343 0.033736 0.13694 -0.0020894 0.16441 0.11251 -0.10172 0.11733 -0.21861 0.29197 -0.10064 0.016479 0.029559 0.16094 0.24027 0.01352 0.090069 0.13237 0.17858 -0.030922 -0.11874 0.041845 0.0043208 -0.091832 0.051222 -0.14555 -0.15679 0.18507 0.23193 -0.057668 -0.041931 0.11341 -0.074863 -0.21244 0.026507 -0.080197 -0.023282 -0.25128 -0.074092 0.0019699 -0.021545 -0.35136 -0.10763 0.054296 -0.0016213 0.0036473 -0.065358 -0.17891 0.027496 0.33314 0.067808 0.11068 -0.15802 -0.082435 -0.046877 0.2506 0.069948 0.11003 0.00096201 -0.010881 -0.064382 0.13045 0.030797 -0.22026 0.020231 -0.27438 0.28108 -0.046545 0.36024 0.20841 0.0095293 -0.012427 -0.18757 -0.202 -0.10795 0.028306 0.20961 0.078368 -0.049389 -0.17766 -0.14272 -0.11276 -0.024815 -0.096938 0.086915 -0.13746 -0.019185 0.0092955 -0.16391 -0.16542 -0.14478 0.079167 -0.052894 0.025861 0.061841 -0.076224 -0.093573 0.17835 0.042909 0.001773 0.073829 0.25444 -0.15247 -0.08539 -0.05786 0.027082 -0.0776 0.090637 -0.27807 -0.12327 -0.093841 -0.10176 -0.0013068 0.16976 -0.11328 -0.19441 0.059317 -0.11248 0.23712 -0.18378 0.013305 0.0053145 -0.11767 -0.20013 0.16913 -0.064796 0.17921 -0.07403 -0.11446 -0.33194 0.055214 -0.055552 -0.070151 -0.086839 -0.12446 -0.02088 0.11344 -0.25132 0.14693 0.066226 -0.011818 0.15367 0.27667 -0.11955 0.019021 0.00098115 -0.0009194 0.11503 0.049396 -0.016062 0.066231 -0.30997 -0.21019 -0.0027473 -0.054938 0.051688 0.063458 0.10689 0.098137 -0.16339 -0.36193 -0.29875 -0.24191 -0.043577 0.061064 -0.15069 -0.12663 0.21461 -0.093087 0.17584 -0.22457 0.079882 0.17344 0.11626 0.30375 -0.20855 0.032338 -0.20817 0.15466 0.17669 -0.091162 -0.098449 0.22861 -0.1408 -0.038514 0.083516 0.054478 0.052578 0.024127 -0.087912 -0.0039779 -0.024448 0.00018364 
to 0.02461 0.033481 -0.032383 0.25385 -0.086029 -0.027857 0.050926 0.030068 0.2663 0.25227 -0.089543 -0.0054284 -0.22416 0.09624 -0.22465 -0.11324 -0.22573 0.10287 -0.078573 0.12319 0.14249 0.094766 -0.077886 -0.18174 0.013707 -0.037566 -0.04553 -0.194 0.2394 -0.038494 0.018728 -0.072986 -0.094972 -0.027514 0.04477 0.059073 0.026607 0.16936 -0.082383 0.065145 -0.086556 -0.038798 -0.15477 -0.015592 -0.078972 0.10427 -0.18216 0.13825 0.18336 -0.12517 -0.072255 0.022959 -0.12856 -0.065798 -0.065866 -0.023632 -0.0026769 0.27643 0.070885 0.1383 -0.026078 -0.15787 -0.033528 0.23422 0.032341 0.13526 -0.0027275 0.16339 0.11158 -0.10275 0.11483 -0.2176 0.29169 -0.10279 0.016032 0.031171 0.16081 0.23969 0.015078 0.090981 0.13376 0.17809 -0.030082 -0.11904 0.039626 0.0060408 -0.091474 0.049393 -0.14638 -0.15382 0.18297 0.2305 -0.057597 -0.040306 0.11282 -0.074249 -0.21169 0.024787 -0.08208 -0.021036 -0.24999 -0.075399 0.0022325 -0.020922 -0.35095 -0.10782 0.054242 -0.0033113 0.0036677 -0.065741 -0.18042 0.027296 0.3323 0.065431 0.11141 -0.15613 -0.084811 -0.047896 0.25065 0.070487 0.11044 -0.0022997 -0.013216 -0.065144 0.13161 0.03269 -0.21903 0.02148 -0.27362 0.27973 -0.044721 0.36097 0.21076 0.0093165 -0.012063 -0.18775 -0.20154 -0.10572 0.028592 0.20846 0.077873 -0.051034 -0.17654 -0.14121 -0.11248 -0.025736 -0.096079 0.085431 -0.13606 -0.02007 0.011424 -0.16258 -0.16778 -0.1442 0.080326 -0.052123 0.025628 0.063339 -0.074209 -0.091986 0.17754 0.043346 0.00086404 0.075391 0.25235 -0.1525 -0.084185 -0.054372 0.026144 -0.077554 0.089225 -0.27695 -0.12244 -0.092234 -0.1036 -0.0010895 0.16863 -0.11246 -0.19291 0.060764 -0.11356 0.23435 -0.18396 0.013992 0.0045859 -0.11912 -0.20028 0.16973 -0.063025 0.17956 -0.073703 -0.11457 -0.32997 0.056751 -0.054508 -0.06895 -0.086311 -0.12253 -0.019658 0.1123 -0.2541 0.14589 0.067195 -0.01186 0.15371 0.27748 -0.12033 0.020272 -0.00082575 0.0011122 0.11546 0.048133 -0.018948 0.066171 -0.31059 -0.20913 -0.0033134 -0.055878 0.052692 0.064209 0.1077 0.097374 -0.16152 -0.36196 -0.29977 -0.24203 -0.043456 0.061502 -0.14947 -0.12716 0.21307 -0.094179 0.17695 -0.22357 0.078942 0.17242 0.11632 0.30284 -0.20517 0.034282 -0.20662 0.15275 0.17859 -0.09253 -0.099336 0.22715 -0.13932 -0.040713 0.084477 0.053312 0.053675 0.022055 -0.087794 -0.0033703 -0.028039 0.0022191 
of 0.019197 0.025301 -0.026147 0.19917 -0.066233 -0.021789 0.040947 0.023779 0.20915 0.20226 -0.071245 -0.0022466 -0.17611 0.073104 -0.17553 -0.087215 -0.18004 0.080317 -0.062901 0.097489 0.11276 0.073658 -0.062597 -0.14332 0.010126 -0.031611 -0.038424 -0.15379 0.18976 -0.029887 0.016109 -0.059126 -0.075218 -0.024161 0.034366 0.047876 0.019511 0.13389 -0.066519 0.050527 -0.065455 -0.029435 -0.1233 -0.012596 -0.060044 0.08209 -0.14314 0.1113 0.1422 -0.098263 -0.05596 0.01662 -0.10062 -0.050862 -0.05041 -0.018853 -0.00011196 0.21996 0.057117 0.10803 -0.019322 -0.12342 -0.025286 0.18196 0.026503 0.10772 -0.0029584 0.13042 0.088366 -0.081023 0.089988 -0.1705 0.22968 -0.077534 0.012494 0.024576 0.12526 0.18903 0.012292 0.071621 0.10754 0.14298 -0.025568 -0.093502 0.031514 0.0066513 -0.071994 0.040408 -0.11427 -0.12105 0.14381 0.1821 -0.046103 -0.032219 0.091622 -0.056362 -0.1691 0.020439 -0.067241 -0.017652 -0.19675 -0.058282 9.2948e-05 -0.018187 -0.27565 -0.082507 0.042458 -0.00071161 0.0041463 -0.050513 -0.14074 0.022593 0.26139 0.052707 0.084993 -0.12238 -0.0651 -0.037582 0.19679 0.053843 0.087699 -0.0011847 -0.0089668 -0.049332 0.10079 0.02614 -0.17268 0.016922 -0.21692 0.2205 -0.036579 0.28291 0.1649 0.0084725 -0.0095876 -0.14761 -0.16013 -0.084888 0.021673 0.16518 0.061491 -0.03934 -0.14188 -0.11182 -0.090152 -0.020575 -0.077469 0.067581 -0.10631 -0.017132 0.0080611 -0.12902 -0.12932 -0.11641 0.062152 -0.041929 0.021383 0.050743 -0.060729 -0.072069 0.13911 0.032938 0.0023765 0.059187 0.20053 -0.11962 -0.066014 -0.042772 0.020781 -0.062465 0.072139 -0.22167 -0.096096 -0.073251 -0.078795 0.0018966 0.13376 -0.08803 -0.15171 0.045912 -0.088839 0.1868 -0.14446 0.0085607 0.0040329 -0.094172 -0.15772 0.13313 -0.052096 0.14057 -0.057236 -0.091991 -0.26126 0.042336 -0.043611 -0.054121 -0.066987 -0.097972 -0.015547 0.087848 -0.19742 0.11633 0.052151 -0.0088961 0.12134 0.21716 -0.095052 0.016295 -0.0015472 -0.0037258 0.089227 0.038781 -0.011215 0.048821 -0.24424 -0.16522 -0.0024975 -0.043486 0.04075 0.050801 0.084692 0.075286 -0.12722 -0.28536 -0.23516 -0.18767 -0.032646 0.049073 -0.11907 -0.10115 0.17038 -0.074997 0.13761 -0.17629 0.062006 0.13698 0.092085 0.23899 -0.1619 0.026671 -0.16367 0.12297 0.13829 -0.072361 -0.07645 0.17798 -0.10788 -0.030294 0.068576 0.043863 0.043247 0.018128 -0.068744 -0.0053787 -0.020401 -0.00054271 
it 0.02199 0.024274 -0.026868 0.20695 -0.070541 -0.024685 0.042317 0.024315 0.21417 0.20414 -0.070931 -0.0059794 -0.18058 0.077567 -0.18158 -0.090898 -0.18286 0.085082 -0.063826 0.10034 0.11517 0.077952 -0.062956 -0.14602 0.013283 -0.031441 -0.038916 -0.15878 0.19165 -0.03248 0.014783 -0.058319 -0.078621 -0.02354 0.035995 0.04967 0.021582 0.13777 -0.066256 0.051757 -0.070253 -0.031874 -0.12716 -0.013544 -0.06361 0.084716 -0.14759 0.11092 0.14835 -0.10167 -0.056675 0.017407 -0.10514 -0.054363 -0.053919 -0.02062 -0.0043454 0.22654 0.059323 0.11196 -0.019964 -0.12828 -0.027982 0.18883 0.027393 0.11018 -0.0042727 0.13088 0.090479 -0.084502 0.092279 -0.17561 0.23843 -0.080245 0.011258 0.025069 0.12969 0.19298 0.010269 0.0732 0.10812 0.14527 -0.02444 -0.097771 0.029292 0.0038481 -0.073357 0.044533 -0.11759 -0.12383 0.14887 0.18852 -0.045643 -0.032642 0.09435 -0.062867 -0.17332 0.020527 -0.066882 -0.019074 -0.2029 -0.059397 0.0026592 -0.017069 -0.28483 -0.08715 0.045545 0.00011256 0.0015851 -0.053948 -0.14473 0.020195 0.27008 0.052972 0.089695 -0.12718 -0.068424 -0.039504 0.20397 0.055682 0.089611 -0.0018958 -0.008378 -0.049286 0.10553 0.0254 -0.17553 0.019029 -0.22271 0.22764 -0.036776 0.28887 0.17001 0.0098719 -0.0094424 -0.15154 -0.16213 -0.08591 0.022976 0.17018 0.062565 -0.041609 -0.14551 -0.11337 -0.089277 -0.018155 -0.078124 0.069517 -0.10916 -0.012748 0.009234 -0.13306 -0.13644 -0.11694 0.063179 -0.043818 0.020052 0.051494 -0.06051 -0.078166 0.14313 0.033249 0.0020879 0.061776 0.20516 -0.12073 -0.068705 -0.044949 0.023137 -0.062353 0.074037 -0.22398 -0.10028 -0.076353 -0.081229 -0.0020902 0.13764 -0.09412 -0.15633 0.049019 -0.092925 0.19101 -0.14892 0.010995 0.0038432 -0.097849 -0.16511 0.13372 -0.049363 0.14455 -0.059426 -0.093373 -0.26595 0.045876 -0.044791 -0.055356 -0.0692 -0.10103 -0.0161 0.093982 -0.20412 0.1208 0.054105 -0.010465 0.12438 0.22323 -0.094448 0.017583 -0.00010102 0.0015604 0.09274 0.040083 -0.017528 0.052445 -0.25296 -0.17004 -0.0032786 -0.047093 0.041037 0.051507 0.089001 0.07798 -0.13066 -0.29133 -0.23954 -0.19497 -0.036277 0.049725 -0.11995 -0.1039 0.17542 -0.07524 0.14236 -0.18061 0.064916 0.14172 0.095451 0.24763 -0.1674 0.02668 -0.16927 0.12704 0.14631 -0.073213 -0.079496 0.1815 -0.11303 -0.03114 0.069084 0.043382 0.042622 0.018231 -0.068897 -0.0050106 -0.020465 -0.00036166 
for 0.021993 0.026549 -0.029274 0.2205 -0.074865 -0.024298 0.04363 0.025321 0.22884 0.21891 -0.07597 -0.0040368 -0.19273 0.082334 -0.19457 -0.097217 -0.19449 0.089151 -0.067089 0.10769 0.12382 0.08233 -0.066994 -0.15669 0.012175 -0.032859 -0.041765 -0.16752 0.20402 -0.033505 0.016796 -0.061317 -0.081834 -0.025776 0.038166 0.050654 0.023102 0.14739 -0.073508 0.055766 -0.073955 -0.034021 -0.13551 -0.015479 -0.06727 0.090317 -0.15664 0.12011 0.16001 -0.1074 -0.062779 0.019581 -0.11123 -0.057068 -0.056277 -0.019966 -0.0033721 0.23845 0.061441 0.11801 -0.021554 -0.13517 -0.027465 0.20014 0.028298 0.11631 -0.0031109 0.14079 0.097779 -0.088503 0.099174 -0.18676 0.25132 -0.08455 0.013291 0.02555 0.13674 0.20475 0.011767 0.080157 0.11494 0.1547 -0.027124 -0.10426 0.034553 0.0025843 -0.080682 0.042543 -0.12681 -0.13088 0.15889 0.19903 -0.049767 -0.037327 0.098224 -0.063483 -0.18313 0.021104 -0.070699 -0.020265 -0.21594 -0.064231 0.0024266 -0.019198 -0.30317 -0.091207 0.048046 -0.0021441 0.0051154 -0.055593 -0.15313 0.023097 0.28784 0.056008 0.094382 -0.13458 -0.071599 -0.040999 0.21653 0.059332 0.094835 -0.0015905 -0.010103 -0.05503 0.11215 0.02849 -0.18884 0.018234 -0.23632 0.24106 -0.041995 0.30992 0.18213 0.0092661 -0.011075 -0.16166 -0.17217 -0.092029 0.024717 0.18126 0.067246 -0.042566 -0.15307 -0.12159 -0.0964 -0.021774 -0.084913 0.075229 -0.11866 -0.018187 0.0089457 -0.14118 -0.14024 -0.12433 0.068833 -0.046233 0.021906 0.055077 -0.065984 -0.082704 0.15197 0.036129 0.00038967 0.064294 0.21701 -0.1315 -0.073173 -0.048172 0.02366 -0.067238 0.078314 -0.23907 -0.10631 -0.082288 -0.087757 -0.00071174 0.14556 -0.097965 -0.16714 0.052572 -0.097942 0.2019 -0.1578 0.011892 0.0026838 -0.10329 -0.17145 0.14544 -0.056375 0.15488 -0.063123 -0.10089 -0.2848 0.048023 -0.047028 -0.058748 -0.073088 -0.10397 -0.019272 0.096022 -0.2173 0.12649 0.058152 -0.0089652 0.13229 0.23978 -0.1031 0.015711 0.0018889 0.00035348 0.099292 0.040609 -0.01426 0.055743 -0.26761 -0.18126 -0.0033202 -0.047855 0.045082 0.055007 0.094204 0.083896 -0.14089 -0.31206 -0.25797 -0.20634 -0.038042 0.05308 -0.12936 -0.11031 0.18626 -0.080097 0.15259 -0.1922 0.069116 0.1487 0.10227 0.26125 -0.17886 0.029437 -0.17939 0.13375 0.15491 -0.076721 -0.08462 0.19511 -0.1195 -0.035695 0.073631 0.048084 0.04545 0.020191 -0.075627 -0.0051607 -0.022612 0.0011491 
in 0.023281 0.028284 -0.02991 0.23298 -0.076671 -0.026057 0.048025 0.024947 0.24273 0.23169 -0.080039 -0.0050009 -0.2032 0.087196 -0.20516 -0.10158 -0.20533 0.093138 -0.071107 0.11395 0.13088 0.087508 -0.072456 -0.16398 0.011956 -0.03521 -0.042698 -0.178 0.21866 -0.03572 0.016317 -0.065142 -0.088518 -0.026302 0.039528 0.055839 0.024105 0.15548 -0.075799 0.058304 -0.077818 -0.038085 -0.14386 -0.017127 -0.073883 0.094736 -0.16528 0.12649 0.16656 -0.11505 -0.064358 0.02046 -0.11832 -0.060605 -0.058633 -0.021088 -0.0021429 0.25282 0.066382 0.12511 -0.021662 -0.14307 -0.030836 0.21457 0.030899 0.12328 -0.0024438 0.14864 0.103 -0.093386 0.10771 -0.19959 0.26598 -0.091812 0.013755 0.028359 0.14681 0.21917 0.012537 0.081679 0.12093 0.16406 -0.02951 -0.1087 0.036488 0.0049018 -0.084592 0.046422 -0.13478 -0.13904 0.1683 0.21139 -0.052547 -0.038799 0.1038 -0.068752 -0.19575 0.023676 -0.073259 -0.019847 -0.2259 -0.068106 0.0014058 -0.020356 -0.3227 -0.099099 0.049177 -0.0024571 0.0040022 -0.058703 -0.16594 0.02465 0.30417 0.059934 0.10135 -0.1446 -0.075734 -0.042938 0.22954 0.063639 0.098421 -0.0028782 -0.010115 -0.056435 0.11976 0.0306 -0.19855 0.019225 -0.25064 0.25324 -0.042616 0.32876 0.19284 0.0094265 -0.011227 -0.17271 -0.1844 -0.099086 0.02754 0.19116 0.070852 -0.046302 -0.1617 -0.12833 -0.10117 -0.023133 -0.088799 0.080546 -0.12483 -0.016598 0.0083229 -0.15176 -0.15031 -0.13301 0.073902 -0.049004 0.025564 0.058207 -0.068766 -0.085615 0.16189 0.038523 0.0017835 0.069911 0.23102 -0.13798 -0.076358 -0.050261 0.023467 -0.068889 0.082231 -0.25268 -0.1132 -0.08727 -0.093454 -0.00097061 0.15344 -0.1058 -0.17649 0.054593 -0.10459 0.21728 -0.16528 0.0098016 0.0021072 -0.10808 -0.18347 0.15489 -0.05835 0.16305 -0.067849 -0.10593 -0.29958 0.050567 -0.0483 -0.061995 -0.077912 -0.11154 -0.019092 0.10327 -0.22869 0.13265 0.060915 -0.011961 0.14206 0.25419 -0.10979 0.017955 -0.00091596 -0.0012882 0.10447 0.046203 -0.014893 0.060265 -0.28416 -0.19158 -0.0031993 -0.05171 0.047304 0.056411 0.098734 0.08746 -0.14966 -0.33159 -0.27236 -0.22068 -0.040092 0.056668 -0.13447 -0.11663 0.19668 -0.085836 0.16128 -0.20524 0.075114 0.156 0.10629 0.28029 -0.18921 0.02945 -0.18899 0.14118 0.16226 -0.083638 -0.091501 0.20566 -0.12839 -0.035966 0.076484 0.050405 0.04825 0.021702 -0.079066 -0.0062525 -0.023952 -0.0012821 
food 0.024011 0.029914 -0.032021 0.23681 -0.080323 -0.027475 0.046624 0.027751 0.24767 0.23833 -0.083114 -0.006205 -0.20952 0.090377 -0.20809 -0.10326 -0.2106 0.097259 -0.072758 0.1166 0.13421 0.089308 -0.072657 -0.16939 0.01394 -0.037015 -0.04484 -0.1812 0.22242 -0.035713 0.018305 -0.067543 -0.09014 -0.02826 0.040731 0.055883 0.024632 0.15859 -0.077586 0.060253 -0.07932 -0.036089 -0.14717 -0.016171 -0.074058 0.096757 -0.17102 0.12923 0.17194 -0.11796 -0.066056 0.020137 -0.12095 -0.060833 -0.060745 -0.022796 -0.0041653 0.25799 0.067208 0.12748 -0.022499 -0.14637 -0.030263 0.21793 0.03137 0.12624 -0.0026445 0.1527 0.10498 -0.096348 0.10739 -0.20363 0.27361 -0.093919 0.01397 0.028104 0.14887 0.22463 0.013383 0.085591 0.12599 0.16835 -0.028044 -0.11163 0.03757 0.004118 -0.085924 0.049346 -0.13619 -0.14449 0.17188 0.21491 -0.054376 -0.03884 0.10697 -0.068941 -0.19997 0.024056 -0.076347 -0.021206 -0.23389 -0.069466 0.0022482 -0.020494 -0.32864 -0.10033 0.050936 -0.0020793 0.0042341 -0.061745 -0.16768 0.026643 0.31215 0.060572 0.10312 -0.14667 -0.077106 -0.043731 0.23469 0.063757 0.10342 -0.0020957 -0.011969 -0.059275 0.12236 0.030895 -0.20457 0.019664 -0.25737 0.26163 -0.043665 0.33722 0.19729 0.009041 -0.012219 -0.17486 -0.18726 -0.10044 0.025345 0.19564 0.074928 -0.046533 -0.1678 -0.13279 -0.10489 -0.024298 -0.092638 0.080677 -0.12746 -0.018826 0.010349 -0.15264 -0.15381 -0.13605 0.073194 -0.048226 0.023037 0.060705 -0.069752 -0.088176 0.16498 0.038527 -0.00053606 0.069832 0.23487 -0.14113 -0.077845 -0.05431 0.025097 -0.071601 0.085157 -0.2591 -0.11484 -0.088028 -0.095253 -0.00062132 0.15688 -0.10618 -0.1814 0.057452 -0.10544 0.22067 -0.17123 0.013972 0.0038199 -0.11047 -0.18719 0.15847 -0.060312 0.16627 -0.069687 -0.10843 -0.30877 0.05143 -0.050978 -0.064203 -0.081495 -0.11575 -0.021217 0.10677 -0.23453 0.13832 0.063663 -0.01175 0.14331 0.25823 -0.11194 0.018276 0.0017832 -2.4982e-05 0.10746 0.04422 -0.014943 0.060845 -0.29167 -0.19682 -0.0030476 -0.053187 0.048503 0.059752 0.1021 0.091387 -0.15299 -0.33824 -0.2791 -0.22333 -0.042422 0.057218 -0.14102 -0.1176 0.20062 -0.088315 0.16464 -0.20836 0.0743 0.1614 0.11077 0.28371 -0.19345 0.030353 -0.1941 0.14431 0.16559 -0.084722 -0.090883 0.21195 -0.13109 -0.035599 0.080491 0.052137 0.050224 0.021095 -0.082194 -0.0060302 -0.023747 0.0010189 
this 0.024127 0.030585 -0.031804 0.24807 -0.084489 -0.026882 0.04919 0.028528 0.26002 0.24744 -0.084846 -0.0055416 -0.21771 0.092261 -0.21867 -0.10856 -0.22042 0.10186 -0.076349 0.12272 0.1395 0.093412 -0.076452 -0.1756 0.012811 -0.036736 -0.044922 -0.18905 0.23472 -0.037315 0.018572 -0.071038 -0.094227 -0.028894 0.042346 0.058941 0.026324 0.16455 -0.079039 0.061395 -0.084492 -0.038277 -0.15207 -0.016606 -0.077685 0.10183 -0.17735 0.13531 0.17756 -0.12167 -0.068365 0.021343 -0.12574 -0.063521 -0.063851 -0.022533 -0.0029141 0.26951 0.069131 0.13429 -0.022781 -0.15352 -0.031021 0.22681 0.03309 0.13114 -0.0025312 0.16037 0.11052 -0.10104 0.11253 -0.21214 0.28427 -0.098323 0.015563 0.029574 0.15663 0.23243 0.013566 0.087729 0.12994 0.17508 -0.031936 -0.11667 0.038491 0.0041966 -0.089946 0.049922 -0.14317 -0.15054 0.17909 0.22511 -0.056605 -0.040262 0.11115 -0.073977 -0.20845 0.025112 -0.079107 -0.022073 -0.24366 -0.070158 0.0022355 -0.022172 -0.34215 -0.10258 0.054568 -0.0020804 0.0043606 -0.064141 -0.17463 0.027237 0.32497 0.063474 0.10592 -0.15332 -0.081056 -0.045716 0.24459 0.067485 0.1069 -0.00098798 -0.011142 -0.062557 0.12715 0.030299 -0.21215 0.020505 -0.26778 0.27209 -0.044656 0.35134 0.20484 0.010229 -0.012487 -0.1831 -0.19642 -0.10526 0.027415 0.20417 0.076636 -0.047598 -0.17456 -0.13867 -0.10968 -0.023696 -0.095756 0.084751 -0.13308 -0.020792 0.010736 -0.16006 -0.16138 -0.14157 0.077284 -0.050819 0.02478 0.062202 -0.074394 -0.090242 0.17354 0.039875 0.0012524 0.072787 0.24631 -0.1477 -0.082197 -0.055205 0.025889 -0.076522 0.088487 -0.27141 -0.12043 -0.090881 -0.099599 -0.0017165 0.16495 -0.10978 -0.18947 0.060149 -0.11069 0.22988 -0.17826 0.014629 0.0051991 -0.11782 -0.19695 0.16477 -0.063576 0.17498 -0.072518 -0.11465 -0.32193 0.05435 -0.05311 -0.066232 -0.083975 -0.12027 -0.020512 0.10985 -0.244 0.14389 0.06645 -0.01234 0.15035 0.26988 -0.11622 0.018357 7.9556e-05 -0.00085916 0.11258 0.046112 -0.016799 0.063966 -0.30381 -0.20639 -0.0036797 -0.054372 0.051063 0.062723 0.10614 0.094877 -0.15891 -0.35335 -0.29037 -0.2341 -0.043321 0.060608 -0.14602 -0.12241 0.20904 -0.092387 0.16982 -0.21804 0.077564 0.16884 0.11406 0.29681 -0.20302 0.03243 -0.20322 0.1514 0.17356 -0.087927 -0.096867 0.22027 -0.13763 -0.037691 0.082272 0.052777 0.052069 0.021432 -0.085673 -0.0058686 -0.025528 0.00048061 
but 0.013591 0.017644 -0.019018 0.14619 -0.051287 -0.017383 0.029214 0.01681 0.1531 0.14833 -0.051246 -0.0036392 -0.12763 0.054609 -0.13058 -0.06447 -0.13061 0.059434 -0.045464 0.070264 0.083851 0.055706 -0.043698 -0.10482 0.0077593 -0.023084 -0.027092 -0.11186 0.13661 -0.022106 0.010433 -0.04133 -0.055178 -0.01576 0.026847 0.036065 0.016389 0.097575 -0.048404 0.03636 -0.047365 -0.021798 -0.09075 -0.007603 -0.046322 0.060201 -0.10355 0.078922 0.10482 -0.07084 -0.041044 0.013407 -0.073604 -0.038562 -0.036457 -0.013908 -0.0022301 0.16049 0.04159 0.079334 -0.014713 -0.091165 -0.020149 0.13598 0.019919 0.077722 -0.0027722 0.094973 0.064908 -0.057292 0.068112 -0.12426 0.16816 -0.05713 0.0085407 0.018426 0.091657 0.13834 0.0073858 0.051537 0.076912 0.10477 -0.018364 -0.070352 0.023815 0.0014498 -0.05323 0.03067 -0.084825 -0.088003 0.1057 0.13369 -0.032934 -0.022997 0.066138 -0.044978 -0.12343 0.015262 -0.047269 -0.013078 -0.14467 -0.043336 -0.00054104 -0.012404 -0.20256 -0.062185 0.030611 -0.001258 0.0017741 -0.037311 -0.10466 0.015742 0.19111 0.037429 0.063175 -0.089724 -0.045683 -0.027467 0.14571 0.038849 0.061534 -0.0013649 -0.006052 -0.037604 0.074476 0.017618 -0.12634 0.012478 -0.15763 0.16144 -0.026387 0.20789 0.11987 0.0047335 -0.0082597 -0.10911 -0.11452 -0.061404 0.015971 0.12 0.044854 -0.028296 -0.10373 -0.082989 -0.065418 -0.015052 -0.056242 0.049361 -0.080678 -0.01194 0.006706 -0.094934 -0.094671 -0.083246 0.04446 -0.03036 0.01464 0.036124 -0.04314 -0.053719 0.10335 0.02397 0.00062791 0.043029 0.14471 -0.086109 -0.048394 -0.031984 0.015076 -0.045494 0.05202 -0.15903 -0.070186 -0.054954 -0.059522 -0.00079603 0.097102 -0.064558 -0.11193 0.036226 -0.064388 0.13605 -0.10627 0.0074058 0.002789 -0.068848 -0.11581 0.097096 -0.037344 0.10478 -0.04333 -0.066673 -0.19004 0.034017 -0.030929 -0.037818 -0.04937 -0.069645 -0.012368 0.066556 -0.14711 0.083182 0.038932 -0.006304 0.088184 0.15822 -0.069927 0.011091 0.0003123 -0.00065378 0.067185 0.02729 -0.009075 0.038435 -0.17943 -0.12124 -0.0019433 -0.031543 0.028532 0.036172 0.062072 0.056206 -0.095297 -0.20954 -0.17318 -0.13907 -0.026474 0.036485 -0.087408 -0.073607 0.12456 -0.053369 0.10226 -0.12971 0.045337 0.10006 0.067807 0.17658 -0.11893 0.018359 -0.11861 0.088695 0.10375 -0.052371 -0.058388 0.12969 -0.080624 -0.023196 0.05027 0.031895 0.030376 0.011691 -0.051261 -0.0023988 -0.014678 0.0014638 
we 0.016894 0.021221 -0.023171 0.18009 -0.059123 -0.020685 0.037349 0.021854 0.1881 0.17893 -0.063788 -0.0032393 -0.15652 0.067018 -0.16008 -0.07977 -0.16004 0.074129 -0.055302 0.086688 0.099773 0.068022 -0.05396 -0.12708 0.010145 -0.027536 -0.032576 -0.13662 0.16811 -0.028843 0.012611 -0.050453 -0.066137 -0.021835 0.031444 0.042206 0.01801 0.12153 -0.058822 0.042792 -0.059266 -0.026904 -0.11124 -0.011442 -0.053544 0.072538 -0.1282 0.098688 0.12908 -0.087608 -0.049479 0.014389 -0.091071 -0.04571 -0.047579 -0.015848 -0.0038189 0.1951 0.051394 0.09615 -0.015212 -0.11001 -0.022994 0.16645 0.02296 0.096382 -0.0010008 0.11572 0.078508 -0.073538 0.080416 -0.15466 0.20862 -0.072606 0.011193 0.021145 0.1144 0.1709 0.0080694 0.065852 0.093995 0.1294 -0.021401 -0.083227 0.028694 0.0025269 -0.066019 0.035068 -0.10236 -0.11021 0.12947 0.16138 -0.041341 -0.028796 0.081812 -0.054802 -0.15205 0.017232 -0.058844 -0.016721 -0.17689 -0.053959 0.0011927 -0.016265 -0.24878 -0.073447 0.039658 -0.0015418 0.0032058 -0.046793 -0.12757 0.018471 0.23716 0.046555 0.07857 -0.10963 -0.057932 -0.03319 0.17677 0.049724 0.075944 -0.0015969 -0.0058264 -0.043987 0.093231 0.024564 -0.15367 0.015372 -0.19587 0.19928 -0.031323 0.2557 0.14748 0.0072559 -0.008635 -0.13134 -0.14279 -0.075685 0.021571 0.14643 0.057041 -0.035753 -0.1256 -0.1009 -0.077265 -0.017424 -0.071389 0.059904 -0.095211 -0.015807 0.0078257 -0.11603 -0.11842 -0.10086 0.053851 -0.03902 0.019 0.045762 -0.053275 -0.065938 0.12315 0.030942 0.00072756 0.05208 0.17873 -0.10648 -0.058928 -0.038956 0.01887 -0.055988 0.063043 -0.19617 -0.086849 -0.067816 -0.071113 -0.0018747 0.12016 -0.079877 -0.13848 0.041468 -0.081852 0.16596 -0.12942 0.0099495 0.0029979 -0.084954 -0.14314 0.1192 -0.047009 0.12672 -0.052636 -0.082096 -0.23633 0.040784 -0.036529 -0.048246 -0.061432 -0.086967 -0.016155 0.080677 -0.18004 0.10369 0.047337 -0.0097829 0.10786 0.19444 -0.083649 0.013406 0.0017207 -0.00035421 0.080782 0.032851 -0.013286 0.047195 -0.22083 -0.15019 -0.0039643 -0.040568 0.036925 0.044961 0.076771 0.068199 -0.11523 -0.25524 -0.21297 -0.17113 -0.031441 0.043464 -0.10334 -0.090055 0.15429 -0.065688 0.12536 -0.16025 0.056522 0.11994 0.080716 0.21655 -0.14669 0.023987 -0.14679 0.11002 0.12454 -0.063419 -0.071061 0.15994 -0.099872 -0.026665 0.059452 0.036676 0.03859 0.016623 -0.062582 -0.0045016 -0.017912 0.0010782 
great 0.017564 0.022387 -0.024059 0.17782 -0.059047 -0.018414 0.036079 0.02162 0.18698 0.17758 -0.062204 -0.0047867 -0.15707 0.067071 -0.15797 -0.079263 -0.15726 0.073694 -0.055738 0.08742 0.10087 0.06718 -0.054971 -0.12811 0.010221 -0.027386 -0.033725 -0.13609 0.16802 -0.0281 0.013609 -0.050937 -0.068664 -0.02038 0.030146 0.042735 0.01894 0.11907 -0.057568 0.044821 -0.059722 -0.027812 -0.10981 -0.010864 -0.055372 0.073445 -0.12833 0.097467 0.1285 -0.08826 -0.050435 0.015719 -0.091154 -0.047033 -0.046126 -0.01752 -0.001994 0.19381 0.050747 0.09708 -0.016287 -0.11213 -0.022707 0.16347 0.022607 0.095322 -0.0021451 0.11513 0.079241 -0.07115 0.082224 -0.15283 0.20429 -0.071016 0.010065 0.021537 0.11303 0.16808 0.0097628 0.063404 0.09381 0.12651 -0.02117 -0.084479 0.028384 0.0037563 -0.065092 0.036772 -0.10315 -0.10865 0.12963 0.16208 -0.04009 -0.029427 0.080465 -0.053145 -0.1503 0.017208 -0.05687 -0.015694 -0.17633 -0.051267 0.0021014 -0.015882 -0.24612 -0.074982 0.039007 -0.0018411 0.0025117 -0.0445 -0.12529 0.018885 0.2351 0.045929 0.077431 -0.11042 -0.059667 -0.033598 0.17576 0.048861 0.077086 -0.0021873 -0.0090388 -0.045179 0.091907 0.023966 -0.15226 0.014387 -0.19282 0.19685 -0.032593 0.25218 0.14732 0.0068449 -0.0090171 -0.13243 -0.14131 -0.075781 0.019808 0.14806 0.055028 -0.035033 -0.12519 -0.10004 -0.077826 -0.016956 -0.069016 0.061031 -0.095593 -0.014051 0.0071809 -0.11534 -0.11577 -0.10226 0.055399 -0.037326 0.017999 0.044908 -0.054173 -0.066023 0.12337 0.029495 0.0016369 0.052694 0.17811 -0.10645 -0.058592 -0.039138 0.019471 -0.054655 0.062475 -0.19484 -0.086617 -0.066844 -0.071572 -0.0010174 0.11954 -0.080361 -0.1361 0.042642 -0.080707 0.16577 -0.12748 0.0095799 0.0035103 -0.084159 -0.1404 0.11938 -0.045289 0.1255 -0.051412 -0.082254 -0.23089 0.038658 -0.037376 -0.048091 -0.061277 -0.086639 -0.015466 0.079788 -0.177 0.10294 0.047608 -0.0079597 0.10787 0.19402 -0.084148 0.013662 0.00079281 -0.00033839 0.080509 0.034854 -0.012513 0.04648 -0.21791 -0.14844 -0.0039268 -0.040491 0.03689 0.045001 0.075317 0.067911 -0.11535 -0.25422 -0.20971 -0.16889 -0.031522 0.042684 -0.10526 -0.08851 0.15028 -0.0658 0.12276 -0.15714 0.055656 0.12117 0.082471 0.21415 -0.14531 0.023791 -0.14559 0.10863 0.12496 -0.062564 -0.068943 0.15939 -0.097729 -0.027682 0.060044 0.038023 0.037875 0.015448 -0.062428 -0.0039783 -0.019279 0.00045931 
you 0.019981 0.025476 -0.028719 0.20967 -0.070556 -0.022843 0.040732 0.02553 0.21752 0.20827 -0.072749 -0.0056005 -0.18221 0.077457 -0.18266 -0.091725 -0.18643 0.085956 -0.065078 0.10352 0.1163 0.080705 -0.065327 -0.14836 0.011088 -0.031867 -0.038813 -0.1598 0.19599 -0.03219 0.015221 -0.059165 -0.08068 -0.024689 0.03647 0.050352 0.021623 0.14022 -0.067574 0.053355 -0.070772 -0.030312 -0.12911 -0.01397 -0.064488 0.08545 -0.14795 0.11428 0.15126 -0.10254 -0.057805 0.017895 -0.10791 -0.053722 -0.054633 -0.02066 -0.0033785 0.22786 0.061723 0.11426 -0.01998 -0.13056 -0.027289 0.19238 0.026832 0.11199 -0.0032272 0.13587 0.092639 -0.08483 0.095626 -0.17792 0.23932 -0.081926 0.012164 0.025261 0.13111 0.19707 0.011616 0.074011 0.11028 0.1475 -0.025151 -0.098972 0.031509 0.003655 -0.075993 0.043557 -0.1225 -0.1278 0.15147 0.18912 -0.046894 -0.033379 0.094697 -0.062475 -0.17642 0.021568 -0.068474 -0.019324 -0.20565 -0.061101 0.0011102 -0.016754 -0.2889 -0.086719 0.045293 -0.0012758 0.0046692 -0.051681 -0.1489 0.021315 0.27293 0.053974 0.091511 -0.12947 -0.068857 -0.038471 0.20594 0.056034 0.091244 -0.00024971 -0.010547 -0.050758 0.10747 0.026428 -0.18073 0.018008 -0.22523 0.22902 -0.038255 0.29784 0.17394 0.0094363 -0.0099296 -0.15398 -0.16578 -0.087288 0.023391 0.17399 0.065597 -0.041902 -0.14746 -0.11744 -0.093257 -0.01986 -0.080707 0.071319 -0.11023 -0.017488 0.0099323 -0.13497 -0.13651 -0.11912 0.06373 -0.043686 0.020884 0.052885 -0.06217 -0.07789 0.14478 0.033416 0.0013658 0.060112 0.20745 -0.12383 -0.07 -0.046649 0.022818 -0.063545 0.073679 -0.2282 -0.10118 -0.078466 -0.082064 -0.00067592 0.1391 -0.094646 -0.15889 0.049325 -0.093412 0.19621 -0.14989 0.012112 0.0035953 -0.099496 -0.16457 0.13907 -0.051883 0.14801 -0.061398 -0.095243 -0.27204 0.046688 -0.044931 -0.055226 -0.072025 -0.10185 -0.016983 0.091853 -0.20622 0.12176 0.055448 -0.0097549 0.12567 0.22705 -0.097788 0.01493 0.00014919 0.00070673 0.095187 0.039215 -0.014514 0.054273 -0.25579 -0.17253 -0.0030207 -0.046981 0.044096 0.052638 0.088648 0.081231 -0.13431 -0.29755 -0.24422 -0.19815 -0.038152 0.051034 -0.12348 -0.10461 0.17821 -0.076835 0.14312 -0.18227 0.066668 0.14375 0.097391 0.25198 -0.17093 0.027745 -0.16918 0.12633 0.14705 -0.074265 -0.082078 0.18684 -0.11534 -0.032619 0.070227 0.045286 0.04459 0.019272 -0.071931 -0.0033713 -0.021085 0.0004171 
place 0.018166 0.022604 -0.024733 0.1899 -0.0634 -0.021184 0.036965 0.022579 0.19856 0.18837 -0.065658 -0.0048464 -0.16543 0.071044 -0.16726 -0.083579 -0.16757 0.076943 -0.058891 0.093895 0.10719 0.071016 -0.058109 -0.13532 0.010508 -0.029311 -0.034968 -0.14425 0.17849 -0.028348 0.014692 -0.053577 -0.071697 -0.022453 0.032654 0.045231 0.020183 0.12632 -0.062499 0.04747 -0.064356 -0.028981 -0.11725 -0.012518 -0.058896 0.077212 -0.13606 0.10366 0.13767 -0.092195 -0.052859 0.016478 -0.09738 -0.049971 -0.048862 -0.018505 -0.0028105 0.20616 0.053702 0.10236 -0.018578 -0.11763 -0.024576 0.17465 0.025481 0.10067 -0.0026584 0.12186 0.083778 -0.075709 0.086379 -0.16235 0.21909 -0.074328 0.011028 0.022398 0.12036 0.17846 0.010252 0.068133 0.099629 0.13257 -0.02325 -0.089346 0.029373 0.0038925 -0.068015 0.037766 -0.10756 -0.11529 0.13615 0.17086 -0.043276 -0.031048 0.084941 -0.056063 -0.1604 0.019092 -0.059598 -0.018266 -0.18591 -0.054708 0.00078219 -0.016677 -0.26061 -0.080445 0.040757 -0.0021584 0.0026509 -0.047862 -0.13406 0.019567 0.24845 0.049344 0.080718 -0.11678 -0.061939 -0.035269 0.1877 0.051903 0.081534 -0.0010181 -0.0084068 -0.047784 0.098118 0.024757 -0.16282 0.015421 -0.2042 0.20848 -0.033784 0.26791 0.15667 0.0081127 -0.0098713 -0.13926 -0.15052 -0.079816 0.021008 0.15412 0.057932 -0.03741 -0.13379 -0.10575 -0.082873 -0.018434 -0.073319 0.064681 -0.10224 -0.014074 0.0074471 -0.12024 -0.12304 -0.10934 0.059033 -0.039556 0.018462 0.047062 -0.056601 -0.071186 0.13231 0.031338 -0.00043287 0.054983 0.18853 -0.11218 -0.063325 -0.042264 0.019811 -0.057788 0.066768 -0.20689 -0.091141 -0.070798 -0.075648 -0.0014864 0.12603 -0.083933 -0.14427 0.04632 -0.08431 0.17477 -0.13575 0.01057 0.0034668 -0.088987 -0.14965 0.12619 -0.048519 0.13377 -0.05584 -0.085855 -0.24591 0.040893 -0.040619 -0.051187 -0.064409 -0.09178 -0.016496 0.084175 -0.18724 0.10954 0.050185 -0.0090738 0.11494 0.20631 -0.088526 0.013415 0.00048463 6.9106e-05 0.084746 0.03695 -0.013135 0.048833 -0.23116 -0.15663 -0.0041259 -0.041772 0.038863 0.046881 0.079765 0.07164 -0.12267 -0.26949 -0.22189 -0.17873 -0.032963 0.044522 -0.1112 -0.094891 0.15954 -0.070641 0.13156 -0.16775 0.059305 0.12926 0.087559 0.22631 -0.15438 0.024679 -0.15433 0.11575 0.13311 -0.067598 -0.07301 0.16862 -0.10416 -0.029669 0.061684 0.041418 0.040105 0.017084 -0.065144 -0.0047273 -0.019736 0.00038198 
not 0.017538 0.021564 -0.020753 0.17596 -0.057091 -0.02075 0.036101 0.020539 0.18231 0.17357 -0.061668 -0.0035314 -0.15416 0.066945 -0.1552 -0.076688 -0.15426 0.07117 -0.053307 0.084246 0.10028 0.065126 -0.05492 -0.12549 0.0090564 -0.027536 -0.032382 -0.13195 0.16518 -0.027062 0.012128 -0.050381 -0.065257 -0.020598 0.030898 0.041299 0.017878 0.11676 -0.057477 0.043737 -0.058062 -0.027107 -0.10764 -0.012623 -0.055816 0.07181 -0.12607 0.096162 0.1261 -0.086615 -0.048101 0.015711 -0.087569 -0.044085 -0.04554 -0.016941 -0.0030763 0.18921 0.050798 0.093129 -0.015851 -0.10911 -0.023163 0.1599 0.022634 0.093888 -0.0021969 0.1127 0.076653 -0.070001 0.079157 -0.15009 0.20059 -0.068552 0.0092068 0.021731 0.10965 0.16343 0.0085256 0.063298 0.092467 0.12441 -0.022644 -0.082648 0.027037 0.0031044 -0.063531 0.034719 -0.1003 -0.10501 0.12552 0.15768 -0.038457 -0.028032 0.078495 -0.052024 -0.14722 0.016816 -0.055972 -0.016486 -0.17125 -0.050881 0.0013239 -0.015896 -0.24007 -0.074255 0.038481 -0.00028362 0.0041206 -0.045273 -0.12252 0.017116 0.22823 0.046263 0.074266 -0.10834 -0.058195 -0.032682 0.17251 0.045815 0.076651 -0.00026401 -0.006879 -0.044092 0.088926 0.020375 -0.15047 0.015112 -0.18904 0.19052 -0.031622 0.24581 0.14365 0.0073411 -0.0072589 -0.12909 -0.13828 -0.076401 0.019106 0.14485 0.053774 -0.034894 -0.12145 -0.097121 -0.077354 -0.016524 -0.067402 0.059934 -0.092922 -0.012645 0.0075217 -0.1118 -0.11486 -0.099246 0.054217 -0.0355 0.017502 0.043631 -0.052307 -0.064687 0.12215 0.027335 0.00087527 0.050131 0.17323 -0.10314 -0.057655 -0.039115 0.01787 -0.052737 0.062459 -0.19067 -0.083919 -0.064361 -0.07079 -0.0017692 0.11683 -0.078087 -0.13345 0.041122 -0.078328 0.16312 -0.12504 0.0083506 0.0027296 -0.082574 -0.13783 0.11739 -0.043505 0.12198 -0.049887 -0.080208 -0.22702 0.038197 -0.036672 -0.046379 -0.058973 -0.084913 -0.014213 0.078813 -0.17348 0.10074 0.046697 -0.0083774 0.10476 0.19117 -0.081098 0.01421 -0.0005567 -0.00085295 0.078742 0.032707 -0.011615 0.043697 -0.21459 -0.14656 -0.0049148 -0.039729 0.03652 0.044034 0.073977 0.065698 -0.1121 -0.2486 -0.20475 -0.1646 -0.030555 0.041156 -0.10235 -0.086189 0.14764 -0.065195 0.1207 -0.15378 0.055571 0.11868 0.080871 0.2091 -0.1411 0.021476 -0.14087 0.10724 0.12181 -0.061212 -0.0678 0.15684 -0.096187 -0.026289 0.060034 0.038176 0.035856 0.016663 -0.059537 -0.0050295 -0.017562 0.0021005 
that 0.030325 0.03753 -0.039565 0.30728 -0.10433 -0.033562 0.060394 0.037176 0.32217 0.3066 -0.10634 -0.007926 -0.26953 0.11505 -0.2716 -0.1346 -0.27336 0.12628 -0.094361 0.15117 0.17278 0.11568 -0.096028 -0.21859 0.017007 -0.046358 -0.055411 -0.23506 0.28929 -0.04601 0.022394 -0.088185 -0.11578 -0.035215 0.053029 0.07295 0.033457 0.20405 -0.099419 0.076083 -0.10318 -0.047167 -0.18954 -0.020307 -0.095235 0.12487 -0.22186 0.1676 0.22125 -0.1512 -0.08356 0.02802 -0.15619 -0.081308 -0.079344 -0.029461 -0.0034652 0.33398 0.087687 0.16826 -0.028959 -0.18943 -0.038191 0.2827 0.040521 0.16457 -0.0041329 0.19812 0.13649 -0.12404 0.14032 -0.26389 0.3535 -0.12081 0.018475 0.037414 0.1953 0.29049 0.01799 0.11096 0.16225 0.21753 -0.0375 -0.14501 0.046967 0.0063672 -0.11206 0.061093 -0.17734 -0.18606 0.22267 0.27937 -0.071259 -0.051268 0.13858 -0.091574 -0.25925 0.031108 -0.099147 -0.027456 -0.30388 -0.089263 0.0024676 -0.02539 -0.42453 -0.12906 0.068328 -0.0035462 0.0044261 -0.078611 -0.2165 0.032513 0.40345 0.079955 0.13151 -0.19033 -0.10195 -0.057007 0.30186 0.083325 0.13139 -0.0019996 -0.013875 -0.077925 0.15787 0.03955 -0.26379 0.026013 -0.3315 0.33834 -0.056012 0.43619 0.25308 0.012296 -0.014808 -0.22665 -0.24223 -0.13048 0.033674 0.25393 0.09404 -0.060411 -0.21633 -0.17166 -0.13628 -0.030346 -0.1195 0.10582 -0.16514 -0.025023 0.014065 -0.19802 -0.20029 -0.17499 0.096175 -0.063584 0.031457 0.077682 -0.092783 -0.11298 0.21312 0.050323 0.0020624 0.090257 0.30483 -0.18449 -0.10106 -0.068705 0.032228 -0.093447 0.11079 -0.33455 -0.14901 -0.11317 -0.12378 -0.0019752 0.20383 -0.13756 -0.23464 0.074976 -0.13818 0.28435 -0.22142 0.016174 0.0059575 -0.14602 -0.24354 0.20397 -0.077048 0.21548 -0.089443 -0.1411 -0.40026 0.066889 -0.066767 -0.082129 -0.10359 -0.15041 -0.026415 0.13736 -0.30431 0.17809 0.082313 -0.014493 0.1858 0.33426 -0.14397 0.023974 0.00041487 -0.0011607 0.13863 0.057843 -0.020341 0.079128 -0.3752 -0.25451 -0.0061525 -0.067757 0.062329 0.078276 0.13062 0.11698 -0.19763 -0.43793 -0.36036 -0.29097 -0.055185 0.07448 -0.18048 -0.15367 0.26091 -0.11377 0.21165 -0.26976 0.09723 0.20915 0.14172 0.36805 -0.25003 0.040053 -0.25236 0.18676 0.21502 -0.10945 -0.11895 0.27393 -0.16998 -0.04713 0.10299 0.066094 0.06476 0.027259 -0.10584 -0.0062288 -0.031385 0.00078478 
good 0.015932 0.021747 -0.023724 0.16984 -0.057371 -0.019589 0.034508 0.019685 0.17733 0.17005 -0.059301 -0.0029075 -0.14864 0.064366 -0.14877 -0.073519 -0.15139 0.069675 -0.053361 0.0839 0.096013 0.063419 -0.053051 -0.12082 0.009225 -0.026038 -0.030679 -0.12876 0.16038 -0.025934 0.012176 -0.047975 -0.064116 -0.020614 0.028751 0.040465 0.017865 0.11323 -0.056287 0.043263 -0.057398 -0.02702 -0.1054 -0.010424 -0.053156 0.069161 -0.1218 0.091046 0.12201 -0.083254 -0.046571 0.014457 -0.08651 -0.043969 -0.0436 -0.016894 -0.0015788 0.18573 0.047735 0.092469 -0.016011 -0.1054 -0.022071 0.1561 0.021972 0.090563 -0.0026949 0.10966 0.076603 -0.069201 0.076722 -0.14536 0.19589 -0.067733 0.0097504 0.020793 0.10672 0.15986 0.0093935 0.061137 0.089602 0.12049 -0.020127 -0.080323 0.026256 0.0035031 -0.060917 0.035475 -0.097035 -0.10303 0.12275 0.1541 -0.038338 -0.027469 0.076134 -0.050447 -0.14325 0.016971 -0.055171 -0.015721 -0.1675 -0.049432 0.0018374 -0.015053 -0.23523 -0.071892 0.036749 -0.0012682 0.0029751 -0.043261 -0.12023 0.018093 0.22413 0.043255 0.074323 -0.10505 -0.055781 -0.031693 0.16694 0.045705 0.073394 -0.0013659 -0.0087535 -0.043121 0.088031 0.020739 -0.14555 0.014127 -0.18352 0.18713 -0.031305 0.24016 0.14132 0.0065309 -0.0091872 -0.12583 -0.13424 -0.072311 0.019165 0.13958 0.052704 -0.033415 -0.11915 -0.094695 -0.074168 -0.016767 -0.065981 0.057968 -0.090861 -0.014188 0.0057495 -0.10918 -0.11084 -0.097299 0.052509 -0.035135 0.016064 0.040921 -0.05107 -0.063148 0.11798 0.028275 0.00023927 0.050398 0.16784 -0.10127 -0.056043 -0.037914 0.019082 -0.053324 0.060798 -0.18574 -0.083361 -0.063434 -0.068965 -0.00071766 0.11238 -0.076992 -0.12917 0.040902 -0.075539 0.15775 -0.12188 0.0088744 0.0041575 -0.080086 -0.13327 0.11324 -0.043195 0.11971 -0.050439 -0.077018 -0.2205 0.037881 -0.036788 -0.04636 -0.057168 -0.082628 -0.014875 0.077508 -0.16925 0.098285 0.045632 -0.0068912 0.10303 0.18514 -0.080654 0.013738 0.0010843 -0.00048082 0.07637 0.032207 -0.0097319 0.044295 -0.20754 -0.14049 -0.0033714 -0.038412 0.035094 0.043002 0.071661 0.065743 -0.11072 -0.24214 -0.19973 -0.1606 -0.030141 0.041269 -0.10106 -0.085804 0.14304 -0.062958 0.11721 -0.14895 0.052943 0.1151 0.078539 0.20357 -0.13925 0.021717 -0.13935 0.10393 0.11831 -0.060298 -0.065167 0.15126 -0.094761 -0.026054 0.058325 0.037797 0.035531 0.014355 -0.057787 -0.0032449 -0.01738 0.00098882 
service 0.023134 0.028025 -0.030664 0.23401 -0.078433 -0.025234 0.045846 0.026903 0.24303 0.23261 -0.081388 -0.0050749 -0.20382 0.08724 -0.204 -0.10206 -0.20701 0.094524 -0.072179 0.1141 0.13126 0.087306 -0.071318 -0.16601 0.013051 -0.035791 -0.041956 -0.17786 0.21939 -0.035492 0.017985 -0.066313 -0.087612 -0.027013 0.039372 0.055171 0.024306 0.15561 -0.07596 0.058644 -0.078625 -0.036032 -0.14303 -0.014421 -0.071955 0.095408 -0.1667 0.12717 0.16841 -0.11406 -0.065142 0.020546 -0.11792 -0.060564 -0.060772 -0.023386 -0.0031479 0.25207 0.066259 0.12604 -0.022336 -0.14421 -0.029442 0.21313 0.029941 0.1249 -0.0019983 0.15068 0.10212 -0.093509 0.10556 -0.19999 0.26778 -0.091797 0.013771 0.028571 0.14707 0.21829 0.012491 0.083514 0.12231 0.16429 -0.028842 -0.10888 0.036028 0.0064932 -0.084028 0.047232 -0.13302 -0.1419 0.16768 0.21114 -0.052897 -0.038593 0.10434 -0.068874 -0.19603 0.023393 -0.074867 -0.021318 -0.22862 -0.067759 0.0020865 -0.01966 -0.32111 -0.098139 0.050403 -0.0024498 0.0039266 -0.059437 -0.16377 0.024236 0.30464 0.059867 0.10077 -0.14377 -0.076339 -0.043229 0.22921 0.063954 0.1003 -0.0023274 -0.010383 -0.058195 0.12033 0.028526 -0.19905 0.01846 -0.25017 0.25631 -0.041734 0.32913 0.19193 0.0084852 -0.011651 -0.16993 -0.18358 -0.098381 0.024892 0.19228 0.072 -0.045812 -0.16247 -0.12932 -0.10264 -0.021995 -0.089188 0.07918 -0.12527 -0.018344 0.0096807 -0.14969 -0.15172 -0.13254 0.072804 -0.047874 0.023815 0.059413 -0.069772 -0.086981 0.16269 0.037156 0.0012086 0.068247 0.23164 -0.13913 -0.077449 -0.051715 0.025911 -0.071992 0.083333 -0.25469 -0.11237 -0.086689 -0.092822 -0.00068078 0.15507 -0.1041 -0.17765 0.054941 -0.10344 0.21671 -0.16795 0.011772 0.0046239 -0.11054 -0.18388 0.1542 -0.059127 0.1636 -0.067857 -0.10628 -0.30276 0.050659 -0.050243 -0.060735 -0.078721 -0.11214 -0.019093 0.10404 -0.23092 0.13446 0.062131 -0.010682 0.14047 0.25366 -0.10793 0.01788 0.00030336 -0.00079803 0.10536 0.044433 -0.015963 0.060282 -0.28426 -0.1933 -0.0041326 -0.050475 0.047568 0.057424 0.098412 0.089054 -0.1498 -0.33065 -0.27233 -0.22033 -0.041405 0.055567 -0.13699 -0.11537 0.19786 -0.086554 0.16102 -0.20478 0.072801 0.15828 0.10796 0.27888 -0.18972 0.030541 -0.1897 0.14223 0.16275 -0.082772 -0.089951 0.20678 -0.12751 -0.035981 0.077522 0.050101 0.048829 0.02125 -0.07998 -0.0046595 -0.023648 9.1754e-05 
my 0.011579 0.012808 -0.015179 0.10699 -0.034977 -0.011029 0.021516 0.014894 0.1104 0.10606 -0.037039 -0.0028423 -0.0954 0.041971 -0.090722 -0.045208 -0.092614 0.042741 -0.032191 0.051811 0.060617 0.038684 -0.032239 -0.0759 0.0068957 -0.015656 -0.020389 -0.080859 0.10008 -0.01405 0.0083385 -0.031555 -0.03759 -0.01148 0.017703 0.022758 0.01127 0.070768 -0.033397 0.025594 -0.034026 -0.016268 -0.063605 -0.0057021 -0.033387 0.041467 -0.073348 0.059046 0.075671 -0.051381 -0.029771 0.0088106 -0.053651 -0.025662 -0.026641 -0.010751 -0.0016233 0.11635 0.027809 0.056868 -0.010097 -0.064841 -0.013356 0.097978 0.014357 0.05529 -0.00028823 0.068148 0.047843 -0.044398 0.050273 -0.090366 0.12353 -0.041015 0.0074687 0.01119 0.066506 0.10029 0.004435 0.039267 0.055653 0.076079 -0.01303 -0.04949 0.014794 0.00088671 -0.039377 0.021795 -0.059327 -0.064783 0.078436 0.09695 -0.024967 -0.018105 0.046296 -0.030638 -0.089148 0.010841 -0.033277 -0.0076505 -0.1055 -0.02959 -0.00099045 -0.01094 -0.14677 -0.044899 0.022481 -6.1034e-05 0.00053868 -0.026229 -0.075738 0.012309 0.13798 0.025238 0.045319 -0.063897 -0.033636 -0.0191 0.10534 0.02868 0.048278 -0.0014728 -0.0053078 -0.026487 0.055947 0.013203 -0.09046 0.0062601 -0.11181 0.1163 -0.02145 0.1491 0.086527 0.0037171 -0.0054506 -0.075238 -0.084787 -0.044766 0.0096996 0.08503 0.02969 -0.019837 -0.073066 -0.057701 -0.048778 -0.010493 -0.042063 0.034978 -0.057776 -0.0082541 0.002703 -0.068013 -0.069324 -0.062228 0.033443 -0.022725 0.011492 0.02713 -0.03228 -0.039622 0.073858 0.016176 -0.00033996 0.031483 0.10546 -0.063013 -0.035976 -0.024624 0.010908 -0.032958 0.03691 -0.11504 -0.052076 -0.039792 -0.03993 -0.0018279 0.0704 -0.046792 -0.081348 0.025143 -0.045606 0.096237 -0.077145 0.0067535 0.0022555 -0.049712 -0.083098 0.069999 -0.026947 0.075236 -0.02983 -0.050618 -0.13846 0.023944 -0.024114 -0.027901 -0.034981 -0.050054 -0.0080044 0.049256 -0.10465 0.059748 0.027306 -0.0039192 0.062585 0.11548 -0.049336 0.0078467 -0.0018058 -0.00025846 0.047024 0.019504 -0.008243 0.028399 -0.1295 -0.086973 -0.0014441 -0.023314 0.020383 0.024852 0.044945 0.040817 -0.067208 -0.152 -0.12424 -0.10013 -0.019625 0.025781 -0.060486 -0.053105 0.088922 -0.0396 0.073077 -0.090937 0.032855 0.073718 0.048479 0.12568 -0.086414 0.01178 -0.087221 0.063326 0.073863 -0.038799 -0.041104 0.094582 -0.057635 -0.016217 0.034207 0.02319 0.022142 0.010826 -0.037228 -0.0016046 -0.010184 0.001103 
with 0.01553 0.018545 -0.019698 0.1496 -0.05149 -0.017271 0.030956 0.016871 0.15805 0.14902 -0.052712 -0.0042313 -0.13185 0.055633 -0.13296 -0.066149 -0.13395 0.061725 -0.047022 0.073403 0.084472 0.05618 -0.046143 -0.1067 0.0078544 -0.024005 -0.026602 -0.11428 0.14198 -0.02108 0.012628 -0.042179 -0.056419 -0.018203 0.025977 0.035175 0.016198 0.10045 -0.049914 0.037705 -0.050762 -0.022851 -0.092877 -0.009349 -0.046218 0.060726 -0.10782 0.081874 0.1096 -0.073599 -0.04185 0.013447 -0.076884 -0.038387 -0.03849 -0.01325 -0.0022745 0.162 0.043115 0.083226 -0.013576 -0.093397 -0.01922 0.13697 0.01927 0.080306 -0.0008898 0.096072 0.067177 -0.061832 0.068047 -0.12862 0.17283 -0.058448 0.010079 0.018436 0.094037 0.1416 0.0086549 0.053997 0.079062 0.10531 -0.018399 -0.071317 0.0225 0.003091 -0.054856 0.030132 -0.086035 -0.090556 0.10926 0.13669 -0.034182 -0.024692 0.068029 -0.045689 -0.1259 0.015228 -0.048913 -0.014487 -0.14759 -0.044702 0.001188 -0.013132 -0.20647 -0.062388 0.032886 -0.0014861 0.0028231 -0.03876 -0.10566 0.016725 0.19683 0.039349 0.065316 -0.091896 -0.048718 -0.02792 0.14771 0.040933 0.065131 -0.00020208 -0.0062001 -0.036235 0.077321 0.018501 -0.12877 0.012604 -0.16162 0.1648 -0.027916 0.21228 0.12316 0.0063541 -0.0079574 -0.10936 -0.11899 -0.063185 0.015953 0.12315 0.046307 -0.027903 -0.10575 -0.084136 -0.065906 -0.015255 -0.05847 0.049828 -0.080076 -0.012114 0.0050151 -0.096372 -0.097061 -0.084688 0.045584 -0.031825 0.015083 0.037028 -0.044575 -0.055445 0.10603 0.024754 0.0015883 0.044189 0.14955 -0.088953 -0.049432 -0.033499 0.01511 -0.044936 0.054916 -0.16364 -0.072223 -0.055359 -0.059883 0.00021532 0.099775 -0.067072 -0.11474 0.035589 -0.066664 0.13973 -0.10695 0.0070104 0.0030921 -0.070276 -0.11851 0.09999 -0.038224 0.10619 -0.043354 -0.068391 -0.1958 0.033964 -0.031266 -0.040242 -0.051268 -0.073644 -0.012906 0.066378 -0.14768 0.08681 0.039821 -0.0067198 0.089587 0.16312 -0.070873 0.011482 7.5734e-05 0.00054199 0.067065 0.028868 -0.0099669 0.03913 -0.183 -0.12343 -0.0033968 -0.033625 0.030302 0.037282 0.06406 0.05712 -0.095733 -0.21394 -0.17456 -0.14181 -0.026889 0.036168 -0.08856 -0.074624 0.12763 -0.055059 0.10437 -0.13223 0.048231 0.10286 0.068382 0.17951 -0.1211 0.019878 -0.12319 0.091553 0.10569 -0.051973 -0.058152 0.13371 -0.082109 -0.022759 0.05034 0.032889 0.030949 0.013997 -0.052159 -0.0037727 -0.015784 -0.00032387 
on 0.020098 0.025584 -0.027828 0.21175 -0.071597 -0.024808 0.043587 0.024147 0.21715 0.20897 -0.073182 -0.0067791 -0.18358 0.07994 -0.18305 -0.091029 -0.18477 0.084116 -0.063244 0.1026 0.11822 0.08065 -0.062196 -0.1486 0.010659 -0.032087 -0.037148 -0.16083 0.19504 -0.030271 0.01615 -0.057801 -0.079378 -0.022039 0.037186 0.050561 0.022868 0.14036 -0.069529 0.04998 -0.06926 -0.032387 -0.13 -0.013411 -0.064371 0.084463 -0.15047 0.1148 0.15159 -0.10008 -0.060713 0.017489 -0.10633 -0.056434 -0.053381 -0.019091 -0.0026456 0.22705 0.060195 0.11477 -0.021513 -0.12952 -0.026818 0.19029 0.025459 0.11052 -0.002303 0.13285 0.090126 -0.085614 0.097184 -0.17961 0.23978 -0.082267 0.012944 0.024801 0.13321 0.19746 0.01156 0.073454 0.10975 0.14877 -0.025276 -0.097679 0.031291 0.0041386 -0.075566 0.042171 -0.11879 -0.12483 0.15156 0.1881 -0.048299 -0.033974 0.091937 -0.061574 -0.17623 0.022905 -0.067227 -0.020544 -0.20552 -0.060702 0.0011319 -0.016316 -0.28976 -0.088862 0.044591 -0.0014711 0.0030364 -0.054133 -0.14688 0.02136 0.27391 0.053243 0.090516 -0.12814 -0.068686 -0.040413 0.20461 0.055992 0.090469 -0.00053615 -0.008023 -0.050461 0.1072 0.025254 -0.17835 0.017232 -0.22527 0.22957 -0.037085 0.29427 0.17163 0.0082781 -0.0084468 -0.15251 -0.16477 -0.090791 0.022166 0.17087 0.062583 -0.041172 -0.14644 -0.11571 -0.091457 -0.019975 -0.080085 0.070709 -0.11172 -0.016811 0.0084334 -0.13509 -0.13503 -0.11965 0.067552 -0.042729 0.021135 0.052642 -0.063691 -0.07687 0.14589 0.034194 0.0017109 0.060933 0.20609 -0.12534 -0.071003 -0.047999 0.02233 -0.063183 0.073096 -0.22756 -0.10076 -0.077349 -0.084645 0.00092696 0.13968 -0.092937 -0.15849 0.04893 -0.093783 0.19196 -0.14925 0.012143 0.0042325 -0.097706 -0.16476 0.13959 -0.052668 0.1472 -0.059109 -0.095864 -0.27299 0.043824 -0.045718 -0.054592 -0.070934 -0.10078 -0.017662 0.093266 -0.20623 0.12173 0.055617 -0.0096211 0.12502 0.22792 -0.0969 0.015133 0.00050751 0.0017794 0.095023 0.040055 -0.014635 0.055227 -0.25364 -0.17449 -0.0030707 -0.045562 0.043057 0.051744 0.088755 0.080596 -0.13587 -0.297 -0.24317 -0.19741 -0.038005 0.050416 -0.12231 -0.10431 0.1782 -0.077497 0.14435 -0.18275 0.066474 0.14216 0.096881 0.24986 -0.17018 0.025262 -0.17218 0.12791 0.14788 -0.075039 -0.080199 0.18601 -0.11413 -0.030248 0.068162 0.04642 0.044946 0.020793 -0.072809 -0.005509 -0.02232 0.00074125 
were 0.023821 0.029792 -0.031553 0.23666 -0.079316 -0.026197 0.047938 0.028573 0.24742 0.23699 -0.083231 -0.0052899 -0.20715 0.088132 -0.20733 -0.1041 -0.20952 0.097621 -0.07364 0.11611 0.13419 0.088792 -0.073483 -0.16912 0.013345 -0.036951 -0.043279 -0.18121 0.22158 -0.035101 0.017971 -0.067359 -0.089339 -0.026527 0.040781 0.055794 0.024611 0.15896 -0.076766 0.05905 -0.080519 -0.03653 -0.14695 -0.015326 -0.073236 0.096101 -0.17116 0.13104 0.17135 -0.11631 -0.065672 0.021168 -0.12132 -0.060787 -0.06107 -0.022407 -0.0035974 0.25687 0.06647 0.12841 -0.022172 -0.14661 -0.029924 0.21608 0.031077 0.12682 -0.0015502 0.15284 0.10432 -0.096553 0.10794 -0.20219 0.27377 -0.093405 0.01392 0.029395 0.15021 0.22267 0.012813 0.083721 0.12439 0.1671 -0.028098 -0.1108 0.036797 0.0042191 -0.08509 0.047197 -0.13511 -0.14249 0.16985 0.2133 -0.054625 -0.038666 0.10621 -0.070961 -0.19861 0.023704 -0.07487 -0.021784 -0.23312 -0.068274 0.0021954 -0.019258 -0.32648 -0.098848 0.050929 -0.0012887 0.0040582 -0.060535 -0.16675 0.025233 0.31 0.062221 0.10221 -0.14486 -0.077472 -0.044953 0.23152 0.064803 0.10192 -0.0018025 -0.010509 -0.057938 0.12134 0.029309 -0.20397 0.018678 -0.25454 0.26023 -0.043827 0.33427 0.19505 0.0096212 -0.012104 -0.17353 -0.18663 -0.1019 0.025514 0.19335 0.07335 -0.045346 -0.16645 -0.13234 -0.10332 -0.02352 -0.091529 0.080239 -0.12624 -0.018977 0.010898 -0.15291 -0.15382 -0.13489 0.072952 -0.04799 0.02234 0.057895 -0.070089 -0.087699 0.16484 0.038112 0.00063152 0.069686 0.23576 -0.14104 -0.078147 -0.052902 0.02564 -0.073107 0.083833 -0.25836 -0.11517 -0.08774 -0.094822 -0.00090344 0.15741 -0.10436 -0.17922 0.056961 -0.10622 0.21924 -0.17049 0.012993 0.0036716 -0.1118 -0.18766 0.1564 -0.061482 0.16649 -0.069371 -0.1081 -0.30837 0.052701 -0.051957 -0.063528 -0.080326 -0.11467 -0.019463 0.10521 -0.23442 0.13708 0.062217 -0.010704 0.14176 0.25675 -0.1104 0.018715 0.0017131 -0.00087737 0.10731 0.044771 -0.015845 0.061669 -0.28973 -0.19674 -0.0040268 -0.051726 0.047975 0.059332 0.10081 0.090012 -0.15177 -0.33606 -0.27664 -0.22411 -0.042231 0.056893 -0.13872 -0.11811 0.20042 -0.087702 0.1636 -0.20882 0.074828 0.162 0.10819 0.28227 -0.1929 0.030694 -0.19332 0.14483 0.16611 -0.08472 -0.09133 0.21057 -0.13064 -0.037299 0.078541 0.050626 0.048977 0.021499 -0.082424 -0.0053804 -0.024576 0.00036654 
are 0.023334 0.028642 -0.030713 0.23734 -0.079324 -0.025502 0.04865 0.027727 0.24683 0.23616 -0.082117 -0.0039211 -0.20837 0.08872 -0.20917 -0.10255 -0.2103 0.097643 -0.073293 0.1163 0.13484 0.088593 -0.074576 -0.17025 0.01289 -0.037005 -0.04271 -0.18119 0.22278 -0.035895 0.017445 -0.06636 -0.09089 -0.027073 0.040983 0.055663 0.02711 0.15786 -0.076521 0.059754 -0.078914 -0.037148 -0.14661 -0.014986 -0.074647 0.097748 -0.17005 0.12911 0.17172 -0.11655 -0.066674 0.020024 -0.12008 -0.06052 -0.061759 -0.021917 -0.0029835 0.25745 0.06626 0.12837 -0.022488 -0.14745 -0.030254 0.2175 0.031765 0.12757 -0.0038069 0.15232 0.10407 -0.095994 0.10735 -0.20426 0.2726 -0.092012 0.012906 0.028437 0.14758 0.22265 0.012958 0.083574 0.12415 0.16622 -0.028988 -0.111 0.03827 0.0016723 -0.084454 0.047208 -0.13691 -0.14279 0.16937 0.21321 -0.053596 -0.038748 0.10603 -0.070529 -0.19877 0.024192 -0.077699 -0.020653 -0.23356 -0.067738 0.0015831 -0.019857 -0.32739 -0.09962 0.049388 -0.00098681 0.0044829 -0.060001 -0.16726 0.023981 0.30904 0.062332 0.10285 -0.14655 -0.077502 -0.043932 0.23272 0.063682 0.10256 -0.0031573 -0.010448 -0.05882 0.12121 0.030915 -0.2025 0.019513 -0.2545 0.26109 -0.041179 0.33464 0.19448 0.0092197 -0.011933 -0.17391 -0.18677 -0.10091 0.027292 0.19535 0.072077 -0.04529 -0.16532 -0.13013 -0.10211 -0.024336 -0.091812 0.08022 -0.12726 -0.018453 0.01068 -0.15222 -0.15186 -0.13447 0.073487 -0.048462 0.023399 0.057606 -0.070555 -0.088171 0.16666 0.038806 0.0011635 0.0693 0.2348 -0.14235 -0.077802 -0.053096 0.025909 -0.0714 0.085428 -0.25845 -0.11471 -0.088115 -0.093299 -0.001635 0.15584 -0.1056 -0.1803 0.05708 -0.10471 0.22028 -0.16944 0.011133 0.002998 -0.11244 -0.18682 0.15606 -0.057374 0.16627 -0.068849 -0.10797 -0.30705 0.052809 -0.050618 -0.063583 -0.079452 -0.11468 -0.019865 0.1055 -0.23372 0.13747 0.061808 -0.01058 0.14103 0.25764 -0.11089 0.018283 0.0020009 0.0011817 0.10623 0.045618 -0.015689 0.059596 -0.28828 -0.19603 -0.003056 -0.052431 0.047808 0.061056 0.10087 0.089846 -0.15125 -0.33592 -0.27865 -0.22368 -0.042645 0.058401 -0.13879 -0.11569 0.20031 -0.087669 0.16451 -0.20649 0.074981 0.16 0.10943 0.2836 -0.19406 0.031151 -0.19235 0.14611 0.16601 -0.084007 -0.091206 0.21143 -0.13126 -0.036408 0.078823 0.050801 0.049399 0.022232 -0.08199 -0.0056693 -0.024452 0.00055567 
had 0.012796 0.01687 -0.016174 0.13143 -0.044203 -0.014968 0.027419 0.015742 0.13883 0.1323 -0.045899 -0.0035162 -0.11619 0.049918 -0.11723 -0.059769 -0.11879 0.052984 -0.040386 0.066163 0.074624 0.04967 -0.040001 -0.094067 0.0067633 -0.019562 -0.023958 -0.099881 0.12448 -0.019689 0.0089792 -0.03656 -0.050389 -0.015997 0.022611 0.031972 0.013739 0.089398 -0.043542 0.03255 -0.044971 -0.020961 -0.082239 -0.0079858 -0.043 0.055258 -0.095031 0.071599 0.096906 -0.064409 -0.036039 0.010373 -0.066546 -0.033954 -0.033657 -0.013381 -0.00035123 0.14314 0.038106 0.070943 -0.012436 -0.081326 -0.017473 0.12148 0.016133 0.0711 -0.00035008 0.0863 0.059485 -0.054517 0.059854 -0.11199 0.15439 -0.052773 0.0082751 0.015597 0.083498 0.12465 0.0068391 0.048994 0.068997 0.093221 -0.015973 -0.062129 0.021247 0.0025583 -0.048691 0.027246 -0.077552 -0.08054 0.095645 0.12023 -0.031632 -0.020897 0.060351 -0.038668 -0.11126 0.014776 -0.043076 -0.012299 -0.13085 -0.038446 0.0016674 -0.010849 -0.18346 -0.056815 0.028563 -0.0020121 0.0028569 -0.033439 -0.093813 0.013065 0.17348 0.034602 0.056844 -0.082215 -0.044353 -0.025991 0.12953 0.036124 0.057806 -0.0020149 -0.007389 -0.034041 0.066425 0.016187 -0.11334 0.011632 -0.14247 0.14523 -0.024094 0.18702 0.10738 0.0051005 -0.0078124 -0.096726 -0.10542 -0.055073 0.014947 0.1102 0.040869 -0.025823 -0.092132 -0.073671 -0.058801 -0.012538 -0.050554 0.044703 -0.070741 -0.010569 0.0053409 -0.08513 -0.086192 -0.075885 0.04081 -0.027921 0.01247 0.034668 -0.039092 -0.049866 0.09285 0.023123 0.00098086 0.039459 0.13301 -0.077665 -0.044174 -0.031047 0.014396 -0.04044 0.046973 -0.14515 -0.063798 -0.047471 -0.053265 0.00091897 0.088091 -0.059245 -0.10031 0.030857 -0.059169 0.12285 -0.09672 0.0089987 0.0015131 -0.062509 -0.10489 0.087229 -0.032893 0.091844 -0.039227 -0.061634 -0.17305 0.029382 -0.028787 -0.035663 -0.04492 -0.063366 -0.011136 0.05831 -0.13061 0.077829 0.033938 -0.0055163 0.080011 0.14383 -0.063553 0.0093074 4.4209e-06 0.00048799 0.061092 0.02302 -0.0091066 0.03534 -0.16208 -0.10886 -0.0026993 -0.029499 0.027685 0.032424 0.05598 0.051647 -0.085102 -0.1878 -0.15357 -0.12456 -0.022732 0.033189 -0.077467 -0.065549 0.1109 -0.048276 0.090204 -0.1164 0.041542 0.090386 0.061712 0.15862 -0.10675 0.016377 -0.10878 0.081397 0.093481 -0.04757 -0.051735 0.11828 -0.072662 -0.020978 0.043011 0.027217 0.026865 0.012986 -0.045095 -0.0024487 -0.014009 0.00066352 
have 0.016677 0.020245 -0.021901 0.16215 -0.054411 -0.017067 0.032495 0.017857 0.16987 0.16169 -0.056927 -0.0050373 -0.14256 0.060196 -0.1423 -0.070143 -0.1454 0.06605 -0.050101 0.08035 0.092007 0.061546 -0.048773 -0.11431 0.0082894 -0.024044 -0.029706 -0.12421 0.1519 -0.02543 0.011947 -0.046157 -0.061267 -0.01934 0.027422 0.039258 0.016928 0.10907 -0.05365 0.040333 -0.054006 -0.025576 -0.09922 -0.0090314 -0.049863 0.066813 -0.11632 0.08788 0.11624 -0.07902 -0.045492 0.013898 -0.082647 -0.041614 -0.042086 -0.014915 -0.0019773 0.17616 0.045821 0.088532 -0.014727 -0.10079 -0.020148 0.15033 0.020952 0.08599 -0.0026775 0.10523 0.071258 -0.065411 0.073482 -0.14037 0.18553 -0.064047 0.01081 0.018945 0.10389 0.15279 0.008914 0.058399 0.086177 0.11381 -0.019435 -0.076708 0.024289 0.0032094 -0.058945 0.034208 -0.094167 -0.098086 0.11702 0.14679 -0.036547 -0.026411 0.073152 -0.048771 -0.13699 0.016309 -0.052187 -0.014772 -0.1589 -0.046335 0.0024106 -0.01503 -0.22476 -0.067856 0.035176 -0.0015394 0.0026727 -0.04121 -0.1142 0.01729 0.21308 0.041521 0.068474 -0.10075 -0.052494 -0.030217 0.15954 0.043463 0.069314 -0.0017832 -0.0071271 -0.040934 0.082578 0.021415 -0.14001 0.014329 -0.1761 0.17881 -0.029858 0.22977 0.13518 0.0073466 -0.0066074 -0.11822 -0.12857 -0.069876 0.018054 0.1342 0.050286 -0.031276 -0.11381 -0.090482 -0.07143 -0.015517 -0.062691 0.055234 -0.085948 -0.012195 0.0060995 -0.10511 -0.10483 -0.093071 0.050175 -0.033719 0.016559 0.040866 -0.048445 -0.060802 0.11345 0.026732 0.0012179 0.048428 0.16143 -0.096142 -0.054473 -0.035606 0.018494 -0.04976 0.058521 -0.1779 -0.079788 -0.060339 -0.06427 -2.3202e-05 0.10713 -0.07294 -0.12342 0.038991 -0.072429 0.15123 -0.11683 0.0089627 0.0031056 -0.075487 -0.1296 0.10737 -0.04039 0.11382 -0.046656 -0.073926 -0.21139 0.036864 -0.034252 -0.043053 -0.055032 -0.078431 -0.015281 0.072367 -0.16085 0.094674 0.043102 -0.0068077 0.098071 0.17722 -0.076801 0.013438 0.0011959 -0.00047633 0.074107 0.030714 -0.011381 0.042441 -0.19812 -0.13414 -0.0031533 -0.034415 0.033554 0.041079 0.068373 0.061187 -0.10456 -0.23133 -0.18884 -0.15316 -0.027875 0.038326 -0.095065 -0.080322 0.13851 -0.059529 0.11181 -0.14345 0.050753 0.11014 0.075541 0.19497 -0.13233 0.021509 -0.13217 0.099403 0.1135 -0.05829 -0.06301 0.14472 -0.090006 -0.025112 0.054101 0.034921 0.033905 0.015073 -0.055152 -0.0043482 -0.015988 0.0020983 
very 0.01599 0.018477 -0.02053 0.15947 -0.052082 -0.017031 0.032003 0.018511 0.16511 0.15871 -0.054469 -0.0030014 -0.1395 0.059972 -0.13922 -0.069693 -0.14077 0.063833 -0.04893 0.077464 0.089498 0.058664 -0.049471 -0.11313 0.009986 -0.022896 -0.029482 -0.12073 0.14909 -0.024876 0.011292 -0.04451 -0.05869 -0.018141 0.026348 0.037263 0.016918 0.10615 -0.05266 0.039293 -0.053122 -0.025142 -0.097252 -0.010329 -0.049724 0.065956 -0.11317 0.085906 0.11413 -0.077086 -0.044468 0.013785 -0.080073 -0.042173 -0.04081 -0.016023 -0.00055658 0.17083 0.044722 0.086821 -0.015292 -0.097901 -0.019527 0.14592 0.021685 0.08487 -0.0020804 0.10221 0.069397 -0.063987 0.070666 -0.13532 0.18243 -0.063099 0.0090841 0.019566 0.10082 0.14987 0.0082107 0.056421 0.084323 0.11205 -0.019946 -0.075677 0.025283 0.0026112 -0.057155 0.031287 -0.091328 -0.097175 0.11446 0.14369 -0.037007 -0.02624 0.071514 -0.047064 -0.13346 0.015378 -0.050094 -0.014263 -0.15696 -0.045601 0.00013552 -0.013821 -0.21812 -0.067276 0.034259 -0.0014397 0.0030732 -0.040456 -0.11188 0.016801 0.20792 0.040787 0.069977 -0.097333 -0.052271 -0.028655 0.15609 0.04328 0.0682 -0.0014596 -0.0072643 -0.038957 0.081384 0.01962 -0.13679 0.013345 -0.17075 0.1748 -0.02894 0.2243 0.13014 0.0056771 -0.0072023 -0.11669 -0.12508 -0.067434 0.016782 0.12938 0.048743 -0.031181 -0.11067 -0.088576 -0.069204 -0.01492 -0.061077 0.05432 -0.084777 -0.011995 0.0065342 -0.10271 -0.10288 -0.089692 0.049545 -0.03399 0.016622 0.039685 -0.046613 -0.058981 0.10902 0.025365 0.0018018 0.047383 0.15816 -0.093669 -0.051874 -0.036234 0.016859 -0.048667 0.057531 -0.17333 -0.076768 -0.059327 -0.063212 -0.00049509 0.10449 -0.072213 -0.12212 0.037342 -0.071036 0.14762 -0.11395 0.0077833 0.0033834 -0.075659 -0.12482 0.10514 -0.040875 0.1121 -0.04678 -0.072301 -0.20644 0.03501 -0.034934 -0.041663 -0.054238 -0.076973 -0.01368 0.070427 -0.15686 0.09217 0.042408 -0.0070395 0.095668 0.17168 -0.074623 0.012894 0.00011468 0.00074915 0.071123 0.029432 -0.012305 0.040598 -0.19421 -0.13144 -0.0021734 -0.034418 0.032968 0.040008 0.067129 0.058785 -0.10304 -0.22549 -0.18596 -0.14976 -0.02718 0.038507 -0.092821 -0.079703 0.13442 -0.058747 0.10912 -0.13889 0.049786 0.10822 0.073622 0.19037 -0.12984 0.020431 -0.12876 0.096739 0.11089 -0.05587 -0.062164 0.14165 -0.086702 -0.025769 0.054362 0.034771 0.034815 0.013376 -0.054984 -0.0025911 -0.016265 0.0018358 
they 0.030606 0.039085 -0.041337 0.31632 -0.10808 -0.035188 0.062557 0.036738 0.32977 0.31416 -0.10891 -0.006932 -0.27731 0.1184 -0.27787 -0.13801 -0.28141 0.12838 -0.098744 0.1543 0.17913 0.11952 -0.097826 -0.22588 0.017861 -0.047907 -0.058321 -0.24118 0.29706 -0.047061 0.023877 -0.089183 -0.11832 -0.034852 0.054119 0.074961 0.034564 0.21084 -0.10328 0.079264 -0.10586 -0.0498 -0.19543 -0.021447 -0.098159 0.12925 -0.22817 0.17363 0.22766 -0.15475 -0.086131 0.028239 -0.16102 -0.082996 -0.080939 -0.030409 -0.0050521 0.3427 0.09012 0.17142 -0.030432 -0.19572 -0.040721 0.28989 0.04268 0.16802 -0.0027373 0.20487 0.13987 -0.12829 0.14255 -0.27101 0.3634 -0.12454 0.019694 0.038253 0.20026 0.29686 0.016308 0.11331 0.16584 0.22315 -0.039419 -0.14909 0.049278 0.004804 -0.11499 0.064068 -0.17982 -0.19314 0.22817 0.28773 -0.071834 -0.051692 0.14171 -0.092843 -0.26529 0.031632 -0.10153 -0.028944 -0.31051 -0.09155 0.0024715 -0.026544 -0.43565 -0.13278 0.067643 -0.0025905 0.005258 -0.079962 -0.22335 0.033684 0.41262 0.081313 0.13606 -0.19525 -0.10439 -0.057943 0.31137 0.086141 0.13534 -0.0019956 -0.012904 -0.078454 0.16202 0.040518 -0.27066 0.025528 -0.33942 0.34831 -0.057534 0.44578 0.25995 0.01135 -0.014893 -0.23161 -0.24982 -0.13491 0.03517 0.25891 0.097008 -0.061839 -0.22183 -0.17659 -0.13921 -0.031341 -0.12178 0.10685 -0.16882 -0.02579 0.012031 -0.20308 -0.20526 -0.18105 0.098239 -0.063667 0.031185 0.079912 -0.094775 -0.11769 0.21954 0.051148 0.00029146 0.092986 0.31523 -0.18971 -0.10459 -0.070187 0.033501 -0.095943 0.11239 -0.34425 -0.15379 -0.11688 -0.1266 -0.0028006 0.21009 -0.14113 -0.24151 0.076105 -0.14103 0.29233 -0.22708 0.016375 0.0057902 -0.15007 -0.2502 0.21004 -0.078318 0.22233 -0.091699 -0.14456 -0.4115 0.070038 -0.067398 -0.084082 -0.10806 -0.15213 -0.025558 0.13969 -0.31122 0.18248 0.084209 -0.013781 0.19138 0.34399 -0.14924 0.02342 -0.00083617 -0.00060344 0.14298 0.059809 -0.021296 0.081705 -0.38639 -0.26233 -0.0061011 -0.069144 0.064203 0.078198 0.13318 0.12016 -0.20239 -0.45108 -0.36998 -0.29764 -0.055167 0.077993 -0.18551 -0.15788 0.26864 -0.11618 0.21831 -0.27719 0.09899 0.21439 0.14543 0.37698 -0.25898 0.041554 -0.25788 0.19215 0.22205 -0.11199 -0.12218 0.28168 -0.17324 -0.047996 0.10441 0.068147 0.06633 0.02774 -0.10974 -0.0075371 -0.032069 9.7956e-05 
so 0.015122 0.02007 -0.02285 0.16634 -0.056391 -0.017659 0.035152 0.021055 0.17418 0.16357 -0.055593 -0.0048269 -0.14523 0.061203 -0.14486 -0.07346 -0.14689 0.066406 -0.051261 0.081018 0.092426 0.061956 -0.050481 -0.117 0.0084986 -0.025567 -0.030329 -0.12772 0.15756 -0.025797 0.011437 -0.045602 -0.061979 -0.020474 0.02851 0.040802 0.016852 0.11137 -0.055814 0.041367 -0.055486 -0.027491 -0.10235 -0.0092823 -0.053609 0.068732 -0.11759 0.090198 0.1203 -0.082701 -0.048125 0.016012 -0.085683 -0.042813 -0.044372 -0.016382 -0.0011414 0.17981 0.046352 0.090084 -0.018574 -0.10235 -0.01915 0.1525 0.021887 0.089383 -0.0020481 0.10615 0.07467 -0.067589 0.075213 -0.14173 0.19119 -0.064241 0.011914 0.019329 0.10497 0.15567 0.0085433 0.05784 0.086263 0.11816 -0.019157 -0.075976 0.026873 0.0024498 -0.060209 0.034096 -0.097214 -0.10124 0.12021 0.15059 -0.03909 -0.028114 0.073784 -0.0498 -0.14062 0.016211 -0.05463 -0.013181 -0.16314 -0.048014 0.0021122 -0.013302 -0.22947 -0.069074 0.036343 -0.0012145 0.0039298 -0.043547 -0.11552 0.016261 0.21721 0.042907 0.068297 -0.10194 -0.05431 -0.029299 0.16355 0.04378 0.069546 -0.0019993 -0.0073134 -0.039072 0.085933 0.021423 -0.14238 0.015392 -0.17954 0.18067 -0.029443 0.23422 0.1354 0.0057952 -0.0086535 -0.12497 -0.13234 -0.069477 0.018006 0.13553 0.049798 -0.032271 -0.11643 -0.090051 -0.07232 -0.014563 -0.062517 0.056683 -0.089887 -0.013571 0.0058526 -0.10714 -0.10669 -0.093267 0.052391 -0.034556 0.015722 0.042614 -0.048694 -0.061041 0.11487 0.027039 0.0028782 0.049765 0.16453 -0.098103 -0.054313 -0.037782 0.018001 -0.049501 0.059121 -0.18142 -0.081502 -0.06126 -0.065164 -5.4943e-06 0.11072 -0.071164 -0.1275 0.041098 -0.074735 0.15219 -0.11936 0.0080262 0.0023629 -0.076361 -0.13234 0.10965 -0.042003 0.11588 -0.048606 -0.075311 -0.21457 0.035901 -0.035329 -0.043451 -0.057023 -0.08006 -0.013663 0.074148 -0.16388 0.096078 0.045352 -0.0083872 0.10249 0.17976 -0.078491 0.01112 -0.00058218 0.00058216 0.07513 0.032056 -0.010666 0.042012 -0.20226 -0.14018 -0.0037687 -0.037014 0.033089 0.042658 0.070248 0.062436 -0.10688 -0.23647 -0.195 -0.15575 -0.031569 0.038842 -0.099471 -0.081969 0.13953 -0.061053 0.11431 -0.14374 0.053803 0.11153 0.078451 0.19882 -0.13586 0.022823 -0.13459 0.10217 0.11639 -0.059349 -0.063165 0.14772 -0.091618 -0.025673 0.055253 0.035259 0.033429 0.013372 -0.057293 -0.0060731 -0.016921 0.0017992 
be 0.023928 0.02615 -0.03044 0.22411 -0.073258 -0.024243 0.044104 0.028169 0.23349 0.22456 -0.077418 -0.0057442 -0.19614 0.084112 -0.19472 -0.098461 -0.19971 0.092623 -0.070291 0.11114 0.1248 0.084406 -0.070335 -0.1585 0.011696 -0.033551 -0.040418 -0.16908 0.21008 -0.036254 0.017174 -0.0658 -0.086373 -0.02654 0.037376 0.056279 0.023065 0.14899 -0.072163 0.055922 -0.074845 -0.034484 -0.13866 -0.013328 -0.07119 0.091187 -0.15952 0.12339 0.16036 -0.10929 -0.062647 0.018257 -0.11382 -0.056105 -0.055499 -0.022833 -0.0010274 0.24219 0.065614 0.1211 -0.02252 -0.13903 -0.027994 0.20517 0.02879 0.11767 -0.0028529 0.14388 0.099537 -0.088094 0.10049 -0.19017 0.25579 -0.086888 0.013215 0.025704 0.13978 0.21103 0.0097 0.07985 0.1152 0.15641 -0.028504 -0.10414 0.032568 0.0035377 -0.078249 0.042768 -0.12901 -0.13673 0.15931 0.20239 -0.051437 -0.038813 0.10082 -0.065738 -0.18733 0.023522 -0.07341 -0.020668 -0.22061 -0.065129 0.0025482 -0.018335 -0.30881 -0.091949 0.047342 -0.0015837 0.0024185 -0.058699 -0.15587 0.025231 0.29442 0.058166 0.09678 -0.13828 -0.072001 -0.043276 0.21971 0.059112 0.094988 -0.0034762 -0.0088542 -0.05683 0.11577 0.029048 -0.18886 0.017725 -0.24112 0.247 -0.040714 0.31373 0.18409 0.0088826 -0.01123 -0.16376 -0.17653 -0.096729 0.023214 0.18276 0.068826 -0.044697 -0.15848 -0.12414 -0.099314 -0.02271 -0.087751 0.076887 -0.11947 -0.017614 0.0086973 -0.14429 -0.14652 -0.12647 0.067632 -0.046623 0.021579 0.056274 -0.066768 -0.08461 0.15538 0.036742 0.00028617 0.066011 0.22356 -0.13263 -0.072332 -0.048746 0.023761 -0.068887 0.081491 -0.24426 -0.10719 -0.084839 -0.089766 -0.00043531 0.14858 -0.097877 -0.17136 0.055392 -0.096889 0.20717 -0.1608 0.010607 0.0026382 -0.10443 -0.1752 0.14822 -0.058745 0.15661 -0.063886 -0.098766 -0.2889 0.049901 -0.048125 -0.057348 -0.075618 -0.10837 -0.016934 0.10111 -0.22161 0.12972 0.05874 -0.0092461 0.13453 0.24291 -0.10601 0.017037 0.00015003 0.0021799 0.10004 0.041338 -0.014358 0.058543 -0.27218 -0.18393 -0.0046375 -0.05158 0.045533 0.0559 0.092322 0.085803 -0.14324 -0.31913 -0.26254 -0.20905 -0.039618 0.053819 -0.12972 -0.11296 0.19117 -0.081627 0.15351 -0.1954 0.07105 0.1514 0.10265 0.26653 -0.1828 0.028665 -0.1808 0.1376 0.15618 -0.07825 -0.085889 0.19928 -0.12301 -0.033984 0.074686 0.050649 0.045534 0.018985 -0.077738 -0.0044963 -0.023114 0.00052781 
at 0.020115 0.025128 -0.027474 0.21718 -0.072683 -0.024241 0.04268 0.026508 0.22845 0.21669 -0.074398 -0.0053785 -0.19058 0.081401 -0.19155 -0.096598 -0.19551 0.08925 -0.069297 0.10665 0.12291 0.082934 -0.065539 -0.1546 0.013885 -0.035287 -0.037976 -0.1657 0.20367 -0.034282 0.018287 -0.060566 -0.0822 -0.024514 0.037231 0.053851 0.02438 0.14458 -0.070741 0.055311 -0.075923 -0.03496 -0.1354 -0.013839 -0.067252 0.089262 -0.15517 0.12045 0.15658 -0.1058 -0.060752 0.021309 -0.11122 -0.057821 -0.055025 -0.02144 -0.0028579 0.23579 0.06161 0.11807 -0.021937 -0.13505 -0.025334 0.2018 0.027382 0.11591 -0.0023088 0.14187 0.095561 -0.087561 0.098084 -0.1852 0.24809 -0.083577 0.011649 0.027562 0.13949 0.20507 0.010944 0.07823 0.11366 0.15493 -0.027139 -0.10174 0.03338 0.0032183 -0.079417 0.043548 -0.12567 -0.13104 0.15758 0.19898 -0.049857 -0.034975 0.098394 -0.064068 -0.18182 0.021488 -0.070824 -0.019335 -0.21472 -0.063351 0.0030907 -0.01789 -0.29928 -0.092832 0.048672 -0.00079316 0.0034052 -0.053995 -0.15314 0.023137 0.28582 0.056057 0.094258 -0.1333 -0.072388 -0.040103 0.21493 0.060635 0.091648 -0.00091873 -0.010456 -0.054156 0.11089 0.027469 -0.18917 0.017839 -0.23515 0.24062 -0.041156 0.30724 0.18062 0.008768 -0.010886 -0.15924 -0.17401 -0.093436 0.02528 0.18049 0.067227 -0.042197 -0.15196 -0.11952 -0.097646 -0.022702 -0.085523 0.075681 -0.11718 -0.018507 0.0091574 -0.13991 -0.14228 -0.12395 0.068242 -0.045473 0.022509 0.054827 -0.064314 -0.082047 0.1509 0.037329 0.0017475 0.063914 0.21541 -0.13007 -0.069982 -0.048512 0.023586 -0.065025 0.076797 -0.23658 -0.10733 -0.081902 -0.086414 -0.00093612 0.14301 -0.098122 -0.16695 0.053827 -0.097805 0.20128 -0.1553 0.010631 0.0030725 -0.10331 -0.17186 0.14391 -0.054476 0.15322 -0.063214 -0.10028 -0.28402 0.049268 -0.047283 -0.05935 -0.075812 -0.10513 -0.01887 0.097921 -0.21461 0.12658 0.058949 -0.010639 0.13002 0.23635 -0.10181 0.016424 0.0015051 0.00075661 0.097979 0.043047 -0.016013 0.055526 -0.2664 -0.18191 -0.0059695 -0.048933 0.044762 0.05449 0.092556 0.081567 -0.14077 -0.31043 -0.25272 -0.20534 -0.040017 0.053754 -0.1276 -0.1078 0.18327 -0.078682 0.15067 -0.19099 0.06845 0.14992 0.10017 0.25978 -0.17683 0.027288 -0.17919 0.13193 0.15386 -0.076393 -0.084101 0.19366 -0.12261 -0.03396 0.072697 0.046436 0.044898 0.020929 -0.073817 -0.005544 -0.02412 0.00031917 
all 0.022991 0.02854 -0.03137 0.23657 -0.080525 -0.025628 0.046648 0.027366 0.24891 0.23651 -0.083499 -0.0062209 -0.20783 0.088649 -0.20862 -0.10461 -0.21031 0.097216 -0.07346 0.11617 0.13397 0.08944 -0.073462 -0.17008 0.012824 -0.036973 -0.04278 -0.18131 0.22319 -0.036713 0.018859 -0.068472 -0.089278 -0.027167 0.042042 0.057434 0.025014 0.1578 -0.076708 0.06069 -0.079494 -0.036886 -0.14636 -0.016038 -0.072703 0.097297 -0.16794 0.13051 0.17267 -0.11631 -0.065904 0.019692 -0.11879 -0.06022 -0.060692 -0.021788 -0.0039681 0.2578 0.067011 0.13015 -0.022921 -0.1459 -0.030689 0.21682 0.031189 0.12634 -0.0024352 0.15308 0.10431 -0.095003 0.10743 -0.20179 0.27304 -0.094028 0.013065 0.028997 0.14975 0.22265 0.014059 0.086903 0.12509 0.16756 -0.030058 -0.11131 0.03705 0.0039735 -0.083802 0.04878 -0.13648 -0.1425 0.16992 0.21442 -0.055087 -0.037875 0.1052 -0.071153 -0.19971 0.025645 -0.076452 -0.021442 -0.23199 -0.067826 0.001539 -0.018571 -0.3284 -0.1007 0.052155 -0.00083727 0.0038844 -0.062534 -0.16669 0.023528 0.31142 0.05994 0.10215 -0.14642 -0.078409 -0.044751 0.23354 0.064675 0.10327 -0.0017858 -0.012086 -0.058363 0.12276 0.029876 -0.20479 0.020124 -0.25518 0.26203 -0.044122 0.33493 0.19629 0.0096203 -0.010225 -0.17426 -0.18759 -0.097822 0.027075 0.19674 0.07363 -0.0467 -0.16621 -0.13153 -0.10333 -0.022734 -0.092209 0.08164 -0.12725 -0.019154 0.0099904 -0.15341 -0.15444 -0.13507 0.07414 -0.048513 0.023554 0.059244 -0.071832 -0.089037 0.16415 0.037807 0.0024393 0.069688 0.23605 -0.14086 -0.080016 -0.052961 0.024509 -0.071497 0.083806 -0.25754 -0.11444 -0.089198 -0.09352 -0.0012521 0.15658 -0.10507 -0.18176 0.056498 -0.10571 0.21966 -0.17151 0.012085 0.0047014 -0.11112 -0.18973 0.15725 -0.059788 0.16635 -0.069656 -0.10843 -0.309 0.052628 -0.050819 -0.061987 -0.079455 -0.11618 -0.019244 0.10481 -0.23501 0.13761 0.062389 -0.010949 0.14302 0.25753 -0.11206 0.016883 0.0019765 -0.0011963 0.10783 0.044336 -0.016655 0.061222 -0.28952 -0.19667 -0.0049907 -0.054076 0.050769 0.059044 0.10054 0.091824 -0.15355 -0.33663 -0.27858 -0.22268 -0.041448 0.057416 -0.13901 -0.11846 0.2022 -0.087745 0.16397 -0.20642 0.07384 0.1599 0.11005 0.28459 -0.19452 0.031793 -0.19395 0.14635 0.16659 -0.084502 -0.092453 0.21121 -0.13072 -0.035515 0.078303 0.052168 0.049962 0.020097 -0.08133 -0.0063438 -0.02489 0.00020932 
go 0.01003 0.013492 -0.014148 0.1039 -0.036748 -0.012063 0.020437 0.012793 0.10897 0.10663 -0.037002 -0.0016269 -0.089841 0.036696 -0.090795 -0.042412 -0.093199 0.04383 -0.03087 0.051042 0.059115 0.03747 -0.032665 -0.072882 0.0048864 -0.018371 -0.018729 -0.080519 0.098772 -0.015662 0.0071174 -0.031097 -0.03823 -0.011162 0.020097 0.02652 0.010029 0.067905 -0.035067 0.028206 -0.033335 -0.018458 -0.064277 -0.0039694 -0.032679 0.043719 -0.073348 0.057097 0.075457 -0.049872 -0.02724 0.0097771 -0.051483 -0.027277 -0.027758 -0.010161 -0.0013328 0.1137 0.028781 0.055669 -0.009235 -0.066259 -0.013947 0.095984 0.011996 0.056869 -0.002508 0.068536 0.044844 -0.041391 0.047248 -0.088234 0.12015 -0.040365 0.0045183 0.011597 0.066211 0.098256 0.0060773 0.037301 0.054909 0.073161 -0.011582 -0.049911 0.015285 0.002905 -0.037572 0.022228 -0.059987 -0.062343 0.07643 0.094699 -0.023752 -0.01842 0.047983 -0.030299 -0.088615 0.011388 -0.034758 -0.007606 -0.10308 -0.029627 -0.00020264 -0.0086994 -0.14192 -0.044153 0.022942 -0.0017919 0.0014177 -0.028913 -0.075011 0.01117 0.13744 0.025697 0.044748 -0.064965 -0.034163 -0.019346 0.10143 0.029545 0.042882 -0.00080537 -0.0037256 -0.027785 0.054152 0.013404 -0.089954 0.0069446 -0.11376 0.11549 -0.019547 0.14804 0.086431 0.0027364 -0.0049226 -0.075185 -0.083539 -0.042651 0.010867 0.084948 0.031568 -0.02158 -0.072682 -0.057903 -0.048426 -0.01137 -0.038101 0.036787 -0.053887 -0.0086434 0.0031554 -0.067514 -0.067855 -0.059057 0.03187 -0.022668 0.0094791 0.02795 -0.031208 -0.036708 0.071806 0.016332 0.00012245 0.027887 0.10377 -0.06079 -0.034132 -0.022147 0.010921 -0.033756 0.038744 -0.11487 -0.050734 -0.038826 -0.041166 -0.0012774 0.069457 -0.044823 -0.080657 0.025767 -0.047453 0.096617 -0.074349 0.0056232 0.0012036 -0.048349 -0.082981 0.069841 -0.028706 0.07607 -0.030397 -0.04725 -0.13545 0.023875 -0.022515 -0.028227 -0.03459 -0.050392 -0.0086024 0.046544 -0.10411 0.062664 0.027918 -0.0032312 0.064731 0.11292 -0.05045 0.0072256 -0.002472 -0.00089227 0.049704 0.020331 -0.0083112 0.027406 -0.1288 -0.086792 -0.0019971 -0.022116 0.022441 0.026921 0.044945 0.039604 -0.066121 -0.15126 -0.12174 -0.10122 -0.018034 0.024568 -0.063151 -0.052829 0.08769 -0.038055 0.070695 -0.090665 0.034278 0.071704 0.046089 0.12447 -0.085273 0.015394 -0.085374 0.065956 0.074569 -0.035962 -0.042561 0.093 -0.059626 -0.016847 0.036058 0.021053 0.02237 0.010013 -0.035468 -0.0025755 -0.01248 -0.0012362 
restaurant 0.021022 0.026237 -0.027438 0.21161 -0.071943 -0.022716 0.042212 0.024438 0.22225 0.21167 -0.073863 -0.0044264 -0.18643 0.079263 -0.18718 -0.093007 -0.18901 0.086275 -0.065567 0.10481 0.12012 0.079413 -0.065861 -0.15187 0.011131 -0.033431 -0.038879 -0.16189 0.20007 -0.031857 0.015085 -0.06059 -0.080364 -0.024289 0.036513 0.050553 0.021619 0.14226 -0.06916 0.052791 -0.071181 -0.032888 -0.13121 -0.014058 -0.066163 0.086876 -0.15215 0.11685 0.15287 -0.10438 -0.058662 0.0185 -0.10784 -0.055097 -0.053929 -0.019511 -0.0022432 0.23027 0.059963 0.11479 -0.020378 -0.13113 -0.026783 0.19456 0.026988 0.11342 -0.0015224 0.13676 0.093945 -0.085008 0.096971 -0.18174 0.24419 -0.083882 0.01217 0.025362 0.13365 0.19956 0.011486 0.075616 0.11129 0.14967 -0.025837 -0.10035 0.032802 0.0040224 -0.077087 0.043265 -0.12244 -0.12935 0.15355 0.19257 -0.04773 -0.034642 0.095507 -0.062876 -0.17907 0.020795 -0.068621 -0.018736 -0.20894 -0.06129 0.0014507 -0.018287 -0.29292 -0.08977 0.045577 -0.0012938 0.0035112 -0.054271 -0.14927 0.022438 0.27871 0.054448 0.09074 -0.13144 -0.069112 -0.039788 0.20938 0.057403 0.092017 -0.0014595 -0.0094225 -0.053362 0.1091 0.02727 -0.18273 0.017148 -0.22858 0.23403 -0.038519 0.30041 0.1754 0.0085044 -0.010887 -0.15633 -0.16788 -0.090118 0.023443 0.1754 0.0655 -0.041045 -0.14833 -0.11818 -0.093119 -0.020239 -0.082533 0.072881 -0.11448 -0.015917 0.0088108 -0.13666 -0.1373 -0.12169 0.066897 -0.043639 0.020864 0.053645 -0.064163 -0.079041 0.1475 0.034636 0.00082442 0.06255 0.21144 -0.12641 -0.070014 -0.047979 0.022115 -0.064142 0.075309 -0.23138 -0.10265 -0.07888 -0.085479 -0.00022445 0.14106 -0.093948 -0.16214 0.050886 -0.094864 0.19694 -0.15278 0.011473 0.0048505 -0.098694 -0.16803 0.14041 -0.053314 0.14959 -0.061928 -0.096722 -0.27601 0.046478 -0.044523 -0.056222 -0.071566 -0.10265 -0.017118 0.093677 -0.20985 0.12288 0.05632 -0.010219 0.12824 0.23045 -0.098721 0.0159 -0.00017675 -0.00039939 0.095931 0.040072 -0.014096 0.054902 -0.25966 -0.17553 -0.0030457 -0.046809 0.043618 0.053661 0.089772 0.081324 -0.13652 -0.30347 -0.24911 -0.20046 -0.037748 0.051465 -0.12502 -0.10599 0.17966 -0.078565 0.14738 -0.18716 0.066676 0.14512 0.097539 0.25433 -0.17241 0.027441 -0.17335 0.12988 0.14904 -0.075321 -0.081778 0.18925 -0.11778 -0.032307 0.072165 0.046297 0.044222 0.018876 -0.072969 -0.0049724 -0.021695 -0.00011785 
as 0.015719 0.01798 -0.022097 0.15141 -0.051402 -0.015742 0.030366 0.017117 0.15793 0.15165 -0.053125 -0.0028742 -0.13079 0.055842 -0.13221 -0.066305 -0.13462 0.0601 -0.048012 0.074038 0.083559 0.05684 -0.047333 -0.10819 0.010081 -0.023103 -0.028124 -0.11374 0.14237 -0.023188 0.010688 -0.041539 -0.055612 -0.017151 0.027686 0.035467 0.016677 0.10127 -0.048867 0.038401 -0.051648 -0.021048 -0.092453 -0.011103 -0.045697 0.060822 -0.10739 0.082362 0.11074 -0.072267 -0.042888 0.012722 -0.077842 -0.041129 -0.037284 -0.015198 -0.0033331 0.16406 0.042406 0.082113 -0.01406 -0.093213 -0.019353 0.13649 0.02053 0.07977 -0.00012942 0.096479 0.066225 -0.061937 0.068853 -0.12744 0.17149 -0.06042 0.0077591 0.017303 0.096134 0.14116 0.010046 0.053389 0.07873 0.1045 -0.018238 -0.068179 0.022086 0.0018278 -0.054219 0.031249 -0.08445 -0.09006 0.10797 0.13649 -0.035665 -0.024471 0.067312 -0.04336 -0.12669 0.017611 -0.045798 -0.012938 -0.14869 -0.044529 0.0014721 -0.013496 -0.20862 -0.061581 0.032749 -0.00061586 0.0031958 -0.037938 -0.10484 0.015977 0.19647 0.038156 0.065065 -0.092249 -0.046173 -0.028304 0.14797 0.039855 0.063873 0.0014749 -0.0041875 -0.037471 0.077025 0.018706 -0.12913 0.013998 -0.16264 0.16469 -0.0276 0.21203 0.12257 0.0061136 -0.0081447 -0.11215 -0.11813 -0.065444 0.017403 0.12407 0.046204 -0.029224 -0.10471 -0.083981 -0.06643 -0.016543 -0.055597 0.05065 -0.080503 -0.0090288 0.0071448 -0.095722 -0.097111 -0.08559 0.044345 -0.030448 0.016146 0.036587 -0.043921 -0.05782 0.10557 0.022292 0.00061995 0.04505 0.14827 -0.090631 -0.049453 -0.034216 0.014124 -0.045689 0.05432 -0.16272 -0.072465 -0.057156 -0.061037 -0.0002172 0.098742 -0.066264 -0.11254 0.036042 -0.066168 0.13938 -0.10724 0.0088319 0.0027753 -0.069205 -0.11889 0.10032 -0.039957 0.10628 -0.042729 -0.067188 -0.19713 0.032113 -0.032994 -0.03973 -0.051734 -0.074336 -0.011492 0.068538 -0.14965 0.08697 0.040671 -0.0080682 0.089476 0.16335 -0.072256 0.010718 0.00052462 -0.0023257 0.069183 0.029604 -0.0091025 0.03784 -0.18245 -0.12391 -0.0022426 -0.031225 0.029548 0.03479 0.064143 0.056884 -0.095109 -0.21285 -0.17738 -0.142 -0.026489 0.037117 -0.091217 -0.07505 0.12665 -0.053614 0.10543 -0.1323 0.048159 0.10233 0.066966 0.17898 -0.12202 0.020259 -0.12145 0.09223 0.10366 -0.051508 -0.058646 0.13363 -0.083119 -0.02049 0.04912 0.033183 0.029429 0.015398 -0.051989 -0.0017667 -0.015248 0.0018454 
like 0.014149 0.016686 -0.01701 0.13686 -0.045784 -0.015692 0.027361 0.016124 0.14223 0.13665 -0.047542 -0.0039448 -0.1202 0.050974 -0.1205 -0.061237 -0.12156 0.05602 -0.040866 0.066907 0.075967 0.051927 -0.041489 -0.097001 0.0083399 -0.020971 -0.025285 -0.10533 0.12872 -0.021219 0.011186 -0.039185 -0.052579 -0.015333 0.021992 0.033243 0.015043 0.091061 -0.044266 0.033459 -0.045911 -0.020738 -0.085536 -0.0076034 -0.043397 0.057686 -0.097411 0.07563 0.098178 -0.067041 -0.037495 0.011718 -0.06908 -0.03452 -0.036216 -0.013261 -0.0021847 0.14874 0.038187 0.074086 -0.012429 -0.085704 -0.017788 0.12621 0.01872 0.073239 -0.001202 0.088713 0.060691 -0.05427 0.061248 -0.11662 0.15737 -0.055457 0.0075985 0.016259 0.08634 0.12757 0.007401 0.047738 0.071756 0.096631 -0.018313 -0.065146 0.021923 0.0025671 -0.048866 0.027962 -0.078026 -0.082876 0.099419 0.12401 -0.030619 -0.023194 0.062094 -0.040128 -0.11492 0.014165 -0.044581 -0.011813 -0.13478 -0.040024 -0.0001264 -0.011865 -0.18883 -0.056862 0.030996 -0.0011302 0.0020646 -0.034124 -0.096717 0.015011 0.17895 0.03513 0.059527 -0.083816 -0.044826 -0.024837 0.13446 0.03687 0.06003 -0.00064142 -0.0070787 -0.034121 0.070754 0.016915 -0.11837 0.010734 -0.14788 0.15087 -0.025607 0.19279 0.11276 0.0049133 -0.0075121 -0.1011 -0.10855 -0.058962 0.01546 0.11307 0.041755 -0.027649 -0.096009 -0.076869 -0.060218 -0.013331 -0.052142 0.047345 -0.07374 -0.010596 0.0042899 -0.089036 -0.089293 -0.079528 0.041704 -0.029464 0.012139 0.035323 -0.040754 -0.051612 0.095808 0.022645 0.0016422 0.041006 0.13651 -0.08144 -0.045824 -0.029661 0.014377 -0.043119 0.049635 -0.14954 -0.065768 -0.051097 -0.055048 -0.00029532 0.090782 -0.060742 -0.10496 0.033195 -0.06136 0.1267 -0.098281 0.0072753 0.003627 -0.064285 -0.10911 0.090573 -0.034464 0.0963 -0.04039 -0.062468 -0.17844 0.029404 -0.029813 -0.035544 -0.047409 -0.066819 -0.010547 0.06227 -0.13559 0.078003 0.035666 -0.0069463 0.082273 0.14927 -0.064742 0.011274 -0.00066968 -0.0010471 0.062593 0.025079 -0.0092143 0.035939 -0.16712 -0.11443 -0.0034224 -0.030005 0.027221 0.033589 0.058051 0.052859 -0.089492 -0.19438 -0.16012 -0.12849 -0.02392 0.032891 -0.081166 -0.067815 0.11686 -0.05028 0.094575 -0.11986 0.043037 0.093199 0.062661 0.1645 -0.1106 0.0182 -0.11239 0.084364 0.096421 -0.048659 -0.051584 0.12231 -0.074094 -0.020034 0.04459 0.028897 0.029462 0.011632 -0.046951 -0.0027777 -0.014032 0.00079466 
there 0.039909 0.051242 -0.053624 0.40364 -0.13676 -0.045341 0.081049 0.047275 0.42201 0.40132 -0.13979 -0.0097482 -0.3532 0.15041 -0.35476 -0.1763 -0.35741 0.16564 -0.12453 0.19702 0.22788 0.15191 -0.12519 -0.28853 0.02326 -0.061482 -0.073746 -0.30787 0.37871 -0.061014 0.029854 -0.11519 -0.15168 -0.045531 0.068782 0.095571 0.043377 0.26913 -0.1315 0.1009 -0.13425 -0.061469 -0.24929 -0.026713 -0.12613 0.16478 -0.28998 0.21939 0.29 -0.19722 -0.11201 0.035711 -0.20545 -0.10416 -0.10356 -0.038445 -0.0054702 0.43664 0.11363 0.21878 -0.038418 -0.24973 -0.050695 0.36956 0.053101 0.21564 -0.0036419 0.26043 0.17827 -0.16305 0.18193 -0.34412 0.46439 -0.15894 0.022775 0.048522 0.25447 0.37977 0.022118 0.14451 0.21186 0.28473 -0.048713 -0.1893 0.063316 0.0064424 -0.14569 0.082207 -0.23087 -0.24442 0.2909 0.36483 -0.091861 -0.067145 0.18098 -0.11998 -0.33872 0.040615 -0.13037 -0.037031 -0.39698 -0.11665 0.0036877 -0.034565 -0.55562 -0.16905 0.087719 -0.0027506 0.0067277 -0.10358 -0.28435 0.041981 0.52758 0.10259 0.17364 -0.24861 -0.13238 -0.074942 0.39688 0.11067 0.17361 -0.0037313 -0.018445 -0.10155 0.20743 0.050501 -0.34588 0.032271 -0.43353 0.44301 -0.073609 0.57039 0.33172 0.015512 -0.019778 -0.29578 -0.3195 -0.17096 0.044218 0.3312 0.12352 -0.078569 -0.28288 -0.2253 -0.17782 -0.039514 -0.15524 0.13648 -0.21616 -0.032479 0.016758 -0.25945 -0.26253 -0.23033 0.12561 -0.083913 0.039117 0.10104 -0.12083 -0.14995 0.27912 0.065392 0.0011224 0.11831 0.40002 -0.2398 -0.13366 -0.089057 0.041941 -0.12211 0.14302 -0.43984 -0.19603 -0.14904 -0.16135 -0.0019352 0.26793 -0.17866 -0.30566 0.097216 -0.18022 0.37286 -0.29107 0.020897 0.0065956 -0.18954 -0.31891 0.26769 -0.10166 0.28358 -0.11762 -0.18492 -0.52401 0.090071 -0.086057 -0.10752 -0.13713 -0.19413 -0.032948 0.17954 -0.39937 0.23357 0.107 -0.017895 0.24239 0.43745 -0.18946 0.030762 0.0010819 -0.00092158 0.18207 0.075966 -0.027386 0.10495 -0.49307 -0.33329 -0.0069917 -0.088848 0.082217 0.10168 0.17224 0.15431 -0.25811 -0.57497 -0.47275 -0.38086 -0.071128 0.098662 -0.23784 -0.20058 0.34146 -0.1491 0.27984 -0.35435 0.1269 0.27406 0.18547 0.48242 -0.3287 0.053271 -0.32812 0.24707 0.28253 -0.14425 -0.15738 0.35942 -0.22205 -0.061578 0.13458 0.086602 0.084626 0.036379 -0.14025 -0.0093609 -0.040624 0.00068755 
