669 100
</s> -0.047438 0.30351 0.21019 0.15631 -0.07988 -0.10809 0.36638 0.038623 0.10348 0.02167 0.11527 -0.33721 0.17419 -0.32166 0.12184 0.076147 0.086212 -0.37179 0.092243 -0.37747 0.21414 0.19697 -0.22949 -0.22522 -0.13228 0.21489 0.19242 0.033005 0.090625 0.28104 0.19503 -0.018595 0.37933 0.089854 -0.26936 0.10801 -0.12053 0.24391 -0.087449 0.13634 -0.16344 0.015299 0.33868 -0.078872 -0.14378 -0.46489 -0.2503 0.31256 0.0033467 0.23186 0.066451 -0.20948 -0.28843 0.3472 0.49012 0.12233 -0.055447 -0.26525 0.22471 0.25956 -0.37491 -0.26614 0.22741 -0.062997 0.35961 0.1891 0.090929 -0.16408 -0.1606 -0.16776 0.019757 0.031257 0.14938 0.070449 -0.22628 0.20898 -0.26959 0.41652 -0.0063574 0.16291 0.15301 -0.10892 -0.29092 0.20055 0.25769 -0.041347 0.0083896 0.30376 0.089906 -0.29703 -0.0071149 -0.24951 0.29351 -0.11119 -0.15088 -0.10971 -0.043086 0.15485 -0.15941 -0.19445 
the -0.04557 0.30839 0.21125 0.16004 -0.078519 -0.11283 0.36956 0.042347 0.10719 0.016356 0.11378 -0.33987 0.17715 -0.32188 0.12355 0.07904 0.08674 -0.37733 0.091355 -0.38469 0.21509 0.19844 -0.23974 -0.22664 -0.1387 0.21624 0.19315 0.035409 0.092305 0.27992 0.1988 -0.019339 0.38353 0.094089 -0.27364 0.10891 -0.12468 0.24666 -0.087455 0.1409 -0.16149 0.017849 0.34507 -0.080588 -0.14566 -0.46724 -0.25193 0.32083 0.0057787 0.23436 0.070904 -0.2164 -0.29149 0.353 0.49296 0.12518 -0.057023 -0.26704 0.23039 0.26388 -0.38241 -0.26566 0.22639 -0.061187 0.36927 0.19236 0.093229 -0.16606 -0.16469 -0.16956 0.022724 0.029661 0.14819 0.069203 -0.23264 0.20858 -0.272 0.42078 -0.0074586 0.16664 0.15978 -0.11096 -0.29483 0.20214 0.26349 -0.04241 0.0093333 0.31471 0.096762 -0.30326 -0.0062938 -0.25549 0.29982 -0.11309 -0.14835 -0.11331 -0.04266 0.15669 -0.1598 -0.19677 
food#quality -0.041412 0.28508 0.19495 0.14713 -0.073479 -0.1025 0.34233 0.037352 0.098434 0.018246 0.10484 -0.31741 0.16032 -0.29888 0.11563 0.068227 0.077568 -0.34925 0.081984 -0.3508 0.19961 0.18797 -0.2221 -0.20801 -0.12574 0.20051 0.18061 0.030954 0.085774 0.2639 0.18382 -0.020387 0.35544 0.088171 -0.25068 0.097209 -0.1128 0.22611 -0.081216 0.12599 -0.1525 0.015586 0.31768 -0.074086 -0.13657 -0.43054 -0.23247 0.29455 0.0042656 0.2149 0.063295 -0.19781 -0.26797 0.32301 0.4563 0.1193 -0.048256 -0.24673 0.20585 0.24606 -0.35169 -0.24783 0.20853 -0.056648 0.34198 0.1758 0.086165 -0.15593 -0.14966 -0.1586 0.016108 0.02826 0.13704 0.065194 -0.21443 0.19712 -0.2504 0.38911 -0.0026707 0.15201 0.14534 -0.10241 -0.26956 0.18993 0.24253 -0.037896 0.0078673 0.286 0.088841 -0.28214 -0.0084597 -0.23438 0.27326 -0.10604 -0.14385 -0.10362 -0.036251 0.14369 -0.14848 -0.18308 
and -0.051659 0.35813 0.23973 0.1856 -0.090187 -0.1282 0.42997 0.045051 0.12292 0.020918 0.13173 -0.39191 0.19944 -0.38001 0.14503 0.0841 0.094317 -0.44452 0.10764 -0.44525 0.25084 0.23047 -0.27747 -0.26727 -0.15607 0.2517 0.2284 0.039004 0.10434 0.32876 0.23202 -0.021376 0.44455 0.11121 -0.31804 0.12517 -0.13937 0.28536 -0.10132 0.16106 -0.19079 0.016038 0.40224 -0.093745 -0.1711 -0.54144 -0.28826 0.37108 0.00938 0.26971 0.081125 -0.24621 -0.33636 0.40863 0.57394 0.14545 -0.06765 -0.31027 0.26669 0.30968 -0.43884 -0.30873 0.26855 -0.072914 0.43105 0.22496 0.10612 -0.19284 -0.18822 -0.20285 0.026837 0.036019 0.17156 0.084211 -0.26858 0.24431 -0.31662 0.49009 -0.0055404 0.1879 0.18045 -0.12426 -0.33622 0.23803 0.30578 -0.04625 0.011539 0.36376 0.11257 -0.35236 -0.0071712 -0.29455 0.34929 -0.13309 -0.17851 -0.13038 -0.044265 0.18373 -0.18711 -0.22825 
a -0.066123 0.42621 0.28636 0.22541 -0.10485 -0.15048 0.5077 0.048494 0.14857 0.032669 0.15971 -0.4766 0.23825 -0.45367 0.17326 0.10814 0.12007 -0.5277 0.12279 -0.52158 0.30251 0.27129 -0.32656 -0.31881 -0.18311 0.30618 0.27591 0.051819 0.12765 0.39304 0.27556 -0.032945 0.53088 0.1267 -0.37522 0.15928 -0.17844 0.34736 -0.1122 0.19057 -0.2263 0.017108 0.4837 -0.1028 -0.20453 -0.65432 -0.34645 0.4407 0.0052467 0.32057 0.098117 -0.2852 -0.40556 0.49181 0.68843 0.17823 -0.082675 -0.37649 0.31191 0.37469 -0.51858 -0.36969 0.30603 -0.089175 0.51019 0.26842 0.12909 -0.23177 -0.22389 -0.23614 0.021043 0.041088 0.21011 0.099886 -0.32067 0.29136 -0.38008 0.57779 -0.0074518 0.22443 0.21358 -0.15605 -0.40907 0.28073 0.36381 -0.055723 0.0099736 0.43046 0.13348 -0.41493 -0.0029803 -0.35012 0.41647 -0.16063 -0.21015 -0.14496 -0.062667 0.21133 -0.22713 -0.27393 
is -0.044383 0.32996 0.22574 0.16215 -0.082487 -0.11928 0.38935 0.043308 0.11673 0.019595 0.12919 -0.36324 0.18687 -0.34023 0.13108 0.083461 0.089879 -0.40805 0.10064 -0.40572 0.22563 0.21423 -0.25235 -0.24278 -0.14564 0.23227 0.20658 0.03713 0.094469 0.29635 0.20892 -0.024459 0.40858 0.10255 -0.29132 0.1174 -0.1313 0.26391 -0.091097 0.14753 -0.17716 0.017784 0.36846 -0.085956 -0.15842 -0.5017 -0.26858 0.33135 0.0041525 0.25591 0.068894 -0.22231 -0.31066 0.37811 0.53145 0.13689 -0.054066 -0.29148 0.2421 0.27987 -0.40554 -0.28453 0.24185 -0.067427 0.39773 0.20443 0.099317 -0.17972 -0.17322 -0.17728 0.024371 0.031765 0.16305 0.07013 -0.24701 0.22541 -0.29023 0.43829 -0.0024408 0.17324 0.16942 -0.11592 -0.31123 0.21691 0.27983 -0.041399 0.0028449 0.33111 0.099815 -0.32057 -0.011589 -0.27091 0.31752 -0.1192 -0.16163 -0.11959 -0.045685 0.17038 -0.17489 -0.216 
i -0.04943 0.34768 0.24158 0.17835 -0.093636 -0.11981 0.41206 0.050894 0.11985 0.016012 0.12954 -0.3847 0.19304 -0.37724 0.14353 0.089052 0.095357 -0.4234 0.1042 -0.42937 0.24763 0.225 -0.26925 -0.26537 -0.15476 0.24622 0.218 0.038269 0.10427 0.31927 0.22234 -0.033001 0.42506 0.10148 -0.30027 0.12474 -0.13069 0.27775 -0.093136 0.15618 -0.19015 0.01682 0.39313 -0.097267 -0.16577 -0.53427 -0.27856 0.34674 0.01134 0.26198 0.086488 -0.23072 -0.33305 0.39335 0.5634 0.13511 -0.065081 -0.29891 0.26428 0.30241 -0.42438 -0.29904 0.24673 -0.076793 0.41677 0.21632 0.098859 -0.18875 -0.18537 -0.18149 0.013808 0.040903 0.16788 0.072873 -0.26063 0.23526 -0.30863 0.47173 -0.012092 0.17739 0.18241 -0.11611 -0.32907 0.22164 0.29521 -0.051477 0.015428 0.34827 0.10681 -0.33818 -0.0065993 -0.28533 0.33211 -0.13273 -0.17466 -0.12444 -0.049107 0.17376 -0.17051 -0.22431 
service#general -0.042227 0.29639 0.20433 0.15325 -0.075242 -0.10739 0.35557 0.03792 0.10304 0.016988 0.11285 -0.33069 0.16868 -0.31462 0.12003 0.074929 0.078745 -0.36436 0.08914 -0.36876 0.20911 0.19067 -0.23157 -0.22273 -0.13107 0.20914 0.19028 0.03196 0.087121 0.27645 0.196 -0.021449 0.3717 0.088454 -0.26547 0.10691 -0.11745 0.23983 -0.081584 0.13385 -0.15855 0.014621 0.33199 -0.078134 -0.14224 -0.45059 -0.2407 0.30691 0.0037997 0.22705 0.066442 -0.2046 -0.28337 0.34163 0.47593 0.11967 -0.05489 -0.26226 0.21874 0.25608 -0.36512 -0.26032 0.21757 -0.059491 0.35313 0.18215 0.092214 -0.15961 -0.1544 -0.16507 0.01863 0.030436 0.14748 0.071448 -0.22419 0.20193 -0.26254 0.40335 -0.0043989 0.15767 0.15299 -0.10473 -0.28386 0.19861 0.25311 -0.037025 0.0086299 0.30291 0.095129 -0.29541 -0.0065147 -0.24328 0.28929 -0.11118 -0.14477 -0.10633 -0.038009 0.1534 -0.15754 -0.19288 
to -0.058166 0.38225 0.2594 0.20396 -0.096086 -0.14098 0.45846 0.051673 0.13472 0.019654 0.14311 -0.42715 0.21523 -0.40822 0.15505 0.093235 0.10649 -0.46951 0.12355 -0.47909 0.27012 0.23995 -0.29843 -0.28989 -0.16808 0.2632 0.25348 0.039777 0.11812 0.36058 0.25101 -0.024345 0.48269 0.11333 -0.34361 0.137 -0.15117 0.30577 -0.10427 0.17503 -0.20772 0.016444 0.42778 -0.09908 -0.18046 -0.58853 -0.31157 0.39564 0.0049474 0.30022 0.084913 -0.26059 -0.3645 0.43666 0.62175 0.15901 -0.071247 -0.33805 0.28239 0.33365 -0.46454 -0.33242 0.28527 -0.077338 0.45607 0.23623 0.11771 -0.21192 -0.20289 -0.21374 0.022448 0.040046 0.18982 0.088042 -0.2892 0.26351 -0.34185 0.52119 -0.0044663 0.20803 0.1908 -0.13899 -0.36311 0.2483 0.32863 -0.050928 0.015283 0.39007 0.12385 -0.37562 -0.013613 -0.31918 0.37769 -0.14325 -0.18402 -0.13859 -0.054543 0.19887 -0.20197 -0.24495 
was -0.050364 0.32378 0.22106 0.17079 -0.078757 -0.11396 0.38837 0.043369 0.11186 0.020115 0.11819 -0.36196 0.18324 -0.34665 0.12548 0.079091 0.088386 -0.39939 0.10128 -0.40137 0.22977 0.20952 -0.24851 -0.24149 -0.13962 0.22691 0.20158 0.035817 0.095257 0.2986 0.20854 -0.020718 0.40154 0.093374 -0.28386 0.1128 -0.12872 0.26247 -0.092104 0.14711 -0.17154 0.017535 0.35485 -0.080997 -0.15344 -0.48992 -0.2622 0.3304 0.0045055 0.24131 0.075757 -0.22339 -0.30641 0.36593 0.52121 0.13419 -0.058334 -0.27874 0.24039 0.27896 -0.39751 -0.28057 0.23588 -0.065154 0.38435 0.19692 0.094867 -0.17116 -0.16985 -0.17809 0.019483 0.032394 0.15727 0.079393 -0.24403 0.22302 -0.28729 0.44052 -0.0018719 0.17201 0.16166 -0.11706 -0.30751 0.21413 0.27246 -0.044509 0.0066682 0.32597 0.0997 -0.31882 -0.0081612 -0.26291 0.31557 -0.1224 -0.16485 -0.11344 -0.04854 0.16618 -0.16877 -0.20628 
restaurant#general -0.040604 0.28693 0.20237 0.14881 -0.072077 -0.10436 0.34686 0.036128 0.10031 0.019038 0.1107 -0.32394 0.16541 -0.30647 0.11686 0.071906 0.077716 -0.35711 0.087951 -0.3615 0.20562 0.18577 -0.22501 -0.21702 -0.1265 0.20392 0.18693 0.031932 0.086708 0.26855 0.19252 -0.020493 0.36372 0.087985 -0.26214 0.10331 -0.11251 0.23465 -0.080547 0.13091 -0.15659 0.011877 0.32472 -0.078597 -0.13783 -0.44346 -0.23655 0.29709 0.0047849 0.22441 0.063486 -0.19747 -0.27643 0.33666 0.46945 0.11857 -0.053476 -0.25789 0.21463 0.25133 -0.35527 -0.25433 0.21497 -0.056809 0.34737 0.17731 0.091758 -0.15763 -0.15325 -0.16136 0.018404 0.03055 0.14474 0.066586 -0.21822 0.19665 -0.25852 0.39398 -0.0048605 0.15403 0.15008 -0.10274 -0.27875 0.19267 0.24968 -0.038397 0.0064544 0.29526 0.092277 -0.28972 -0.0079933 -0.24007 0.28038 -0.10694 -0.14084 -0.10579 -0.03869 0.14898 -0.15311 -0.19088 
of -0.061915 0.41215 0.2764 0.2182 -0.10498 -0.15325 0.49621 0.054813 0.14263 0.027683 0.14854 -0.45387 0.24347 -0.43633 0.16531 0.10277 0.11687 -0.51108 0.12412 -0.51157 0.28727 0.26516 -0.31394 -0.30148 -0.17802 0.29449 0.25998 0.050208 0.12338 0.37649 0.27319 -0.0264 0.51477 0.12055 -0.36048 0.14896 -0.1695 0.32736 -0.10951 0.18911 -0.22159 0.023099 0.45564 -0.10529 -0.19189 -0.6244 -0.32948 0.4288 0.0062608 0.31721 0.092632 -0.28644 -0.39139 0.46705 0.66035 0.17121 -0.078233 -0.36049 0.30137 0.35694 -0.50163 -0.35801 0.30443 -0.082611 0.49724 0.2556 0.12393 -0.2216 -0.21359 -0.23057 0.026998 0.03625 0.20402 0.094425 -0.31218 0.27598 -0.36473 0.5606 -0.0056637 0.21541 0.21602 -0.14543 -0.39093 0.27443 0.35026 -0.055759 0.014806 0.41577 0.12483 -0.40508 -0.0090237 -0.33558 0.39303 -0.14712 -0.1961 -0.1492 -0.054873 0.21199 -0.21403 -0.26806 
it -0.057699 0.40651 0.28118 0.21833 -0.096866 -0.1463 0.48166 0.058202 0.14146 0.022941 0.1484 -0.44849 0.2375 -0.43188 0.16989 0.10651 0.1078 -0.50179 0.12583 -0.50962 0.28687 0.25557 -0.31119 -0.30636 -0.18124 0.28138 0.26412 0.045122 0.11917 0.37728 0.26796 -0.027165 0.50897 0.12367 -0.3689 0.1475 -0.16432 0.32354 -0.11617 0.18908 -0.21511 0.021636 0.46285 -0.10968 -0.18716 -0.62209 -0.33789 0.41974 0.010049 0.30957 0.094578 -0.27601 -0.39083 0.4651 0.6607 0.16333 -0.077906 -0.3588 0.29812 0.34906 -0.49552 -0.34942 0.30294 -0.080935 0.48777 0.25588 0.11837 -0.21715 -0.21663 -0.22212 0.029431 0.044554 0.20525 0.095286 -0.30584 0.27251 -0.36749 0.55957 -0.0095822 0.21648 0.2099 -0.14694 -0.38695 0.26842 0.35434 -0.04776 0.013954 0.41126 0.12368 -0.40085 -0.0087936 -0.34138 0.39309 -0.15007 -0.20631 -0.14599 -0.05567 0.20064 -0.20877 -0.26749 
for -0.052945 0.36646 0.24884 0.19373 -0.090744 -0.12864 0.4372 0.046692 0.12874 0.019763 0.13937 -0.40141 0.20696 -0.38682 0.14214 0.091658 0.10209 -0.44415 0.10958 -0.45394 0.25711 0.23793 -0.28364 -0.27601 -0.16057 0.26075 0.23136 0.03966 0.10692 0.34161 0.24258 -0.026405 0.45888 0.10808 -0.32783 0.13235 -0.14901 0.28985 -0.099717 0.16355 -0.19203 0.02386 0.40736 -0.093944 -0.17523 -0.55394 -0.29699 0.37243 0.0075284 0.27635 0.082511 -0.25115 -0.34651 0.41844 0.58883 0.15008 -0.068003 -0.32408 0.26696 0.31727 -0.44741 -0.31982 0.26614 -0.07264 0.43678 0.22791 0.11022 -0.19634 -0.19212 -0.20084 0.022489 0.036513 0.18279 0.084187 -0.27663 0.24516 -0.32144 0.49581 -0.0093805 0.19378 0.18769 -0.13041 -0.34699 0.24166 0.30872 -0.046743 0.012135 0.36706 0.11323 -0.36015 -0.0080508 -0.29989 0.3577 -0.1366 -0.17935 -0.12735 -0.047902 0.18141 -0.19068 -0.23231 
in -0.056741 0.40612 0.27888 0.21755 -0.097715 -0.14599 0.49724 0.05061 0.14374 0.025125 0.14973 -0.45535 0.23585 -0.44359 0.16738 0.097983 0.11089 -0.5114 0.11926 -0.51237 0.28736 0.27148 -0.31822 -0.30727 -0.17575 0.29056 0.26495 0.045903 0.11895 0.37729 0.27079 -0.024398 0.5195 0.12505 -0.36236 0.14575 -0.16264 0.33952 -0.11913 0.18359 -0.22134 0.023439 0.45954 -0.10406 -0.1981 -0.63064 -0.3331 0.42197 0.0099231 0.31603 0.089904 -0.28325 -0.39497 0.47024 0.67005 0.16624 -0.074384 -0.36577 0.30823 0.35877 -0.50818 -0.36291 0.30282 -0.082911 0.5031 0.25223 0.12873 -0.22048 -0.22072 -0.22739 0.02404 0.04488 0.20249 0.092574 -0.30689 0.28157 -0.3624 0.56381 -0.0012897 0.22272 0.21404 -0.14768 -0.39504 0.28242 0.35428 -0.055282 0.013842 0.41992 0.12627 -0.40962 -0.0096459 -0.3395 0.39647 -0.14393 -0.20271 -0.14895 -0.052095 0.21083 -0.21469 -0.26364 
ambience#general -0.041118 0.28994 0.20035 0.14992 -0.074918 -0.10556 0.35078 0.035613 0.10187 0.017079 0.11184 -0.32561 0.16496 -0.31046 0.11957 0.073206 0.078646 -0.36012 0.086688 -0.36316 0.20664 0.18718 -0.22794 -0.21661 -0.1292 0.20568 0.18792 0.032594 0.085198 0.2721 0.19171 -0.020355 0.36454 0.089028 -0.26189 0.10439 -0.11566 0.23475 -0.080556 0.13279 -0.15543 0.015679 0.32698 -0.077259 -0.13988 -0.4439 -0.23879 0.30106 0.0038204 0.22366 0.06454 -0.20067 -0.27747 0.33714 0.46883 0.11904 -0.054283 -0.25909 0.21552 0.25213 -0.35933 -0.25595 0.21506 -0.057912 0.34817 0.17857 0.092459 -0.15609 -0.15333 -0.16074 0.018781 0.030111 0.1468 0.068809 -0.2202 0.19962 -0.25929 0.39743 -0.0046097 0.15544 0.15016 -0.10386 -0.28011 0.19416 0.24938 -0.03692 0.0079039 0.29732 0.091782 -0.29096 -0.0061578 -0.24132 0.28352 -0.10767 -0.1424 -0.10363 -0.038668 0.14999 -0.15327 -0.1913 
this -0.042203 0.30312 0.20741 0.15668 -0.07487 -0.10795 0.35871 0.041981 0.10389 0.018199 0.11419 -0.33191 0.17093 -0.31969 0.12321 0.076785 0.084955 -0.37226 0.091524 -0.37663 0.21003 0.19381 -0.23023 -0.22122 -0.13321 0.20929 0.19015 0.034186 0.08711 0.2752 0.19734 -0.022398 0.37548 0.09213 -0.26771 0.10576 -0.12161 0.24142 -0.081799 0.13524 -0.16156 0.016063 0.33545 -0.072257 -0.14485 -0.45681 -0.24534 0.30759 0.0081795 0.22938 0.067498 -0.20283 -0.28348 0.34642 0.48686 0.12251 -0.05296 -0.25973 0.22179 0.2594 -0.36802 -0.25975 0.22002 -0.058892 0.36169 0.18667 0.092256 -0.15949 -0.15828 -0.16592 0.020033 0.029669 0.1475 0.067787 -0.22614 0.19988 -0.26884 0.40598 -0.0040411 0.15923 0.15501 -0.10448 -0.28627 0.19606 0.25627 -0.036811 0.011164 0.30337 0.095098 -0.29573 -0.0086776 -0.25039 0.29486 -0.1091 -0.14435 -0.1102 -0.040144 0.15651 -0.15276 -0.19603 
but -0.04657 0.32734 0.2253 0.17423 -0.080012 -0.12008 0.39031 0.041684 0.11455 0.019181 0.12292 -0.35877 0.18343 -0.3528 0.12924 0.083453 0.093101 -0.40737 0.097913 -0.40956 0.22811 0.21104 -0.25517 -0.24417 -0.14618 0.23264 0.20873 0.036618 0.094258 0.3009 0.21482 -0.024726 0.40481 0.09657 -0.29301 0.11167 -0.12996 0.2604 -0.094966 0.14872 -0.17321 0.015226 0.37046 -0.084867 -0.15908 -0.50285 -0.2634 0.34119 0.0076923 0.25101 0.074464 -0.2253 -0.31095 0.37738 0.53025 0.13721 -0.062503 -0.28653 0.24207 0.28865 -0.40579 -0.28502 0.23983 -0.0671 0.38924 0.20497 0.10175 -0.17609 -0.17087 -0.17779 0.021387 0.031984 0.15962 0.074673 -0.24733 0.22232 -0.29214 0.45304 -0.0023003 0.17454 0.17113 -0.11657 -0.31641 0.21665 0.28006 -0.045544 0.01006 0.32732 0.10248 -0.3248 -0.0084315 -0.27312 0.32372 -0.12019 -0.16262 -0.11547 -0.041234 0.16229 -0.17126 -0.2102 
you -0.047038 0.32034 0.22261 0.16635 -0.078415 -0.11512 0.38192 0.043976 0.11344 0.020708 0.11642 -0.35725 0.18376 -0.33582 0.12689 0.084419 0.090217 -0.39408 0.10464 -0.39886 0.22525 0.19998 -0.25329 -0.24234 -0.14425 0.2233 0.20837 0.035565 0.094028 0.29113 0.20832 -0.024857 0.40189 0.091719 -0.28827 0.11822 -0.13117 0.258 -0.09107 0.14681 -0.17289 0.016256 0.35585 -0.082719 -0.15072 -0.49267 -0.26177 0.3243 0.0071941 0.2477 0.069969 -0.21652 -0.3056 0.36815 0.51708 0.13132 -0.061869 -0.28664 0.24387 0.27714 -0.3942 -0.2759 0.24136 -0.063404 0.38484 0.20253 0.097248 -0.17611 -0.16657 -0.17155 0.024052 0.026334 0.16114 0.075819 -0.24329 0.21943 -0.2822 0.43324 -0.0041435 0.17046 0.16315 -0.11601 -0.30709 0.20795 0.27395 -0.037824 0.010079 0.32074 0.10242 -0.3143 -0.0053376 -0.26299 0.31567 -0.11533 -0.15712 -0.11254 -0.050278 0.16334 -0.16736 -0.20148 
we -0.059419 0.38289 0.26802 0.20367 -0.097397 -0.13542 0.47036 0.050443 0.13467 0.021607 0.14423 -0.43391 0.22045 -0.41248 0.16068 0.10095 0.10015 -0.47735 0.1165 -0.4822 0.27448 0.24512 -0.29068 -0.28835 -0.17493 0.27423 0.24727 0.04264 0.11133 0.35192 0.25386 -0.026977 0.48402 0.12125 -0.34497 0.13729 -0.15401 0.31356 -0.10863 0.17196 -0.21394 0.022244 0.43158 -0.095272 -0.18785 -0.58756 -0.3134 0.39821 0.0061665 0.28941 0.092702 -0.26653 -0.37055 0.44594 0.62486 0.15983 -0.074425 -0.3402 0.28683 0.33427 -0.4762 -0.33715 0.28094 -0.08249 0.46417 0.235 0.11723 -0.20969 -0.20129 -0.21207 0.017679 0.039529 0.19006 0.089314 -0.28935 0.25978 -0.33863 0.53443 -0.00066559 0.20768 0.2033 -0.13516 -0.37073 0.25906 0.3281 -0.051841 0.013381 0.39261 0.1214 -0.37972 -0.004593 -0.31828 0.37787 -0.14792 -0.18911 -0.14007 -0.050517 0.20054 -0.19764 -0.24403 
great -0.04169 0.28854 0.19799 0.14793 -0.075718 -0.10453 0.34406 0.03832 0.10432 0.015476 0.10775 -0.31636 0.16422 -0.30313 0.11295 0.071694 0.078321 -0.35397 0.087575 -0.35563 0.20004 0.18566 -0.22167 -0.21216 -0.12622 0.20276 0.18374 0.03525 0.085269 0.26502 0.18612 -0.021857 0.35749 0.083722 -0.25608 0.10001 -0.11347 0.23272 -0.081078 0.13257 -0.15628 0.014912 0.32142 -0.074928 -0.13601 -0.4344 -0.23488 0.2986 0.0025918 0.21937 0.061477 -0.19627 -0.27096 0.32799 0.46321 0.11836 -0.051787 -0.2487 0.2136 0.24965 -0.35494 -0.24659 0.2114 -0.055517 0.34358 0.17904 0.086454 -0.1569 -0.15169 -0.15874 0.01782 0.028706 0.14363 0.065237 -0.21506 0.19869 -0.25405 0.38835 -0.0041575 0.1531 0.14697 -0.10322 -0.27601 0.18534 0.24319 -0.037487 0.0092619 0.29064 0.09139 -0.2849 -0.0065898 -0.23743 0.28018 -0.10599 -0.14357 -0.10169 -0.040474 0.14399 -0.1495 -0.18341 
that -0.046262 0.32485 0.21898 0.17044 -0.079694 -0.11789 0.38732 0.045614 0.10932 0.018974 0.12372 -0.36034 0.18316 -0.342 0.12961 0.081464 0.089031 -0.39823 0.1003 -0.40322 0.22425 0.20613 -0.2522 -0.24296 -0.14638 0.22773 0.2083 0.037018 0.095865 0.29763 0.21356 -0.022558 0.40392 0.09893 -0.2872 0.11467 -0.12961 0.26235 -0.088381 0.14303 -0.17246 0.020412 0.36074 -0.084169 -0.15565 -0.49486 -0.26668 0.33774 0.0072298 0.25023 0.074835 -0.22285 -0.30784 0.37239 0.52298 0.13285 -0.06256 -0.28535 0.23837 0.27991 -0.39888 -0.27891 0.24133 -0.063832 0.38458 0.20313 0.09832 -0.17554 -0.17228 -0.1784 0.021631 0.02927 0.16223 0.071526 -0.24428 0.22028 -0.29359 0.4387 -0.0018452 0.17237 0.16711 -0.11898 -0.31001 0.21245 0.27765 -0.041574 0.008963 0.32753 0.10052 -0.32058 -0.0068957 -0.27087 0.31469 -0.12002 -0.15832 -0.11905 -0.040629 0.16369 -0.16875 -0.20975 
not -0.054099 0.36296 0.25319 0.19351 -0.093104 -0.13128 0.43345 0.046038 0.12516 0.023758 0.14006 -0.40338 0.2076 -0.38512 0.14426 0.092114 0.10407 -0.44373 0.11189 -0.4524 0.25417 0.23421 -0.28052 -0.27225 -0.1615 0.25844 0.23071 0.043405 0.10252 0.33224 0.23612 -0.031026 0.45654 0.10241 -0.32294 0.12858 -0.14563 0.28728 -0.10209 0.16482 -0.19487 0.017305 0.40316 -0.095998 -0.17389 -0.54754 -0.2943 0.37121 0.0071091 0.27413 0.080774 -0.24829 -0.34674 0.41788 0.58351 0.14589 -0.070009 -0.31859 0.26978 0.31835 -0.44368 -0.31808 0.26608 -0.07087 0.43038 0.22388 0.11409 -0.19318 -0.19232 -0.19921 0.024686 0.033031 0.18063 0.085497 -0.27444 0.24513 -0.32438 0.49053 -0.0054073 0.18933 0.18358 -0.12967 -0.34584 0.24056 0.30851 -0.048053 0.010825 0.36343 0.11087 -0.36046 -0.0065045 -0.29844 0.35137 -0.13617 -0.1749 -0.12611 -0.047438 0.18187 -0.18535 -0.23625 
good -0.043162 0.28614 0.19509 0.14939 -0.067236 -0.10098 0.34232 0.038315 0.098038 0.014989 0.10749 -0.31322 0.16097 -0.29994 0.11112 0.06974 0.077686 -0.35074 0.082469 -0.35162 0.19957 0.18631 -0.22424 -0.21163 -0.12598 0.19872 0.17968 0.029932 0.084089 0.25994 0.18601 -0.021502 0.35387 0.086427 -0.24883 0.097902 -0.10905 0.225 -0.079348 0.12702 -0.15196 0.01345 0.31824 -0.072814 -0.13602 -0.43176 -0.23192 0.29417 0.0039999 0.21404 0.063878 -0.19585 -0.26954 0.32834 0.45862 0.11728 -0.049886 -0.24854 0.21138 0.24815 -0.34781 -0.24654 0.20922 -0.06043 0.3412 0.17609 0.086321 -0.15468 -0.14968 -0.15627 0.015451 0.028773 0.13537 0.064724 -0.21442 0.19478 -0.2522 0.38381 -0.0038292 0.15327 0.14559 -0.10265 -0.27333 0.18866 0.24417 -0.037699 0.0092315 0.28707 0.08607 -0.28052 -0.0066122 -0.23759 0.27843 -0.1063 -0.14389 -0.09989 -0.038343 0.14455 -0.14725 -0.18461 
my -0.053916 0.4017 0.26543 0.20621 -0.097401 -0.144 0.47674 0.053178 0.14216 0.031392 0.15098 -0.44056 0.22959 -0.42898 0.16174 0.10701 0.10783 -0.48868 0.12084 -0.50123 0.28288 0.25702 -0.31106 -0.30061 -0.17376 0.28361 0.25268 0.04496 0.12282 0.37091 0.25947 -0.034954 0.50084 0.1191 -0.35485 0.14263 -0.15697 0.31975 -0.11124 0.17783 -0.2155 0.01667 0.4476 -0.10384 -0.19239 -0.61507 -0.32707 0.41401 0.0068957 0.30639 0.092184 -0.276 -0.37777 0.46236 0.65202 0.17115 -0.071535 -0.35455 0.30024 0.34664 -0.48606 -0.34761 0.29244 -0.079227 0.48385 0.24665 0.1208 -0.21199 -0.21073 -0.22429 0.021579 0.048509 0.19649 0.092034 -0.2965 0.27082 -0.35629 0.54459 -0.0052262 0.21214 0.20234 -0.14537 -0.38342 0.26659 0.34536 -0.048917 0.012831 0.40295 0.1261 -0.39572 -0.0065821 -0.32844 0.38521 -0.15206 -0.19521 -0.1459 -0.05283 0.20669 -0.21075 -0.2571 
food#style_options -0.042584 0.30041 0.20445 0.15373 -0.074476 -0.11049 0.35817 0.040077 0.1044 0.019079 0.11181 -0.32878 0.16827 -0.31473 0.1177 0.075321 0.081967 -0.36688 0.089831 -0.37057 0.20874 0.19638 -0.23187 -0.21988 -0.13144 0.20804 0.19172 0.033013 0.085631 0.27489 0.19381 -0.021141 0.37228 0.090246 -0.26364 0.10302 -0.11953 0.23718 -0.084755 0.13263 -0.1595 0.017715 0.33224 -0.078097 -0.14329 -0.45276 -0.24214 0.31005 0.0049497 0.22377 0.067294 -0.20762 -0.28243 0.33964 0.47958 0.12474 -0.053888 -0.25811 0.21972 0.25685 -0.36923 -0.25983 0.22049 -0.0597 0.35732 0.18634 0.09092 -0.16034 -0.15568 -0.16697 0.019784 0.028103 0.14729 0.069474 -0.22539 0.20431 -0.26373 0.4081 -0.0055401 0.15996 0.15347 -0.10718 -0.28296 0.201 0.25305 -0.038275 0.0077913 0.30137 0.09363 -0.29629 -0.0092487 -0.2469 0.28924 -0.10968 -0.14963 -0.10719 -0.040308 0.15001 -0.15335 -0.19343 
have -0.047161 0.32979 0.22446 0.16875 -0.080617 -0.11835 0.39001 0.042436 0.11084 0.02097 0.11824 -0.36218 0.18591 -0.34603 0.13445 0.079983 0.088122 -0.39939 0.097945 -0.4091 0.22895 0.20781 -0.2543 -0.24247 -0.14084 0.22756 0.2064 0.032961 0.097924 0.29979 0.21097 -0.024967 0.41033 0.09685 -0.28708 0.11526 -0.13278 0.26199 -0.086911 0.14796 -0.17078 0.021765 0.35986 -0.084411 -0.15838 -0.49418 -0.26538 0.33893 0.0064336 0.24852 0.072045 -0.22413 -0.30931 0.37279 0.52602 0.13633 -0.058074 -0.28524 0.24299 0.28426 -0.39685 -0.27936 0.24167 -0.066136 0.3949 0.2036 0.10343 -0.17598 -0.17171 -0.18252 0.015153 0.035483 0.16174 0.074897 -0.24284 0.22415 -0.28693 0.44015 -0.0042219 0.17859 0.16658 -0.11801 -0.30552 0.22079 0.27837 -0.048355 0.011703 0.32699 0.10103 -0.31754 -0.0077947 -0.26688 0.31577 -0.11811 -0.15973 -0.12144 -0.045784 0.16851 -0.16961 -0.21053 
with -0.048495 0.32624 0.22227 0.16917 -0.081318 -0.11629 0.39129 0.039219 0.11355 0.021324 0.11991 -0.35878 0.18457 -0.3444 0.13121 0.082884 0.087162 -0.40207 0.095419 -0.40636 0.22739 0.20966 -0.25204 -0.24119 -0.14188 0.23101 0.20767 0.04032 0.093989 0.29409 0.21669 -0.024387 0.40617 0.095244 -0.28647 0.1159 -0.12774 0.26206 -0.090901 0.14671 -0.17259 0.015332 0.36075 -0.086337 -0.15112 -0.49605 -0.26513 0.33559 0.0059358 0.24432 0.074878 -0.22445 -0.30651 0.374 0.52312 0.13337 -0.06076 -0.28344 0.24031 0.27912 -0.39679 -0.28345 0.24011 -0.065058 0.38989 0.20044 0.099218 -0.17317 -0.16712 -0.18061 0.023335 0.029606 0.15691 0.075602 -0.24345 0.22382 -0.28687 0.44209 -0.0081616 0.17804 0.17188 -0.11519 -0.30798 0.21844 0.27899 -0.046483 0.0073172 0.33059 0.10431 -0.32189 -0.0039182 -0.26332 0.31477 -0.11908 -0.16023 -0.11552 -0.043515 0.16313 -0.1647 -0.21073 
on -0.068566 0.44584 0.30405 0.23293 -0.11154 -0.17141 0.53604 0.062551 0.16008 0.022542 0.1729 -0.4997 0.25127 -0.47514 0.17943 0.11645 0.12631 -0.5546 0.13541 -0.55999 0.31414 0.28588 -0.34728 -0.32942 -0.19594 0.30734 0.28607 0.050411 0.13424 0.41171 0.29021 -0.03509 0.55712 0.13279 -0.39392 0.16108 -0.17801 0.35406 -0.11948 0.19557 -0.24138 0.021715 0.49648 -0.11698 -0.21157 -0.67834 -0.35887 0.46283 0.012412 0.34773 0.10566 -0.31114 -0.4162 0.51781 0.719 0.18895 -0.083236 -0.39435 0.33262 0.38407 -0.54091 -0.38638 0.32727 -0.083235 0.53612 0.27058 0.13591 -0.23946 -0.23995 -0.24685 0.033139 0.045503 0.21716 0.10056 -0.33833 0.30237 -0.39548 0.61601 -0.010041 0.2432 0.22508 -0.16088 -0.42897 0.29514 0.38823 -0.061857 0.018428 0.4503 0.13803 -0.43725 -0.0097894 -0.36662 0.43715 -0.16497 -0.21761 -0.15727 -0.063346 0.2259 -0.22512 -0.28918 
are -0.053173 0.36246 0.24404 0.18382 -0.094224 -0.12787 0.42669 0.045611 0.12097 0.020338 0.13739 -0.40307 0.2041 -0.38036 0.14286 0.087781 0.09993 -0.44144 0.11427 -0.44383 0.25138 0.23031 -0.28174 -0.26719 -0.16023 0.25198 0.23066 0.037304 0.10547 0.3317 0.23211 -0.025213 0.44585 0.10257 -0.31952 0.12508 -0.1411 0.28765 -0.099746 0.16153 -0.19072 0.017765 0.39869 -0.094037 -0.17261 -0.5421 -0.29634 0.37093 0.0059163 0.27201 0.081526 -0.24846 -0.3456 0.40997 0.57508 0.14415 -0.065772 -0.31754 0.26783 0.31182 -0.44235 -0.30922 0.26223 -0.071552 0.43133 0.22498 0.11215 -0.20025 -0.18616 -0.19761 0.021709 0.034672 0.1756 0.086314 -0.27371 0.24293 -0.3167 0.48992 -0.006982 0.19119 0.18252 -0.12686 -0.34396 0.23847 0.30812 -0.044638 0.014403 0.36142 0.11834 -0.35556 -0.0075935 -0.2991 0.34645 -0.13284 -0.17441 -0.12383 -0.04941 0.18403 -0.18699 -0.22845 
had -0.049538 0.32656 0.22148 0.17008 -0.082905 -0.11992 0.39009 0.037751 0.11003 0.020166 0.12673 -0.36657 0.18611 -0.34489 0.13374 0.081005 0.089449 -0.40591 0.097966 -0.40904 0.23219 0.20705 -0.25226 -0.24676 -0.14024 0.23291 0.20356 0.039069 0.097578 0.30155 0.20887 -0.018335 0.41415 0.10134 -0.2881 0.11505 -0.13198 0.26502 -0.091271 0.14886 -0.17583 0.016307 0.35996 -0.086026 -0.15924 -0.49604 -0.267 0.33519 0.0077594 0.24911 0.076848 -0.22443 -0.3104 0.38127 0.52865 0.13498 -0.056617 -0.28717 0.24003 0.28522 -0.39984 -0.28468 0.24323 -0.065587 0.39597 0.20247 0.10056 -0.17533 -0.17332 -0.18757 0.021496 0.038356 0.16354 0.073958 -0.24522 0.22429 -0.28455 0.4457 -0.0053696 0.17293 0.16607 -0.12065 -0.3107 0.21538 0.28187 -0.04624 0.0049637 0.33204 0.10189 -0.32496 -0.010301 -0.26508 0.31989 -0.12374 -0.1636 -0.11492 -0.043517 0.16307 -0.16762 -0.21301 
were -0.048251 0.3191 0.21591 0.16786 -0.083088 -0.11731 0.38495 0.0429 0.11454 0.018664 0.11849 -0.35581 0.1822 -0.3431 0.12801 0.081412 0.085369 -0.39305 0.094438 -0.39608 0.22689 0.2072 -0.24532 -0.24146 -0.14394 0.22524 0.20105 0.034699 0.089267 0.29314 0.20882 -0.022165 0.40062 0.094691 -0.28393 0.11277 -0.12875 0.25658 -0.086975 0.14638 -0.1728 0.013767 0.35942 -0.082729 -0.15587 -0.48291 -0.26036 0.32886 0.0044311 0.24368 0.072203 -0.22217 -0.30361 0.3661 0.51566 0.12761 -0.063204 -0.28179 0.23756 0.2734 -0.39262 -0.28084 0.23466 -0.064382 0.38423 0.19941 0.10018 -0.1712 -0.16614 -0.17599 0.017355 0.031183 0.15959 0.074839 -0.23862 0.21681 -0.28258 0.43677 -0.0047084 0.16869 0.16182 -0.11586 -0.30383 0.21661 0.27368 -0.041596 0.0093906 0.32083 0.098298 -0.30925 -0.0039241 -0.26467 0.31119 -0.12211 -0.15781 -0.11409 -0.045115 0.16992 -0.16771 -0.20468 
very -0.042957 0.31325 0.21277 0.16171 -0.079275 -0.11255 0.37258 0.042868 0.10815 0.018754 0.11934 -0.34401 0.17507 -0.3323 0.12501 0.077458 0.08204 -0.38288 0.097103 -0.38309 0.21998 0.20087 -0.24244 -0.23312 -0.1367 0.21952 0.19855 0.038095 0.089511 0.28879 0.20326 -0.022437 0.38964 0.091335 -0.27453 0.10958 -0.12121 0.25135 -0.086398 0.13781 -0.1681 0.018936 0.3456 -0.078804 -0.15006 -0.47326 -0.25324 0.31717 0.0041117 0.23192 0.068622 -0.21467 -0.29616 0.3593 0.50329 0.1264 -0.0597 -0.27317 0.22723 0.26761 -0.37924 -0.27139 0.23337 -0.06041 0.37059 0.19492 0.095292 -0.16773 -0.16177 -0.17254 0.019958 0.034268 0.15617 0.070682 -0.23396 0.21097 -0.27649 0.4266 -0.0027796 0.16752 0.1562 -0.10874 -0.29816 0.20596 0.26388 -0.042088 0.0094153 0.31306 0.097197 -0.30589 -0.010111 -0.25763 0.30335 -0.12071 -0.15207 -0.10976 -0.045585 0.1578 -0.1602 -0.20245 
so -0.060949 0.38833 0.26204 0.20214 -0.09771 -0.13497 0.46756 0.051829 0.13343 0.02262 0.15056 -0.43046 0.21882 -0.40869 0.15802 0.094777 0.10668 -0.47538 0.11661 -0.48336 0.26862 0.24873 -0.30002 -0.28841 -0.16806 0.26933 0.24244 0.041811 0.11354 0.35407 0.25054 -0.029418 0.4751 0.1166 -0.34238 0.13154 -0.15347 0.31355 -0.1024 0.17368 -0.20693 0.017509 0.43312 -0.10467 -0.18567 -0.58467 -0.30869 0.39297 0.0072534 0.29504 0.090652 -0.26473 -0.3701 0.44519 0.62308 0.15983 -0.074101 -0.3431 0.28466 0.33541 -0.47398 -0.33909 0.28367 -0.07475 0.45681 0.24065 0.11804 -0.21127 -0.20628 -0.213 0.021769 0.042147 0.19476 0.089731 -0.29057 0.26345 -0.34617 0.51927 -0.0041188 0.19901 0.19803 -0.13295 -0.36431 0.25082 0.33138 -0.053118 0.0097584 0.39294 0.12309 -0.38387 -0.0042908 -0.31777 0.37625 -0.14143 -0.18776 -0.142 -0.053937 0.19814 -0.20547 -0.24929 
they -0.043112 0.29053 0.19614 0.151 -0.074061 -0.10776 0.34796 0.042446 0.10318 0.01656 0.10995 -0.31871 0.16689 -0.30434 0.12043 0.073493 0.081023 -0.35519 0.088458 -0.3623 0.20282 0.18509 -0.22343 -0.21434 -0.13217 0.20305 0.18684 0.032919 0.086982 0.26579 0.18861 -0.017283 0.35651 0.087359 -0.25459 0.1028 -0.11678 0.23074 -0.079687 0.13312 -0.15211 0.014508 0.32537 -0.072801 -0.13803 -0.43799 -0.23491 0.30294 0.0056815 0.22236 0.065792 -0.20256 -0.27032 0.33352 0.46462 0.11587 -0.053656 -0.24955 0.21274 0.24983 -0.35668 -0.25039 0.20897 -0.057246 0.3476 0.18096 0.085644 -0.1572 -0.14935 -0.15991 0.018127 0.023344 0.144 0.068473 -0.21971 0.19672 -0.25787 0.39243 -0.0051914 0.15323 0.14761 -0.10492 -0.27737 0.1892 0.24475 -0.039571 0.0097426 0.29213 0.089811 -0.28357 -0.0062648 -0.236 0.28219 -0.10973 -0.14064 -0.10559 -0.036637 0.14547 -0.15128 -0.18438 
at -0.047016 0.32615 0.22965 0.17279 -0.082937 -0.11492 0.39871 0.04567 0.11865 0.01654 0.1293 -0.36591 0.1882 -0.35465 0.1335 0.088434 0.090341 -0.41125 0.10155 -0.4098 0.23336 0.20799 -0.26101 -0.2435 -0.14427 0.23247 0.20746 0.038523 0.10031 0.3095 0.22366 -0.026792 0.41069 0.099055 -0.29645 0.12284 -0.13085 0.26873 -0.093207 0.14885 -0.17758 0.022802 0.37107 -0.093178 -0.1573 -0.50807 -0.27101 0.3409 0.0094668 0.25342 0.072111 -0.22371 -0.31604 0.38311 0.53527 0.143 -0.061915 -0.29225 0.24163 0.28884 -0.40721 -0.28949 0.24935 -0.069987 0.39388 0.2045 0.10217 -0.17831 -0.17453 -0.18378 0.015418 0.030251 0.16956 0.073772 -0.2494 0.2322 -0.29686 0.44963 -0.0036721 0.17635 0.16775 -0.1237 -0.31844 0.21914 0.28256 -0.042993 0.0096009 0.33545 0.10272 -0.32817 -0.0064051 -0.2769 0.32592 -0.12488 -0.16236 -0.11446 -0.048835 0.17058 -0.1738 -0.21956 
be -0.057157 0.40117 0.28316 0.20921 -0.10225 -0.14026 0.485 0.05986 0.1443 0.024907 0.15766 -0.4475 0.23435 -0.43268 0.16157 0.10405 0.11368 -0.49586 0.12707 -0.50492 0.28189 0.26031 -0.30976 -0.30462 -0.17658 0.28675 0.26067 0.046089 0.11386 0.37341 0.26764 -0.026871 0.50172 0.12178 -0.36267 0.14385 -0.163 0.32324 -0.1108 0.18882 -0.22142 0.018298 0.45469 -0.10412 -0.19271 -0.61629 -0.32801 0.41957 0.011303 0.31436 0.099532 -0.2747 -0.38079 0.46736 0.65226 0.16612 -0.076503 -0.35613 0.30002 0.35297 -0.49466 -0.3539 0.29911 -0.085357 0.49132 0.24605 0.11956 -0.21633 -0.21483 -0.22221 0.027244 0.033906 0.20197 0.092856 -0.30306 0.27926 -0.36232 0.54737 -0.0044775 0.21835 0.21134 -0.14807 -0.39226 0.26901 0.35022 -0.053684 0.011744 0.40369 0.12929 -0.39923 -0.0089677 -0.33214 0.39126 -0.14306 -0.19333 -0.14653 -0.053251 0.20019 -0.21667 -0.2581 
restaurant#miscellaneous -0.039877 0.28695 0.19926 0.14844 -0.072292 -0.10398 0.3431 0.036266 0.10057 0.020159 0.1082 -0.31886 0.16442 -0.30323 0.11589 0.070613 0.078098 -0.35398 0.086642 -0.35851 0.20239 0.18332 -0.22211 -0.21476 -0.12529 0.20329 0.18288 0.032709 0.085394 0.26485 0.18898 -0.0202 0.35978 0.085662 -0.25862 0.10299 -0.11367 0.23243 -0.079668 0.1306 -0.15487 0.013793 0.32086 -0.075765 -0.13642 -0.43914 -0.23395 0.29592 0.006444 0.22147 0.063673 -0.19638 -0.27358 0.33118 0.46601 0.11769 -0.053439 -0.25428 0.21323 0.24921 -0.35298 -0.2503 0.21222 -0.056745 0.34401 0.17719 0.088904 -0.15675 -0.15147 -0.15819 0.018662 0.029704 0.14291 0.064708 -0.2155 0.195 -0.25503 0.39131 -0.0042869 0.15357 0.14855 -0.10102 -0.27506 0.19043 0.24738 -0.039047 0.00831 0.2907 0.090708 -0.28445 -0.007168 -0.23684 0.27779 -0.10592 -0.13876 -0.10456 -0.03995 0.14814 -0.15057 -0.18762 
there -0.052964 0.34787 0.23292 0.17762 -0.090681 -0.12684 0.41546 0.047194 0.1239 0.019725 0.13011 -0.37943 0.19581 -0.366 0.13945 0.087137 0.094003 -0.42388 0.10202 -0.42877 0.24462 0.22337 -0.2655 -0.26008 -0.15241 0.24181 0.21918 0.039206 0.10125 0.31525 0.22107 -0.021849 0.42817 0.098086 -0.3073 0.11953 -0.13796 0.27916 -0.094409 0.15887 -0.18281 0.017038 0.38365 -0.092802 -0.16679 -0.52558 -0.28067 0.35623 0.0087233 0.26628 0.080467 -0.23871 -0.32518 0.3946 0.5551 0.13928 -0.065863 -0.30102 0.25508 0.29816 -0.42133 -0.29612 0.25309 -0.074968 0.41298 0.21713 0.10514 -0.1859 -0.17851 -0.19252 0.023765 0.033366 0.17124 0.079556 -0.25855 0.23429 -0.30199 0.47068 -0.00641 0.18523 0.17886 -0.12753 -0.32894 0.22686 0.29667 -0.047282 0.0098095 0.34689 0.10619 -0.3383 -0.0045385 -0.2867 0.33737 -0.12827 -0.16696 -0.12432 -0.0495 0.17921 -0.17914 -0.22438 
all -0.06199 0.4012 0.27956 0.20936 -0.10228 -0.14933 0.48516 0.053615 0.14056 0.029664 0.15622 -0.44712 0.22891 -0.4317 0.16561 0.10304 0.11318 -0.49707 0.12073 -0.5088 0.2845 0.26068 -0.30752 -0.30145 -0.17823 0.28516 0.25729 0.049407 0.12163 0.37029 0.26479 -0.027438 0.50362 0.12338 -0.35812 0.14628 -0.16098 0.32862 -0.11361 0.17917 -0.21547 0.023006 0.44907 -0.10519 -0.19302 -0.61972 -0.3271 0.41725 0.01272 0.30689 0.085527 -0.27453 -0.38156 0.46315 0.65521 0.16603 -0.073102 -0.35928 0.29615 0.3471 -0.50064 -0.35334 0.30107 -0.080769 0.48427 0.24831 0.12213 -0.21906 -0.20863 -0.22056 0.028265 0.042405 0.19893 0.096248 -0.30736 0.27535 -0.35863 0.55054 -0.01034 0.21591 0.20883 -0.14389 -0.39033 0.26729 0.35372 -0.051681 0.013574 0.40782 0.12616 -0.39918 -0.011108 -0.33822 0.39442 -0.15014 -0.19703 -0.14698 -0.058259 0.20831 -0.20928 -0.25971 
food#prices -0.039752 0.28406 0.19755 0.14694 -0.068772 -0.10226 0.34058 0.03565 0.095866 0.017826 0.10465 -0.31185 0.15871 -0.29692 0.10851 0.067471 0.078072 -0.34819 0.087377 -0.34675 0.19892 0.18883 -0.22066 -0.20668 -0.12695 0.19953 0.18258 0.029095 0.084189 0.26374 0.18495 -0.021084 0.35556 0.085682 -0.24635 0.095485 -0.11426 0.22304 -0.082313 0.12597 -0.15227 0.014304 0.31164 -0.074541 -0.13677 -0.42715 -0.23106 0.29565 0.0044772 0.21304 0.060268 -0.19721 -0.26928 0.32523 0.45717 0.11962 -0.052123 -0.24493 0.20427 0.24622 -0.35371 -0.24771 0.21005 -0.057821 0.33782 0.17725 0.087166 -0.15322 -0.14906 -0.15861 0.018266 0.024598 0.13648 0.068074 -0.21507 0.19746 -0.25063 0.38609 -0.0041633 0.15215 0.14548 -0.10311 -0.27095 0.19311 0.2403 -0.033807 0.010339 0.28156 0.088544 -0.28211 -0.0081381 -0.23293 0.27217 -0.10746 -0.14227 -0.10398 -0.037774 0.141 -0.14623 -0.18169 
go -0.050658 0.29381 0.2058 0.15573 -0.074121 -0.10772 0.35843 0.044434 0.09534 0.015887 0.11317 -0.32441 0.16995 -0.32422 0.12454 0.06835 0.079493 -0.3685 0.084621 -0.37032 0.21491 0.19165 -0.22764 -0.21889 -0.1263 0.20782 0.18989 0.027281 0.089474 0.27068 0.19994 -0.019796 0.36723 0.091978 -0.26388 0.10921 -0.11286 0.23489 -0.080996 0.13795 -0.15527 0.014734 0.33535 -0.076513 -0.14145 -0.45506 -0.24452 0.30206 0.0060919 0.23808 0.064741 -0.20255 -0.28292 0.34521 0.48898 0.11995 -0.052395 -0.26481 0.22495 0.25791 -0.35909 -0.26484 0.2267 -0.062684 0.35916 0.18411 0.08701 -0.16352 -0.15499 -0.16298 0.016765 0.032241 0.14174 0.068233 -0.22738 0.20336 -0.26735 0.40388 -0.0088223 0.15625 0.16025 -0.10379 -0.28638 0.19877 0.25499 -0.037171 0.005051 0.30589 0.092562 -0.28838 -0.0053047 -0.2502 0.28844 -0.1145 -0.14618 -0.10855 -0.042421 0.14928 -0.15669 -0.19498 
best -0.049272 0.31723 0.22323 0.16144 -0.07943 -0.11256 0.38102 0.038886 0.11122 0.020995 0.11897 -0.35858 0.18016 -0.3373 0.12892 0.081078 0.091833 -0.39446 0.10063 -0.39843 0.22785 0.20546 -0.25186 -0.23651 -0.1403 0.22644 0.20405 0.036529 0.094318 0.29331 0.21182 -0.02442 0.40361 0.099014 -0.28557 0.1151 -0.1225 0.25982 -0.085937 0.1429 -0.16981 0.018482 0.35745 -0.084379 -0.15276 -0.4885 -0.25735 0.32854 0.00092691 0.24795 0.06953 -0.22185 -0.30184 0.36853 0.51636 0.13276 -0.057569 -0.28129 0.23811 0.27503 -0.39657 -0.28211 0.23181 -0.061192 0.38718 0.19758 0.098141 -0.17974 -0.17005 -0.1774 0.021491 0.034388 0.15843 0.069159 -0.2422 0.21371 -0.28531 0.43663 -0.0052007 0.168 0.16849 -0.11647 -0.30767 0.20963 0.27733 -0.043877 0.007917 0.32552 0.10406 -0.31651 -0.0077746 -0.26234 0.30413 -0.1153 -0.15669 -0.11201 -0.044294 0.16499 -0.17241 -0.20656 
restaurant#prices -0.039636 0.2857 0.20116 0.14818 -0.06937 -0.10376 0.34376 0.035871 0.0983 0.018949 0.10852 -0.3183 0.1638 -0.30259 0.11363 0.070184 0.078324 -0.35499 0.088939 -0.3558 0.20257 0.1862 -0.22312 -0.21277 -0.12634 0.20192 0.18548 0.031283 0.0869 0.26606 0.18968 -0.021091 0.36207 0.086816 -0.25702 0.10165 -0.11379 0.23094 -0.081522 0.12881 -0.15402 0.01244 0.32017 -0.077439 -0.13693 -0.43727 -0.23436 0.29645 0.0053167 0.22197 0.061471 -0.19816 -0.27483 0.33364 0.46704 0.11903 -0.053425 -0.25287 0.21085 0.2497 -0.35533 -0.25214 0.21466 -0.056716 0.34495 0.17854 0.089657 -0.1566 -0.15286 -0.15909 0.017825 0.027521 0.14184 0.066544 -0.21682 0.19743 -0.25697 0.3909 -0.0043157 0.15442 0.14931 -0.10217 -0.27684 0.19277 0.2472 -0.037402 0.0075474 0.28915 0.091297 -0.28686 -0.0077114 -0.23771 0.27817 -0.10773 -0.14205 -0.10616 -0.039558 0.14607 -0.15086 -0.18762 
as -0.055048 0.36076 0.24403 0.18508 -0.091905 -0.13083 0.42765 0.044066 0.12792 0.025165 0.13442 -0.39905 0.20989 -0.37425 0.14414 0.091654 0.10445 -0.44542 0.10854 -0.44567 0.25152 0.22746 -0.2796 -0.26557 -0.16053 0.25584 0.22686 0.038652 0.10519 0.3277 0.23061 -0.023762 0.44113 0.10846 -0.32018 0.12026 -0.14241 0.28988 -0.10432 0.15958 -0.19359 0.021706 0.39544 -0.085819 -0.17683 -0.54396 -0.28923 0.36778 0.012781 0.26832 0.07937 -0.24724 -0.34081 0.41021 0.57863 0.14827 -0.064415 -0.31488 0.26663 0.30506 -0.43276 -0.30773 0.2553 -0.068288 0.43018 0.22382 0.11046 -0.18958 -0.18516 -0.19758 0.018077 0.036121 0.17332 0.083823 -0.26894 0.24194 -0.32042 0.4921 -0.0037793 0.19108 0.1795 -0.12439 -0.34227 0.24212 0.30238 -0.054196 0.0091852 0.35571 0.11199 -0.35172 -0.0073692 -0.29 0.34691 -0.12828 -0.17561 -0.12665 -0.05434 0.18102 -0.18527 -0.23129 
one -0.055446 0.37221 0.25729 0.19605 -0.09403 -0.14049 0.44592 0.04866 0.13103 0.024508 0.14596 -0.41487 0.2106 -0.39132 0.14852 0.091973 0.10648 -0.45955 0.11315 -0.47078 0.25825 0.23892 -0.28825 -0.27359 -0.16462 0.25927 0.24158 0.042154 0.11444 0.34371 0.24491 -0.026484 0.46472 0.11072 -0.3292 0.13533 -0.14914 0.29938 -0.10532 0.16364 -0.20165 0.015794 0.41537 -0.095344 -0.17638 -0.56738 -0.30441 0.3835 0.011769 0.28578 0.084749 -0.25491 -0.34968 0.42916 0.59764 0.15758 -0.068543 -0.32811 0.27638 0.32075 -0.4564 -0.32238 0.27303 -0.07424 0.45166 0.22943 0.11696 -0.20359 -0.19639 -0.20619 0.02435 0.037472 0.18213 0.084945 -0.28103 0.24836 -0.33157 0.51074 -0.0049974 0.20106 0.19025 -0.13144 -0.35642 0.25001 0.32062 -0.051829 0.0099602 0.37359 0.11736 -0.36827 -0.0099331 -0.30546 0.36656 -0.13413 -0.18152 -0.13519 -0.054147 0.19324 -0.19275 -0.24092 
if -0.036028 0.23824 0.16266 0.12706 -0.066356 -0.092056 0.28413 0.032027 0.079422 0.016039 0.089489 -0.26873 0.13667 -0.25798 0.09766 0.064711 0.06187 -0.30101 0.073709 -0.30184 0.16352 0.15495 -0.18851 -0.17705 -0.11049 0.17256 0.15721 0.028067 0.07152 0.22269 0.15497 -0.021248 0.29959 0.071834 -0.22013 0.087897 -0.09766 0.19282 -0.069681 0.10647 -0.13533 0.012385 0.26765 -0.066795 -0.11841 -0.37159 -0.19666 0.24811 0.0041769 0.19229 0.057877 -0.16726 -0.22695 0.27587 0.39238 0.10071 -0.044692 -0.21255 0.17835 0.20911 -0.29695 -0.20527 0.17765 -0.049496 0.28833 0.15196 0.076184 -0.13005 -0.12322 -0.12898 0.014897 0.023006 0.11947 0.053599 -0.18651 0.16475 -0.21359 0.32292 -0.0030396 0.12547 0.12348 -0.089128 -0.23011 0.15779 0.20975 -0.034412 0.007444 0.24755 0.072561 -0.23436 -0.0081679 -0.20226 0.23223 -0.087273 -0.11611 -0.082714 -0.036651 0.12076 -0.1294 -0.15327 
like -0.044274 0.28034 0.19578 0.14709 -0.073817 -0.10319 0.3341 0.037149 0.094953 0.017172 0.10624 -0.3106 0.1615 -0.29517 0.11468 0.073044 0.077958 -0.34588 0.081828 -0.35273 0.19362 0.17883 -0.21793 -0.21332 -0.12249 0.19889 0.17862 0.033716 0.085377 0.25865 0.17752 -0.019487 0.34787 0.081881 -0.24722 0.098417 -0.11168 0.22399 -0.080275 0.12418 -0.14975 0.013535 0.31134 -0.07493 -0.13613 -0.42557 -0.22701 0.28984 0.0063348 0.2125 0.061862 -0.19634 -0.26957 0.32236 0.45204 0.11861 -0.05223 -0.24394 0.20489 0.24466 -0.34593 -0.24052 0.2053 -0.056781 0.3361 0.17622 0.084963 -0.15036 -0.14398 -0.15472 0.018 0.025785 0.13903 0.062877 -0.21248 0.18905 -0.25027 0.37929 -0.006634 0.14977 0.14409 -0.10078 -0.26558 0.18807 0.23897 -0.036926 0.010346 0.28299 0.088241 -0.27926 -0.0062767 -0.22921 0.27276 -0.10172 -0.13237 -0.10161 -0.039006 0.14463 -0.14476 -0.18027 
our -0.054131 0.34942 0.23221 0.18077 -0.08847 -0.1246 0.41586 0.041999 0.11525 0.01773 0.12542 -0.38612 0.19527 -0.36556 0.13481 0.08808 0.096252 -0.42603 0.10617 -0.42864 0.23751 0.2232 -0.26493 -0.26019 -0.14722 0.24132 0.21814 0.038726 0.10211 0.31802 0.2266 -0.024158 0.43339 0.10235 -0.30724 0.12432 -0.13381 0.27087 -0.091312 0.15485 -0.18662 0.017948 0.38725 -0.086324 -0.16812 -0.5206 -0.27685 0.35285 0.0021067 0.26262 0.078506 -0.24127 -0.32706 0.39714 0.5557 0.13769 -0.066891 -0.30098 0.25102 0.30027 -0.42026 -0.29728 0.24808 -0.070968 0.40651 0.21671 0.10162 -0.18191 -0.17545 -0.18932 0.022233 0.032191 0.17092 0.083401 -0.26438 0.2313 -0.30552 0.4698 -0.0072448 0.18305 0.17603 -0.12479 -0.32334 0.22808 0.29155 -0.045077 0.0090783 0.34846 0.10938 -0.33663 -0.0043557 -0.28053 0.33893 -0.12761 -0.16857 -0.11993 -0.046655 0.17706 -0.18084 -0.21821 
back -0.04188 0.27322 0.19174 0.14159 -0.069325 -0.099954 0.33367 0.035823 0.090732 0.010728 0.10495 -0.30532 0.156 -0.29796 0.1094 0.070014 0.07689 -0.34122 0.084395 -0.34571 0.19081 0.17897 -0.2092 -0.20511 -0.12262 0.19715 0.1739 0.031204 0.083754 0.25485 0.18334 -0.021418 0.34837 0.084138 -0.24457 0.09913 -0.10684 0.22042 -0.074627 0.12606 -0.14968 0.013026 0.31205 -0.073674 -0.13567 -0.42037 -0.228 0.27986 0.011566 0.21051 0.062952 -0.18824 -0.25834 0.31552 0.45052 0.11142 -0.048643 -0.24629 0.20328 0.23773 -0.33895 -0.24338 0.20623 -0.051229 0.3317 0.17288 0.086512 -0.14682 -0.1445 -0.1526 0.018638 0.028082 0.1357 0.063641 -0.20458 0.18863 -0.24919 0.37648 -0.0061845 0.14205 0.14702 -0.09734 -0.26401 0.18268 0.23676 -0.039974 0.008101 0.27845 0.087556 -0.26981 -0.0058674 -0.22816 0.27282 -0.10198 -0.13177 -0.099565 -0.036101 0.14093 -0.14477 -0.18338 
or -0.052544 0.36931 0.25109 0.19709 -0.09113 -0.12794 0.44317 0.049447 0.13054 0.025443 0.14151 -0.40682 0.21479 -0.38826 0.14608 0.090335 0.1085 -0.45185 0.10936 -0.46455 0.26229 0.2412 -0.28153 -0.27656 -0.15934 0.25849 0.23553 0.042188 0.10724 0.34617 0.24791 -0.031194 0.46247 0.11044 -0.33444 0.13693 -0.14508 0.29547 -0.10342 0.17199 -0.19873 0.021322 0.41423 -0.097278 -0.17873 -0.56798 -0.30372 0.37892 0.0074395 0.28727 0.088779 -0.25787 -0.3548 0.4308 0.59487 0.15706 -0.06827 -0.32611 0.27456 0.32449 -0.4507 -0.32454 0.26844 -0.073803 0.43875 0.22738 0.10856 -0.20069 -0.19666 -0.2056 0.023286 0.036396 0.18617 0.092263 -0.27882 0.25365 -0.33017 0.5012 -0.014227 0.19556 0.18481 -0.13332 -0.35206 0.24298 0.31746 -0.052729 0.011309 0.37719 0.11296 -0.36921 -0.0072932 -0.30746 0.36309 -0.14106 -0.17748 -0.13062 -0.051521 0.18273 -0.19183 -0.23841 
time -0.049833 0.33542 0.23394 0.17588 -0.087599 -0.12276 0.40459 0.045423 0.1161 0.020645 0.12524 -0.37147 0.19273 -0.35716 0.13908 0.082479 0.090767 -0.4134 0.098554 -0.4198 0.23347 0.21083 -0.26064 -0.25455 -0.14614 0.23654 0.21315 0.035769 0.09815 0.31266 0.21845 -0.021997 0.41978 0.10248 -0.29894 0.12195 -0.13158 0.26676 -0.090805 0.15018 -0.17969 0.018345 0.37659 -0.087924 -0.16342 -0.51654 -0.27175 0.34124 0.0061979 0.25756 0.076774 -0.22937 -0.31674 0.38517 0.54417 0.13973 -0.063883 -0.29676 0.24875 0.28943 -0.41073 -0.29009 0.2503 -0.069706 0.40179 0.21208 0.10358 -0.17837 -0.17302 -0.18473 0.019965 0.036669 0.1655 0.078055 -0.25181 0.23071 -0.29998 0.45803 -0.0044371 0.17663 0.17039 -0.11791 -0.3192 0.22221 0.28907 -0.047894 0.0076573 0.34102 0.10353 -0.33065 -0.0054045 -0.27693 0.32358 -0.12084 -0.16574 -0.11919 -0.045771 0.17205 -0.17579 -0.21568 
place -0.044399 0.30599 0.21031 0.15654 -0.075997 -0.11169 0.36157 0.037289 0.10859 0.019899 0.11553 -0.33669 0.17465 -0.3189 0.12095 0.075686 0.087014 -0.37218 0.090264 -0.37788 0.21068 0.19644 -0.23552 -0.22439 -0.13374 0.2146 0.19449 0.035695 0.091438 0.2814 0.19943 -0.020902 0.38155 0.092662 -0.2711 0.10716 -0.1197 0.24201 -0.085534 0.13827 -0.16202 0.012567 0.33933 -0.080757 -0.14045 -0.46396 -0.2486 0.31305 0.0060512 0.23258 0.067419 -0.20717 -0.28394 0.35146 0.48924 0.1244 -0.059377 -0.27085 0.22348 0.26107 -0.37264 -0.26143 0.22237 -0.060242 0.36329 0.18901 0.091195 -0.16078 -0.16086 -0.16818 0.022536 0.031256 0.15084 0.069093 -0.22996 0.20521 -0.27222 0.40837 -0.0013996 0.1604 0.15587 -0.107 -0.29215 0.2011 0.25892 -0.034663 0.0069214 0.30593 0.094541 -0.30139 -0.007756 -0.251 0.29176 -0.10925 -0.14799 -0.10808 -0.040595 0.15735 -0.16008 -0.19554 
their -0.045855 0.27663 0.18881 0.14145 -0.071843 -0.10097 0.33189 0.036993 0.09802 0.017675 0.10887 -0.30582 0.15889 -0.29354 0.11303 0.068889 0.076108 -0.341 0.084237 -0.34763 0.19564 0.1786 -0.21667 -0.20687 -0.12278 0.19749 0.17809 0.031275 0.083442 0.25194 0.1816 -0.019859 0.34299 0.081126 -0.2459 0.099251 -0.1128 0.22145 -0.079414 0.12671 -0.14552 0.014673 0.30903 -0.07398 -0.13156 -0.42164 -0.22763 0.28568 0.0045145 0.2131 0.064331 -0.19131 -0.26066 0.3149 0.44556 0.11421 -0.049461 -0.2413 0.20366 0.23909 -0.34244 -0.24008 0.20356 -0.059246 0.33292 0.17432 0.083521 -0.15011 -0.14699 -0.1525 0.019379 0.026653 0.13547 0.06116 -0.21029 0.18786 -0.24434 0.37609 -0.0090885 0.14824 0.1384 -0.098953 -0.2675 0.18662 0.23557 -0.036736 0.011159 0.27943 0.085664 -0.27374 -0.0059714 -0.22862 0.26948 -0.10122 -0.13747 -0.099316 -0.040591 0.14096 -0.14321 -0.17832 
would -0.049684 0.33073 0.22545 0.17343 -0.082885 -0.12119 0.39666 0.044107 0.11486 0.016131 0.12708 -0.36998 0.18959 -0.35556 0.13465 0.082013 0.091368 -0.40953 0.099152 -0.41615 0.23205 0.213 -0.26224 -0.24989 -0.14498 0.23571 0.21352 0.039342 0.098423 0.30535 0.21414 -0.02461 0.41551 0.098035 -0.29617 0.12019 -0.13294 0.26876 -0.093283 0.15282 -0.1784 0.014796 0.37218 -0.089266 -0.16166 -0.50725 -0.27313 0.33969 0.011769 0.25128 0.076043 -0.22834 -0.31771 0.38394 0.54082 0.13613 -0.060766 -0.29462 0.24937 0.29057 -0.40752 -0.28954 0.24299 -0.062689 0.39308 0.20646 0.10324 -0.17675 -0.17634 -0.18321 0.020266 0.035397 0.16443 0.079181 -0.25223 0.22496 -0.29684 0.45286 -0.0061629 0.17737 0.16891 -0.1189 -0.31636 0.22187 0.28577 -0.047896 0.0075757 0.33565 0.1025 -0.33013 -0.0068005 -0.27445 0.32266 -0.12296 -0.16496 -0.12038 -0.044398 0.16854 -0.17249 -0.21648 
– -0.034283 0.21804 0.14938 0.11753 -0.050451 -0.079958 0.2482 0.029243 0.072616 0.0053504 0.082484 -0.23457 0.11655 -0.22217 0.077114 0.05105 0.05669 -0.26199 0.059369 -0.2599 0.15066 0.13075 -0.16903 -0.15663 -0.094206 0.14722 0.13173 0.016961 0.059425 0.19973 0.13483 -0.016476 0.26762 0.064725 -0.19205 0.084032 -0.088397 0.17188 -0.060756 0.10372 -0.11892 0.014413 0.23962 -0.058483 -0.10584 -0.33336 -0.17267 0.21358 0.00043617 0.16794 0.044103 -0.1512 -0.20365 0.25148 0.34707 0.086511 -0.042716 -0.18562 0.15832 0.18094 -0.26611 -0.18366 0.15312 -0.04855 0.26175 0.137 0.069666 -0.11645 -0.11276 -0.12355 0.017833 0.020574 0.10899 0.047694 -0.15646 0.14188 -0.19276 0.28364 -0.0061209 0.11141 0.1116 -0.073584 -0.20118 0.14688 0.18813 -0.02991 -0.00051775 0.21077 0.069415 -0.21698 0.002441 -0.18508 0.20982 -0.083243 -0.11151 -0.079836 -0.030708 0.10873 -0.11167 -0.14347 
which -0.047812 0.31697 0.21837 0.164 -0.08027 -0.11801 0.38347 0.041969 0.11039 0.017817 0.12146 -0.34938 0.18174 -0.33722 0.12501 0.077588 0.085756 -0.3923 0.095304 -0.39573 0.22348 0.20684 -0.24593 -0.23634 -0.13956 0.21922 0.20104 0.037372 0.093644 0.29509 0.20904 -0.024084 0.39637 0.094616 -0.27921 0.1142 -0.12527 0.25831 -0.086192 0.144 -0.17121 0.015222 0.35436 -0.080248 -0.15153 -0.48197 -0.25879 0.32561 0.0044647 0.24147 0.073771 -0.21933 -0.29869 0.36578 0.51297 0.13132 -0.059082 -0.27524 0.23492 0.27341 -0.38933 -0.27478 0.23362 -0.063846 0.38005 0.19649 0.09512 -0.17136 -0.1683 -0.17656 0.021054 0.031165 0.15737 0.074327 -0.24014 0.2169 -0.28323 0.4345 -0.0048791 0.16779 0.16303 -0.11281 -0.30189 0.21314 0.27208 -0.040006 0.013293 0.32066 0.10133 -0.31231 -0.0083297 -0.26163 0.31213 -0.11776 -0.15693 -0.11628 -0.040951 0.16235 -0.1647 -0.20168 
just -0.044067 0.30838 0.21004 0.15959 -0.076085 -0.11059 0.36767 0.04105 0.10685 0.019278 0.11734 -0.33596 0.17522 -0.327 0.1244 0.075911 0.085329 -0.37657 0.091596 -0.37839 0.21822 0.19504 -0.23848 -0.22878 -0.1352 0.21611 0.19582 0.035349 0.093272 0.28114 0.19978 -0.02208 0.38415 0.090361 -0.27127 0.10764 -0.11984 0.24756 -0.084969 0.14057 -0.16387 0.015873 0.34207 -0.078591 -0.1437 -0.46818 -0.24882 0.31647 0.0057151 0.23439 0.067267 -0.20807 -0.29088 0.35239 0.49221 0.12344 -0.058125 -0.26894 0.22543 0.26632 -0.37693 -0.26663 0.22632 -0.062225 0.36686 0.19182 0.094469 -0.16824 -0.16037 -0.17075 0.01876 0.028057 0.15075 0.068508 -0.23169 0.20531 -0.27155 0.41819 -0.002611 0.15996 0.1543 -0.10951 -0.2907 0.20286 0.26427 -0.041028 0.0099277 0.31088 0.096636 -0.3012 -0.006485 -0.25417 0.29656 -0.11079 -0.15037 -0.1112 -0.044545 0.1574 -0.16235 -0.19695 
here -0.052019 0.3298 0.22054 0.16567 -0.084894 -0.12001 0.39438 0.046685 0.11499 0.019137 0.12337 -0.36514 0.18677 -0.3479 0.13294 0.081647 0.092049 -0.40276 0.098201 -0.4056 0.23172 0.21044 -0.25214 -0.24739 -0.14341 0.23267 0.20749 0.034766 0.094754 0.29968 0.21143 -0.023158 0.4038 0.093622 -0.29227 0.11134 -0.13024 0.26478 -0.089267 0.15291 -0.17271 0.01662 0.36367 -0.086247 -0.15705 -0.49716 -0.26539 0.33699 0.0056598 0.25393 0.074855 -0.22374 -0.30962 0.37559 0.52761 0.13263 -0.064153 -0.28662 0.24418 0.28367 -0.39916 -0.28489 0.23923 -0.070778 0.39212 0.20279 0.10219 -0.17665 -0.16706 -0.18304 0.022181 0.030075 0.16116 0.075014 -0.24554 0.22321 -0.28862 0.44786 -0.0042278 0.17571 0.16885 -0.11934 -0.30889 0.21295 0.28175 -0.043339 0.011199 0.3273 0.099841 -0.32126 -0.0047053 -0.26819 0.32102 -0.12096 -0.15713 -0.11532 -0.045159 0.17201 -0.1707 -0.21074 
your -0.050817 0.33285 0.2288 0.17362 -0.083343 -0.11984 0.39888 0.039901 0.11356 0.018771 0.12127 -0.37041 0.18716 -0.35045 0.12734 0.084397 0.093133 -0.41133 0.10617 -0.41144 0.22836 0.21251 -0.25898 -0.25346 -0.14644 0.23374 0.21351 0.037677 0.098297 0.30534 0.21499 -0.025705 0.41326 0.096431 -0.2973 0.1203 -0.134 0.26521 -0.090505 0.15035 -0.17939 0.017777 0.36942 -0.088518 -0.16041 -0.50818 -0.27096 0.3378 0.0044313 0.25375 0.074425 -0.23096 -0.3181 0.38457 0.53796 0.13416 -0.06377 -0.29569 0.24469 0.28813 -0.40561 -0.28394 0.24476 -0.068667 0.39854 0.2111 0.098811 -0.17841 -0.1699 -0.1795 0.025977 0.03166 0.16523 0.082063 -0.25034 0.22716 -0.29368 0.44841 -0.006074 0.17327 0.17284 -0.12172 -0.31472 0.21883 0.28362 -0.039004 0.0093059 0.33282 0.10232 -0.32765 -0.0055391 -0.26974 0.32701 -0.12061 -0.16367 -0.11344 -0.050235 0.17184 -0.16928 -0.21107 
an -0.059243 0.37955 0.26127 0.20045 -0.098373 -0.13719 0.46307 0.050438 0.1348 0.024763 0.1422 -0.41961 0.21964 -0.40566 0.14995 0.099014 0.10845 -0.47245 0.12118 -0.47652 0.25918 0.24806 -0.29079 -0.28593 -0.16868 0.26775 0.24134 0.043497 0.11306 0.35198 0.25425 -0.027634 0.48041 0.11653 -0.34398 0.13686 -0.14964 0.31033 -0.10527 0.1697 -0.20473 0.020763 0.42786 -0.098857 -0.18396 -0.58119 -0.3168 0.39165 0.011743 0.28476 0.086649 -0.25738 -0.3635 0.43673 0.61496 0.16065 -0.070664 -0.33258 0.27972 0.33037 -0.46561 -0.33095 0.27596 -0.076216 0.45507 0.23558 0.1181 -0.2081 -0.19826 -0.21057 0.023391 0.036416 0.18284 0.087003 -0.2887 0.26098 -0.33664 0.51552 -0.0060544 0.2038 0.19919 -0.1372 -0.36758 0.25627 0.32865 -0.049117 0.01194 0.38467 0.12181 -0.37157 -0.0078689 -0.31463 0.37161 -0.14629 -0.19062 -0.13848 -0.048464 0.18895 -0.19951 -0.2473 
about -0.045688 0.30014 0.20586 0.15482 -0.075304 -0.10854 0.36075 0.039383 0.10508 0.019835 0.11522 -0.33221 0.16985 -0.32007 0.12203 0.072172 0.083453 -0.37198 0.092505 -0.37579 0.2103 0.19598 -0.23391 -0.2234 -0.13318 0.21399 0.19107 0.032699 0.086719 0.275 0.19697 -0.021809 0.3757 0.089638 -0.26667 0.10625 -0.12377 0.24328 -0.083148 0.13771 -0.16202 0.016567 0.33748 -0.079228 -0.14582 -0.45957 -0.24447 0.31325 0.0049811 0.23094 0.070618 -0.2095 -0.28504 0.34764 0.49004 0.12725 -0.057771 -0.26615 0.22548 0.26221 -0.37325 -0.26382 0.22271 -0.057736 0.35896 0.18408 0.094555 -0.16253 -0.15634 -0.17033 0.019405 0.030133 0.14905 0.069985 -0.22639 0.20719 -0.27061 0.41045 -0.0033682 0.15999 0.15405 -0.10738 -0.28829 0.20197 0.25928 -0.040883 0.011137 0.30374 0.092702 -0.30025 -0.0051997 -0.24684 0.29428 -0.11237 -0.1473 -0.10537 -0.038455 0.15456 -0.16077 -0.19487 
by -0.046714 0.33971 0.22842 0.17756 -0.085748 -0.12113 0.40566 0.046138 0.11646 0.024706 0.12559 -0.37316 0.19387 -0.35364 0.14029 0.083254 0.094444 -0.41789 0.10673 -0.42273 0.23695 0.22224 -0.26318 -0.25583 -0.15077 0.24247 0.21663 0.037173 0.10124 0.31318 0.22205 -0.028566 0.42817 0.098292 -0.29745 0.12421 -0.13486 0.28019 -0.094623 0.15691 -0.18374 0.020058 0.38486 -0.08106 -0.16356 -0.51761 -0.27993 0.35589 0.0034537 0.25894 0.074163 -0.23517 -0.32412 0.39264 0.5454 0.14183 -0.058559 -0.30308 0.24831 0.29547 -0.417 -0.29698 0.25463 -0.067965 0.40685 0.21274 0.10282 -0.17952 -0.17829 -0.18497 0.017999 0.033179 0.17498 0.083554 -0.25588 0.23219 -0.30399 0.46718 -0.0063804 0.17944 0.17973 -0.12077 -0.32621 0.22515 0.28643 -0.045465 0.010324 0.33687 0.10547 -0.33999 -0.013577 -0.28103 0.33197 -0.1191 -0.16805 -0.12266 -0.044637 0.17612 -0.1793 -0.21549 
get -0.047989 0.31687 0.2125 0.16222 -0.07991 -0.1148 0.37291 0.038947 0.11281 0.020587 0.11555 -0.34719 0.18097 -0.33416 0.12802 0.079489 0.086966 -0.38572 0.095139 -0.3942 0.22247 0.20199 -0.24304 -0.23929 -0.14072 0.22232 0.20497 0.036654 0.091653 0.29353 0.20277 -0.02453 0.38743 0.095087 -0.28227 0.10908 -0.1223 0.2485 -0.087921 0.14484 -0.16794 0.016954 0.3524 -0.081963 -0.14745 -0.47876 -0.25296 0.32576 0.0074904 0.24028 0.071534 -0.21728 -0.29574 0.35846 0.50841 0.12844 -0.063706 -0.27617 0.23119 0.2724 -0.38503 -0.2722 0.22736 -0.062665 0.37261 0.19551 0.095656 -0.16473 -0.16575 -0.17251 0.018056 0.034612 0.15484 0.070274 -0.23903 0.21597 -0.27738 0.42647 -0.0040617 0.16885 0.16242 -0.11565 -0.29765 0.20601 0.26995 -0.04587 0.01127 0.31871 0.09428 -0.30617 -0.0054613 -0.25836 0.30722 -0.11356 -0.15426 -0.10951 -0.043281 0.16284 -0.16058 -0.20161 
out -0.052776 0.35706 0.25035 0.18134 -0.09293 -0.1292 0.43314 0.045636 0.12659 0.020174 0.13738 -0.39706 0.20373 -0.38232 0.14832 0.089605 0.098284 -0.44461 0.10974 -0.44664 0.24864 0.23059 -0.27598 -0.26857 -0.16091 0.25448 0.22982 0.038393 0.10432 0.3288 0.2388 -0.02597 0.45027 0.10694 -0.31522 0.1227 -0.14703 0.28863 -0.099892 0.16297 -0.18801 0.020132 0.40332 -0.089624 -0.17401 -0.54893 -0.29019 0.36856 0.0059759 0.27605 0.082611 -0.25259 -0.34253 0.41524 0.57788 0.14549 -0.069532 -0.31698 0.2684 0.31254 -0.4392 -0.31308 0.26508 -0.071662 0.42756 0.22537 0.11188 -0.19648 -0.18333 -0.20153 0.025289 0.039248 0.17784 0.084689 -0.27046 0.24545 -0.32163 0.49153 -0.0024899 0.19371 0.18367 -0.12991 -0.34404 0.23589 0.3088 -0.045962 0.0085185 0.36241 0.11482 -0.35276 -0.0021428 -0.28985 0.35068 -0.13118 -0.17774 -0.12733 -0.047937 0.17863 -0.18513 -0.23337 
drinks#quality -0.043533 0.28956 0.19766 0.14975 -0.07332 -0.10348 0.34846 0.037744 0.10124 0.018303 0.10752 -0.32096 0.1635 -0.30348 0.11652 0.071237 0.079359 -0.35434 0.084377 -0.36 0.20302 0.19096 -0.22412 -0.21288 -0.12723 0.20551 0.18241 0.032525 0.085651 0.26758 0.18763 -0.020412 0.36171 0.087289 -0.25704 0.10024 -0.11535 0.23242 -0.081372 0.12882 -0.15439 0.017269 0.32348 -0.075254 -0.14017 -0.43781 -0.23553 0.29747 0.0042011 0.21915 0.064619 -0.20193 -0.27432 0.33129 0.46316 0.11986 -0.049949 -0.25151 0.20994 0.24958 -0.35716 -0.25106 0.21376 -0.058136 0.34735 0.18002 0.088555 -0.15743 -0.1524 -0.1608 0.017548 0.02868 0.14128 0.068324 -0.21847 0.19709 -0.25446 0.39564 -0.0048437 0.15519 0.14749 -0.10438 -0.27567 0.1943 0.24468 -0.038078 0.0078532 0.29148 0.091497 -0.2866 -0.0091025 -0.23705 0.27955 -0.10748 -0.14436 -0.10406 -0.038827 0.14699 -0.15286 -0.18681 
restaurant -0.044987 0.3273 0.23029 0.17056 -0.082305 -0.11924 0.39439 0.041028 0.11412 0.022967 0.12539 -0.36636 0.18868 -0.34741 0.1323 0.08112 0.089323 -0.40754 0.10098 -0.41087 0.23213 0.21074 -0.25543 -0.24513 -0.14444 0.23214 0.21175 0.038028 0.09867 0.30246 0.21946 -0.023547 0.4145 0.10052 -0.29889 0.11805 -0.12974 0.26709 -0.090776 0.14844 -0.17736 0.014358 0.37023 -0.088627 -0.15688 -0.50485 -0.26869 0.33881 0.0062672 0.25702 0.071237 -0.22481 -0.31447 0.38253 0.53553 0.1347 -0.062027 -0.2931 0.24543 0.28595 -0.40506 -0.28946 0.24578 -0.065243 0.39518 0.20311 0.10324 -0.18058 -0.17548 -0.18215 0.021357 0.034042 0.1636 0.073928 -0.24752 0.22406 -0.29373 0.44812 -0.0054953 0.17501 0.17097 -0.11582 -0.31621 0.21814 0.28552 -0.044993 0.007533 0.33399 0.10475 -0.32853 -0.0091491 -0.27181 0.31889 -0.1211 -0.16184 -0.12195 -0.045958 0.17049 -0.17342 -0.2158 
too -0.043382 0.27507 0.18383 0.14498 -0.069848 -0.10193 0.32796 0.038161 0.093918 0.015512 0.10364 -0.30817 0.15932 -0.28849 0.11295 0.070677 0.081435 -0.33785 0.080925 -0.3456 0.19307 0.17495 -0.21491 -0.21194 -0.12125 0.19294 0.17869 0.029516 0.08083 0.25352 0.18241 -0.01891 0.34369 0.085554 -0.24213 0.096832 -0.11171 0.21967 -0.07716 0.12071 -0.14727 0.0073195 0.30774 -0.075691 -0.13009 -0.42067 -0.22073 0.27854 0.0081455 0.20667 0.059727 -0.1898 -0.25824 0.31332 0.44677 0.1096 -0.05153 -0.24113 0.20136 0.23983 -0.33718 -0.24508 0.19998 -0.055926 0.32592 0.17089 0.079846 -0.15062 -0.1456 -0.15523 0.015802 0.029053 0.13412 0.061523 -0.20997 0.18694 -0.24649 0.3716 -0.0042469 0.14636 0.13772 -0.098558 -0.26486 0.18269 0.23256 -0.03655 0.010294 0.2756 0.085831 -0.27145 -0.0053512 -0.22708 0.26289 -0.10051 -0.13557 -0.095395 -0.040923 0.13577 -0.14636 -0.1779 
delicious -0.039825 0.29173 0.19781 0.15117 -0.075213 -0.10542 0.34717 0.038041 0.10238 0.017099 0.11148 -0.32417 0.16295 -0.30707 0.11786 0.07185 0.078667 -0.35643 0.088788 -0.3613 0.20365 0.18716 -0.22484 -0.21515 -0.12891 0.20383 0.18575 0.032112 0.083554 0.26703 0.18884 -0.019945 0.3636 0.08621 -0.25776 0.1032 -0.11359 0.23345 -0.080963 0.1317 -0.15403 0.015579 0.32572 -0.075034 -0.13902 -0.44112 -0.23599 0.29824 0.0053407 0.22315 0.066376 -0.20239 -0.27549 0.33468 0.46602 0.11942 -0.050727 -0.25597 0.21461 0.24987 -0.35654 -0.25361 0.21278 -0.059193 0.34783 0.18105 0.090552 -0.15729 -0.15461 -0.16037 0.019696 0.029581 0.14413 0.066515 -0.22104 0.19847 -0.25582 0.39654 -0.0038157 0.15443 0.14939 -0.10257 -0.27714 0.19308 0.24765 -0.039531 0.0056813 0.29236 0.090023 -0.28588 -0.0069589 -0.23736 0.28068 -0.10919 -0.14421 -0.10571 -0.041439 0.15144 -0.15212 -0.18888 
been -0.045668 0.31431 0.21535 0.16491 -0.078362 -0.11167 0.37728 0.043494 0.10796 0.01403 0.1181 -0.34752 0.18052 -0.33443 0.129 0.080218 0.087653 -0.38492 0.093364 -0.39502 0.21993 0.20083 -0.2423 -0.23609 -0.13925 0.22285 0.20292 0.03472 0.096509 0.29099 0.20856 -0.021701 0.39131 0.097102 -0.27806 0.11327 -0.12477 0.25279 -0.083997 0.14351 -0.17018 0.021005 0.35076 -0.07932 -0.15285 -0.48218 -0.25762 0.32127 0.0056585 0.23945 0.07033 -0.21843 -0.29701 0.36264 0.50782 0.12442 -0.057855 -0.27794 0.23172 0.27467 -0.38404 -0.27277 0.23021 -0.062507 0.37788 0.19429 0.095363 -0.1719 -0.16857 -0.17422 0.019025 0.033544 0.15888 0.071989 -0.23398 0.21338 -0.27857 0.43273 -0.0035905 0.16752 0.16157 -0.11116 -0.30133 0.21172 0.26676 -0.044582 0.0098986 0.31838 0.095048 -0.31009 -0.0089971 -0.25723 0.30529 -0.11968 -0.1501 -0.11504 -0.042913 0.16035 -0.16445 -0.20275 
it's -0.037739 0.27699 0.18604 0.14544 -0.065164 -0.099273 0.32491 0.03423 0.099134 0.016082 0.10366 -0.30742 0.1548 -0.28972 0.1103 0.06829 0.075348 -0.3359 0.084364 -0.34288 0.19247 0.17429 -0.20911 -0.20444 -0.12191 0.19203 0.17403 0.033687 0.079971 0.25273 0.1822 -0.022303 0.34426 0.083358 -0.24478 0.097071 -0.11038 0.21903 -0.076594 0.12522 -0.14619 0.017917 0.30635 -0.070325 -0.12782 -0.41643 -0.22175 0.28105 0.0040917 0.20583 0.059462 -0.18581 -0.26147 0.31239 0.44139 0.11213 -0.046856 -0.23939 0.2038 0.24202 -0.33425 -0.23539 0.2014 -0.053746 0.32814 0.17038 0.085158 -0.14697 -0.14464 -0.15298 0.019497 0.028778 0.13476 0.062418 -0.20442 0.18555 -0.24476 0.37287 -0.0032202 0.14612 0.13878 -0.096474 -0.25744 0.17938 0.23629 -0.03589 0.0072398 0.27576 0.088378 -0.26943 -0.007477 -0.22344 0.26604 -0.10172 -0.13436 -0.099756 -0.039573 0.14148 -0.141 -0.1756 
nice -0.041521 0.27659 0.18865 0.14465 -0.069392 -0.10108 0.33205 0.035764 0.095724 0.014589 0.10485 -0.30628 0.15895 -0.29236 0.10727 0.064559 0.07536 -0.34419 0.081276 -0.34362 0.19473 0.18313 -0.21305 -0.20742 -0.12192 0.19538 0.17711 0.03046 0.083195 0.26041 0.17796 -0.022842 0.34685 0.083361 -0.24657 0.097929 -0.11293 0.22175 -0.079404 0.12545 -0.1519 0.016266 0.30517 -0.072862 -0.13228 -0.41865 -0.22461 0.28749 0.0080307 0.20993 0.062375 -0.19209 -0.26402 0.32257 0.45055 0.11276 -0.052294 -0.24108 0.20001 0.24085 -0.34233 -0.24383 0.20469 -0.056132 0.33159 0.17299 0.084076 -0.14648 -0.14367 -0.15498 0.021013 0.02731 0.1368 0.066249 -0.20998 0.18998 -0.24667 0.37642 -0.0063827 0.15105 0.14184 -0.099471 -0.26644 0.18648 0.2368 -0.034152 0.0077181 0.27721 0.087646 -0.27701 -0.00498 -0.23167 0.27099 -0.10466 -0.13938 -0.10157 -0.03881 0.14104 -0.14542 -0.1798 
never -0.047079 0.32141 0.22205 0.16905 -0.082147 -0.1204 0.38984 0.04251 0.10892 0.01756 0.12396 -0.36021 0.18359 -0.34428 0.13243 0.081969 0.089146 -0.40035 0.097883 -0.40623 0.22687 0.20555 -0.25009 -0.23996 -0.1411 0.22612 0.20508 0.037487 0.095931 0.29806 0.21132 -0.024833 0.40557 0.097684 -0.28585 0.1151 -0.13008 0.26098 -0.087431 0.14544 -0.17412 0.01741 0.36041 -0.084413 -0.15694 -0.49527 -0.26357 0.33582 0.0085995 0.2462 0.074548 -0.22479 -0.30323 0.36742 0.51934 0.12891 -0.05832 -0.28326 0.23937 0.27986 -0.39494 -0.28111 0.23645 -0.06534 0.38604 0.20042 0.098447 -0.17698 -0.1727 -0.18004 0.019745 0.034515 0.16032 0.074758 -0.24063 0.22179 -0.28362 0.44135 -0.005749 0.17072 0.16304 -0.11548 -0.3085 0.21466 0.27791 -0.043001 0.012552 0.32771 0.098721 -0.3173 -0.009868 -0.26636 0.31117 -0.12015 -0.15883 -0.11667 -0.044239 0.16765 -0.17012 -0.21024 
can -0.053266 0.34158 0.23916 0.17922 -0.090366 -0.12842 0.41339 0.049561 0.12058 0.019677 0.12869 -0.38347 0.19596 -0.36916 0.13512 0.090944 0.093678 -0.42196 0.10976 -0.43178 0.23724 0.21828 -0.26605 -0.25606 -0.15559 0.24527 0.22083 0.038312 0.10359 0.31765 0.22444 -0.030275 0.4311 0.10176 -0.30603 0.12266 -0.13361 0.28051 -0.094939 0.1561 -0.18666 0.013633 0.3838 -0.094414 -0.16794 -0.52981 -0.28145 0.35972 0.010032 0.2654 0.076352 -0.23502 -0.33111 0.39584 0.55731 0.14335 -0.066026 -0.30452 0.25713 0.30076 -0.42221 -0.2952 0.25206 -0.072234 0.41441 0.2188 0.10568 -0.1855 -0.17817 -0.18773 0.025727 0.03378 0.16922 0.08139 -0.26562 0.23346 -0.30606 0.47156 -0.0050229 0.18719 0.18107 -0.12289 -0.33057 0.23248 0.29416 -0.043344 0.011076 0.35188 0.10469 -0.34443 -0.0032945 -0.28712 0.33947 -0.12674 -0.1686 -0.12215 -0.04851 0.17875 -0.1834 -0.22223 
from -0.053078 0.35757 0.24533 0.18438 -0.093481 -0.12655 0.42923 0.046812 0.12402 0.018895 0.13337 -0.39839 0.20242 -0.37798 0.14451 0.088668 0.096686 -0.44286 0.10834 -0.44573 0.24784 0.22963 -0.27682 -0.26643 -0.15475 0.25413 0.23049 0.036726 0.10349 0.3308 0.23378 -0.028985 0.44964 0.10641 -0.31872 0.1255 -0.14614 0.28994 -0.09714 0.15852 -0.1935 0.018635 0.39897 -0.096619 -0.17097 -0.54519 -0.28953 0.36996 0.0092148 0.27489 0.081742 -0.24848 -0.33912 0.41101 0.58015 0.14473 -0.066976 -0.31276 0.26381 0.30935 -0.43882 -0.30991 0.26241 -0.069808 0.43021 0.22115 0.10844 -0.19311 -0.18879 -0.19499 0.025211 0.033552 0.17931 0.081707 -0.27007 0.24302 -0.31906 0.48445 -0.0054899 0.19079 0.1817 -0.12736 -0.34317 0.23706 0.30391 -0.048077 0.010559 0.3583 0.11474 -0.35131 -0.004729 -0.29294 0.34911 -0.12919 -0.17599 -0.1243 -0.050697 0.18166 -0.18709 -0.23138 
really -0.052217 0.35036 0.23945 0.17987 -0.089089 -0.12811 0.42031 0.044861 0.1223 0.020025 0.13139 -0.38866 0.19905 -0.36908 0.13829 0.085825 0.097187 -0.4271 0.1088 -0.43522 0.24435 0.22621 -0.26975 -0.25766 -0.15396 0.24754 0.22177 0.038681 0.10102 0.32307 0.22906 -0.022757 0.43834 0.10443 -0.31292 0.12556 -0.14242 0.28138 -0.097787 0.15908 -0.18906 0.017881 0.38932 -0.091985 -0.16962 -0.5305 -0.28386 0.36055 0.0090391 0.26873 0.076368 -0.23884 -0.3312 0.40145 0.56426 0.14191 -0.066009 -0.3068 0.25874 0.30126 -0.43108 -0.30211 0.25779 -0.068713 0.41912 0.21374 0.10715 -0.18943 -0.18552 -0.19043 0.025135 0.03307 0.17052 0.082697 -0.26181 0.23851 -0.31222 0.47321 -0.0055 0.18689 0.1806 -0.12272 -0.33485 0.23089 0.2996 -0.047273 0.0099214 0.35092 0.11177 -0.34601 -0.0063197 -0.28822 0.3429 -0.1296 -0.17255 -0.12344 -0.046515 0.17895 -0.18283 -0.22482 
will -0.042797 0.30847 0.21234 0.16363 -0.079771 -0.11305 0.37403 0.038426 0.10887 0.018226 0.11638 -0.34598 0.1791 -0.33421 0.12449 0.07923 0.08335 -0.38449 0.093669 -0.39109 0.22122 0.20002 -0.2375 -0.23749 -0.13678 0.22402 0.20088 0.035642 0.093437 0.28619 0.2016 -0.022208 0.38755 0.090837 -0.27958 0.11274 -0.12221 0.25152 -0.088138 0.14278 -0.16423 0.015356 0.3426 -0.082332 -0.14943 -0.47019 -0.25296 0.32164 0.0085499 0.23729 0.069281 -0.21562 -0.29641 0.35917 0.50206 0.12685 -0.056878 -0.27298 0.22928 0.26545 -0.37909 -0.27238 0.23252 -0.063601 0.36798 0.19317 0.096331 -0.16966 -0.16377 -0.17203 0.02157 0.032404 0.15035 0.069581 -0.23608 0.21236 -0.27469 0.42635 -0.0044969 0.16656 0.16067 -0.11228 -0.3008 0.20593 0.26801 -0.040232 0.0060879 0.31567 0.097516 -0.30786 -0.0070983 -0.25504 0.30267 -0.11414 -0.15181 -0.11296 -0.042612 0.16078 -0.16043 -0.19989 
when -0.048514 0.31669 0.21922 0.1654 -0.080601 -0.11573 0.37987 0.039837 0.10977 0.020423 0.11839 -0.3527 0.18349 -0.33853 0.12968 0.081549 0.090654 -0.39047 0.093648 -0.39738 0.21929 0.20352 -0.2463 -0.2389 -0.13778 0.22403 0.19863 0.041581 0.091848 0.29052 0.20869 -0.024868 0.39764 0.093685 -0.28375 0.11158 -0.12636 0.25558 -0.084932 0.14499 -0.16864 0.014545 0.35599 -0.080713 -0.15249 -0.48239 -0.25804 0.32995 0.006362 0.24211 0.073248 -0.21812 -0.3002 0.36468 0.51311 0.12933 -0.057214 -0.28047 0.23261 0.27292 -0.3888 -0.27644 0.23373 -0.064127 0.38062 0.20216 0.097221 -0.17064 -0.16586 -0.1756 0.022558 0.033591 0.15678 0.075394 -0.23819 0.21541 -0.28562 0.43568 -0.0069546 0.16975 0.1652 -0.11283 -0.30388 0.21023 0.26985 -0.039299 0.0066785 0.32224 0.10004 -0.31192 -0.0048388 -0.25895 0.3138 -0.11887 -0.1516 -0.11327 -0.040394 0.1611 -0.16593 -0.20128 
more -0.056272 0.35895 0.24701 0.18693 -0.090403 -0.13182 0.43222 0.048529 0.12592 0.020178 0.13292 -0.40101 0.21029 -0.38168 0.14432 0.090667 0.099114 -0.44597 0.10732 -0.45023 0.25241 0.23076 -0.28075 -0.26861 -0.16122 0.25615 0.22984 0.040638 0.10465 0.33311 0.23441 -0.029276 0.45167 0.10888 -0.32196 0.12838 -0.14298 0.28612 -0.1015 0.16309 -0.19447 0.016342 0.40395 -0.093028 -0.1726 -0.54943 -0.29428 0.37235 0.010999 0.28113 0.080882 -0.24792 -0.34248 0.41812 0.58223 0.14801 -0.069911 -0.31748 0.26725 0.31036 -0.44446 -0.31499 0.26717 -0.07473 0.43264 0.22563 0.10781 -0.19639 -0.18806 -0.19867 0.025583 0.032981 0.17579 0.087 -0.27625 0.2442 -0.31924 0.48958 -0.0067153 0.19479 0.18748 -0.1279 -0.34793 0.23994 0.31025 -0.051843 0.010501 0.36439 0.11327 -0.35793 -0.0068015 -0.29756 0.35262 -0.13454 -0.17796 -0.13106 -0.051536 0.185 -0.19073 -0.23373 
always -0.03878 0.26012 0.17952 0.14042 -0.066435 -0.095519 0.31404 0.032559 0.094062 0.014087 0.10322 -0.29021 0.14993 -0.2794 0.10797 0.065463 0.071832 -0.32337 0.081822 -0.32902 0.18419 0.17175 -0.20555 -0.19328 -0.11595 0.18526 0.16692 0.029248 0.078103 0.24209 0.17018 -0.01853 0.33027 0.078451 -0.23187 0.091846 -0.10392 0.21204 -0.070272 0.11931 -0.14307 0.013347 0.2918 -0.067877 -0.12537 -0.40141 -0.21439 0.27152 0.002511 0.20295 0.059117 -0.18055 -0.24759 0.30034 0.42243 0.10653 -0.046678 -0.23222 0.19333 0.22935 -0.32023 -0.22811 0.19307 -0.05344 0.31569 0.16501 0.081201 -0.14244 -0.13786 -0.14296 0.017091 0.028259 0.12892 0.062447 -0.19652 0.18097 -0.2339 0.36039 -0.0051969 0.14225 0.1338 -0.0975 -0.24969 0.1756 0.22495 -0.033631 0.0082999 0.26767 0.080101 -0.26009 -0.0082728 -0.21831 0.25578 -0.099099 -0.12977 -0.0933 -0.034634 0.13611 -0.13537 -0.17191 
food -0.048817 0.32251 0.22245 0.16742 -0.080218 -0.11705 0.38854 0.040188 0.11147 0.021467 0.11645 -0.3542 0.18 -0.33621 0.12477 0.074916 0.086847 -0.39257 0.097604 -0.3966 0.22605 0.21312 -0.2501 -0.23552 -0.1409 0.22651 0.20534 0.033148 0.096417 0.29637 0.20859 -0.024 0.40266 0.096694 -0.28096 0.11218 -0.12923 0.25434 -0.092251 0.13976 -0.17235 0.015985 0.35895 -0.082455 -0.155 -0.48931 -0.2615 0.33318 0.0063778 0.23991 0.071845 -0.22129 -0.30222 0.36559 0.51399 0.13136 -0.055581 -0.2808 0.23168 0.27814 -0.39466 -0.27982 0.23264 -0.063121 0.38392 0.19908 0.097859 -0.17404 -0.1711 -0.17878 0.01893 0.029119 0.15374 0.074961 -0.24184 0.22101 -0.28589 0.43912 -0.0059887 0.17338 0.16501 -0.11741 -0.30449 0.21486 0.27148 -0.040436 0.010349 0.32333 0.10048 -0.31656 -0.0076691 -0.2644 0.31001 -0.1199 -0.1606 -0.11261 -0.044814 0.16046 -0.16685 -0.20762 
no -0.042375 0.27762 0.19714 0.15134 -0.073546 -0.10631 0.34012 0.032079 0.093409 0.018782 0.10796 -0.32272 0.16079 -0.30504 0.11528 0.072968 0.08172 -0.34759 0.087083 -0.3554 0.20242 0.18406 -0.22 -0.21446 -0.12873 0.20375 0.17381 0.025499 0.081816 0.26409 0.18469 -0.018837 0.35775 0.079377 -0.25162 0.093961 -0.1162 0.2287 -0.078686 0.12975 -0.15384 0.015877 0.31265 -0.07892 -0.13594 -0.43159 -0.23927 0.29156 0.0015992 0.21563 0.069438 -0.19748 -0.27263 0.32555 0.45854 0.11305 -0.053743 -0.25569 0.21129 0.24449 -0.34703 -0.2529 0.21234 -0.059071 0.33763 0.18208 0.089413 -0.15072 -0.15181 -0.15739 0.014129 0.027164 0.13874 0.06611 -0.21503 0.19257 -0.25656 0.39055 0.0013366 0.15578 0.1435 -0.10423 -0.2679 0.18875 0.24649 -0.033795 0.007122 0.28465 0.088069 -0.28438 -0.0078037 -0.22893 0.27363 -0.10976 -0.13707 -0.099881 -0.03924 0.14195 -0.14744 -0.18622 
only -0.050521 0.34777 0.23943 0.18186 -0.087579 -0.12697 0.41606 0.048672 0.1235 0.020229 0.13128 -0.38539 0.20084 -0.37246 0.14139 0.088299 0.095627 -0.42817 0.10318 -0.438 0.24279 0.22508 -0.27244 -0.25966 -0.15764 0.24422 0.22113 0.039625 0.101 0.31907 0.23025 -0.027171 0.43653 0.10159 -0.31173 0.12448 -0.13949 0.27948 -0.096698 0.15572 -0.18764 0.013828 0.39103 -0.09164 -0.16602 -0.52991 -0.28407 0.35901 0.0084851 0.2705 0.077272 -0.24015 -0.32801 0.39911 0.56229 0.14101 -0.06536 -0.30659 0.25872 0.30125 -0.42624 -0.30458 0.25449 -0.069495 0.41917 0.21504 0.10887 -0.18651 -0.18221 -0.19354 0.021993 0.033306 0.17107 0.080545 -0.26539 0.23503 -0.30797 0.47777 -0.0040272 0.18509 0.1787 -0.12517 -0.33321 0.22786 0.30054 -0.049228 0.010338 0.34948 0.10618 -0.34391 -0.0085361 -0.28817 0.33966 -0.12961 -0.1704 -0.12492 -0.047801 0.17882 -0.18249 -0.22537 
me -0.057704 0.4213 0.28296 0.2174 -0.10651 -0.1517 0.5011 0.057725 0.14702 0.024919 0.15577 -0.46956 0.24087 -0.4454 0.16733 0.10296 0.11469 -0.51503 0.12504 -0.52457 0.29125 0.26832 -0.32402 -0.31802 -0.18233 0.29944 0.26744 0.044566 0.12534 0.38732 0.27148 -0.028561 0.52398 0.12303 -0.37769 0.15275 -0.17163 0.34025 -0.11536 0.18315 -0.21999 0.021786 0.47373 -0.11085 -0.19871 -0.64671 -0.34048 0.43323 0.0071401 0.32159 0.093267 -0.29041 -0.3954 0.48072 0.68054 0.1676 -0.084391 -0.37418 0.31158 0.36395 -0.51644 -0.36608 0.31013 -0.085613 0.49823 0.26295 0.127 -0.23152 -0.21995 -0.2368 0.025301 0.04001 0.20932 0.095091 -0.31894 0.28672 -0.37576 0.56955 -0.0046041 0.22361 0.21817 -0.14917 -0.39757 0.27399 0.35936 -0.057408 0.013158 0.42929 0.12642 -0.41172 -0.010211 -0.33976 0.40786 -0.1526 -0.20392 -0.14722 -0.056312 0.21794 -0.21775 -0.26926 
what -0.041342 0.2847 0.19567 0.14983 -0.072765 -0.10633 0.3411 0.041424 0.094976 0.01812 0.10824 -0.31595 0.16122 -0.30547 0.11401 0.073901 0.079663 -0.35271 0.088799 -0.35539 0.19737 0.18117 -0.22151 -0.21557 -0.12828 0.20051 0.18141 0.034099 0.083638 0.26047 0.19001 -0.020427 0.35812 0.084728 -0.25358 0.10171 -0.11257 0.23202 -0.077856 0.12993 -0.15485 0.015898 0.31847 -0.076923 -0.13728 -0.43622 -0.23169 0.29631 0.0070486 0.21827 0.062219 -0.19777 -0.27147 0.333 0.46429 0.11494 -0.053447 -0.24937 0.21149 0.24503 -0.35237 -0.2451 0.21003 -0.05616 0.34156 0.1772 0.088004 -0.15696 -0.15062 -0.15735 0.017654 0.026879 0.14249 0.063807 -0.21461 0.19737 -0.25452 0.38945 -0.0066648 0.15187 0.14758 -0.10465 -0.27538 0.18845 0.24558 -0.036956 0.0081733 0.28996 0.089614 -0.28406 -0.0086008 -0.23565 0.28251 -0.10734 -0.13814 -0.10302 -0.039769 0.14609 -0.15 -0.18341 
us -0.06163 0.41429 0.27679 0.21123 -0.10203 -0.15085 0.49774 0.057103 0.14369 0.025699 0.15638 -0.46167 0.24033 -0.44498 0.168 0.10473 0.1099 -0.51152 0.12864 -0.52117 0.2921 0.26642 -0.31869 -0.31039 -0.17703 0.29195 0.26533 0.049733 0.12023 0.38339 0.27016 -0.02691 0.51582 0.12191 -0.36724 0.14921 -0.16926 0.3349 -0.10736 0.19368 -0.2247 0.026776 0.46783 -0.10427 -0.20191 -0.63242 -0.33645 0.42974 0.0041357 0.31525 0.093141 -0.28771 -0.39489 0.47877 0.67273 0.16417 -0.078622 -0.36698 0.30934 0.35949 -0.50642 -0.35779 0.3034 -0.080422 0.49178 0.25914 0.12686 -0.22582 -0.2176 -0.23161 0.029486 0.04366 0.20806 0.093456 -0.31329 0.28305 -0.36804 0.56538 -0.0019131 0.21924 0.21211 -0.14992 -0.39505 0.27861 0.34958 -0.056111 0.013696 0.41655 0.12924 -0.40924 -0.01125 -0.33426 0.40981 -0.15097 -0.20373 -0.148 -0.059676 0.21239 -0.21288 -0.26905 
excellent -0.039281 0.28218 0.19248 0.1474 -0.071485 -0.10086 0.33539 0.037011 0.099087 0.014348 0.10812 -0.31378 0.16118 -0.29674 0.11327 0.070476 0.076114 -0.34644 0.083823 -0.3509 0.19717 0.17845 -0.21818 -0.21055 -0.12441 0.19851 0.17844 0.031392 0.081904 0.25972 0.1816 -0.021036 0.3488 0.084888 -0.24699 0.098702 -0.11192 0.22457 -0.077486 0.12754 -0.15182 0.01327 0.3133 -0.072622 -0.13611 -0.42753 -0.22855 0.29078 0.0055217 0.21503 0.063819 -0.19424 -0.26616 0.32378 0.45107 0.11596 -0.052826 -0.24542 0.2076 0.24283 -0.34231 -0.24215 0.20814 -0.058639 0.33662 0.17536 0.08644 -0.1525 -0.14617 -0.15578 0.016849 0.02953 0.13879 0.064715 -0.21152 0.19366 -0.24907 0.38329 -0.00372 0.15005 0.14232 -0.10095 -0.2683 0.18607 0.24036 -0.036165 0.0074211 0.28323 0.089065 -0.27607 -0.0051248 -0.23175 0.27312 -0.10409 -0.13847 -0.10094 -0.03802 0.14293 -0.14537 -0.18218 
has -0.046587 0.31786 0.2212 0.16058 -0.075273 -0.10971 0.37719 0.040508 0.11362 0.019335 0.11759 -0.35017 0.17953 -0.33229 0.12769 0.076791 0.084401 -0.39402 0.097725 -0.3964 0.22273 0.20316 -0.24563 -0.23545 -0.13898 0.22394 0.20062 0.032806 0.094109 0.29439 0.20551 -0.02184 0.39761 0.091345 -0.28418 0.10539 -0.12746 0.25525 -0.088808 0.14499 -0.16717 0.01675 0.35188 -0.081204 -0.15385 -0.47982 -0.25919 0.32745 0.0046465 0.24093 0.072879 -0.22068 -0.30329 0.36181 0.51274 0.12859 -0.059473 -0.27827 0.23083 0.27167 -0.38242 -0.27454 0.23279 -0.064965 0.38104 0.19968 0.095176 -0.1725 -0.16678 -0.17584 0.018051 0.035306 0.15537 0.076753 -0.23726 0.21401 -0.28152 0.42883 -0.0041412 0.16902 0.15996 -0.11151 -0.3029 0.20804 0.27447 -0.043219 0.0076092 0.31976 0.094907 -0.31141 -0.0094988 -0.25695 0.30588 -0.11169 -0.15917 -0.11654 -0.042217 0.16106 -0.16541 -0.20103 
even -0.047503 0.33215 0.22707 0.17073 -0.087131 -0.1219 0.39755 0.045169 0.11354 0.020045 0.12364 -0.36948 0.18965 -0.35121 0.13733 0.083709 0.0908 -0.41086 0.096006 -0.4149 0.23508 0.21209 -0.25977 -0.24766 -0.1497 0.23584 0.21223 0.035572 0.09749 0.307 0.21511 -0.02251 0.41378 0.10324 -0.29707 0.11551 -0.12652 0.26274 -0.092525 0.1489 -0.17758 0.01816 0.3705 -0.081254 -0.15875 -0.50508 -0.27108 0.3449 0.0072468 0.2534 0.069953 -0.22679 -0.31245 0.37879 0.5317 0.13591 -0.062067 -0.28897 0.24251 0.28777 -0.40851 -0.28864 0.2413 -0.065211 0.39932 0.20699 0.10079 -0.18105 -0.17508 -0.18621 0.019898 0.033191 0.16565 0.07579 -0.24899 0.22238 -0.29363 0.45164 -0.0023648 0.17475 0.16837 -0.11455 -0.31746 0.21962 0.28572 -0.041368 0.0094761 0.33247 0.10141 -0.32677 -0.010402 -0.27182 0.31872 -0.12096 -0.1652 -0.1169 -0.045015 0.16774 -0.17468 -0.21326 
don't -0.044422 0.31194 0.21633 0.16421 -0.079612 -0.11368 0.37314 0.041575 0.10754 0.022015 0.11708 -0.34937 0.17875 -0.33212 0.12527 0.078467 0.088079 -0.38405 0.090994 -0.39027 0.21435 0.20027 -0.24341 -0.23207 -0.1368 0.22112 0.20095 0.033302 0.090269 0.28849 0.20243 -0.023595 0.39373 0.090821 -0.27977 0.11172 -0.12371 0.2519 -0.089052 0.14085 -0.16725 0.014484 0.34774 -0.083839 -0.14911 -0.48077 -0.25525 0.32117 0.0075517 0.23785 0.073097 -0.21428 -0.29546 0.36075 0.50403 0.12837 -0.060031 -0.27638 0.22889 0.27319 -0.38281 -0.26865 0.22911 -0.063803 0.37569 0.19572 0.094575 -0.16991 -0.16087 -0.1753 0.023566 0.029649 0.15098 0.072121 -0.23636 0.21436 -0.27815 0.42352 -0.0076746 0.16379 0.15896 -0.11319 -0.29629 0.20828 0.26954 -0.045918 0.01059 0.31684 0.09708 -0.309 -0.0072877 -0.25307 0.30747 -0.11685 -0.15365 -0.11101 -0.043547 0.16199 -0.15993 -0.20176 
try -0.039454 0.27285 0.18902 0.14406 -0.069856 -0.09725 0.32859 0.038398 0.096869 0.019738 0.1022 -0.30155 0.15461 -0.28966 0.10696 0.067491 0.073722 -0.336 0.085235 -0.33767 0.19322 0.17696 -0.21175 -0.20402 -0.11791 0.19175 0.17462 0.03321 0.08214 0.25331 0.17553 -0.020377 0.34229 0.079864 -0.24451 0.097788 -0.10737 0.21963 -0.075108 0.1251 -0.14741 0.015643 0.30454 -0.070412 -0.12942 -0.41666 -0.2233 0.28134 0.0074891 0.20965 0.061936 -0.19065 -0.25913 0.31665 0.44269 0.11251 -0.050864 -0.24085 0.19924 0.23687 -0.33362 -0.23654 0.20402 -0.055112 0.32791 0.16617 0.085319 -0.14933 -0.14571 -0.15377 0.019383 0.02673 0.13167 0.060269 -0.2043 0.18409 -0.24465 0.36801 -0.004996 0.14866 0.14145 -0.097456 -0.2628 0.18048 0.23421 -0.037065 0.0083814 0.27171 0.088107 -0.26859 -0.010113 -0.22477 0.26726 -0.099166 -0.1356 -0.095994 -0.037558 0.13791 -0.13707 -0.17702 
up -0.034841 0.26318 0.18012 0.13568 -0.068694 -0.093608 0.30849 0.034175 0.089201 0.014918 0.099998 -0.28809 0.14902 -0.27846 0.10962 0.066026 0.074808 -0.32356 0.078962 -0.33003 0.18813 0.16559 -0.20118 -0.19919 -0.11149 0.18457 0.16888 0.025184 0.077595 0.24174 0.16775 -0.01846 0.32606 0.071718 -0.23327 0.093593 -0.10169 0.20953 -0.068003 0.11784 -0.13791 0.012528 0.2907 -0.070989 -0.12667 -0.40163 -0.20906 0.2712 0.0050273 0.19891 0.059962 -0.17849 -0.25137 0.30018 0.4228 0.1014 -0.051326 -0.22819 0.19403 0.22507 -0.31157 -0.22712 0.19691 -0.055884 0.31175 0.16186 0.080227 -0.14328 -0.13895 -0.14558 0.017555 0.028094 0.12566 0.059941 -0.19895 0.17705 -0.23834 0.35594 -0.0033923 0.13285 0.1305 -0.097752 -0.24952 0.17156 0.22254 -0.036209 0.0045954 0.26592 0.078588 -0.26035 -0.0096373 -0.21359 0.25494 -0.09609 -0.12501 -0.096141 -0.032479 0.12943 -0.13798 -0.16565 
over -0.054237 0.37034 0.2505 0.19289 -0.093527 -0.13479 0.44702 0.048024 0.12849 0.022082 0.14082 -0.4114 0.21027 -0.39337 0.15299 0.094697 0.1058 -0.46174 0.11089 -0.46252 0.26155 0.23722 -0.28983 -0.28049 -0.16094 0.26071 0.23455 0.039939 0.10886 0.34426 0.2444 -0.02764 0.4683 0.1118 -0.32747 0.13397 -0.14871 0.29759 -0.1023 0.16624 -0.1988 0.017994 0.41248 -0.094097 -0.17722 -0.56551 -0.2995 0.38329 0.011939 0.28185 0.085903 -0.25615 -0.35036 0.42799 0.59752 0.15119 -0.06754 -0.32647 0.27444 0.32078 -0.45418 -0.32227 0.27455 -0.075572 0.44512 0.23205 0.11212 -0.19924 -0.19498 -0.20748 0.02492 0.038405 0.18223 0.085581 -0.27692 0.25343 -0.32768 0.50574 -0.0047223 0.19586 0.19006 -0.13096 -0.35179 0.24997 0.32046 -0.047277 0.010692 0.37566 0.11586 -0.36812 -0.0090061 -0.30652 0.36213 -0.13746 -0.18142 -0.1308 -0.048711 0.19028 -0.19483 -0.2404 
well -0.049538 0.3342 0.22929 0.1759 -0.086768 -0.12232 0.40064 0.042586 0.11976 0.023583 0.12454 -0.37241 0.18986 -0.35498 0.13613 0.080744 0.091786 -0.41098 0.098653 -0.4171 0.23547 0.21206 -0.25925 -0.25164 -0.14682 0.23471 0.21492 0.037456 0.097199 0.31024 0.21911 -0.021637 0.41647 0.099175 -0.29863 0.11945 -0.13539 0.26915 -0.093425 0.1485 -0.1781 0.018283 0.37302 -0.086185 -0.16046 -0.51189 -0.27379 0.35028 0.011961 0.25738 0.077233 -0.23261 -0.32156 0.38928 0.54046 0.13629 -0.061924 -0.29204 0.24592 0.28978 -0.40861 -0.29232 0.24932 -0.067904 0.39882 0.20945 0.10192 -0.17842 -0.17619 -0.18392 0.022415 0.031793 0.16576 0.077041 -0.25455 0.22613 -0.29687 0.45717 -0.0055721 0.17659 0.17326 -0.11965 -0.31931 0.22388 0.28887 -0.042966 0.0063366 0.33807 0.1031 -0.33246 -0.0076794 -0.27532 0.3251 -0.12462 -0.16355 -0.11883 -0.044373 0.17001 -0.17225 -0.2135 
than -0.04634 0.31714 0.21649 0.16532 -0.079938 -0.11831 0.38285 0.045335 0.1068 0.017206 0.11835 -0.35039 0.18306 -0.3355 0.12527 0.080464 0.089657 -0.39309 0.095412 -0.39678 0.21692 0.20612 -0.24701 -0.23621 -0.1417 0.22237 0.20276 0.036021 0.094045 0.2886 0.2094 -0.02383 0.39891 0.095428 -0.28039 0.11287 -0.12771 0.25489 -0.086544 0.13927 -0.16956 0.019961 0.35134 -0.081769 -0.15487 -0.48116 -0.2619 0.32762 0.007337 0.24005 0.069089 -0.21746 -0.30037 0.36697 0.50967 0.13226 -0.058455 -0.27621 0.2291 0.27576 -0.39012 -0.27002 0.23386 -0.06421 0.37785 0.19666 0.098337 -0.1715 -0.16758 -0.17802 0.021301 0.032023 0.15683 0.071601 -0.23884 0.21182 -0.28162 0.42972 -0.005755 0.1722 0.16491 -0.11316 -0.30064 0.21186 0.27017 -0.040953 0.007262 0.31677 0.099811 -0.31223 -0.0044651 -0.26514 0.30792 -0.11621 -0.15582 -0.11387 -0.042727 0.15791 -0.16331 -0.20326 
worth -0.039206 0.27513 0.18977 0.14301 -0.068287 -0.098597 0.32723 0.034632 0.094379 0.01274 0.10186 -0.30185 0.15313 -0.2912 0.10474 0.066334 0.074135 -0.33925 0.080645 -0.34399 0.19082 0.17368 -0.21416 -0.20387 -0.11712 0.19288 0.17325 0.032593 0.081929 0.25098 0.17862 -0.021296 0.34071 0.082835 -0.24239 0.099617 -0.10802 0.21677 -0.075124 0.12305 -0.14767 0.011627 0.3049 -0.070667 -0.13051 -0.41777 -0.22336 0.28221 0.0088169 0.20925 0.062462 -0.18765 -0.25776 0.31452 0.44229 0.11166 -0.050446 -0.23748 0.20674 0.23842 -0.33623 -0.23563 0.20138 -0.052872 0.32598 0.17157 0.084592 -0.14712 -0.14173 -0.15212 0.019442 0.030863 0.13488 0.063372 -0.20694 0.18676 -0.24429 0.37111 -0.0041437 0.14709 0.14153 -0.094305 -0.25912 0.18204 0.23627 -0.038625 0.0071819 0.27578 0.08494 -0.27097 -0.0041915 -0.22363 0.26478 -0.10079 -0.13417 -0.098879 -0.034715 0.13774 -0.14176 -0.17484 
drinks#style_options -0.04254 0.28683 0.19506 0.14759 -0.072143 -0.10494 0.34369 0.037876 0.099956 0.018835 0.10662 -0.31454 0.16084 -0.30023 0.11251 0.072918 0.078475 -0.34998 0.086118 -0.35561 0.19972 0.18781 -0.22209 -0.21081 -0.12579 0.19968 0.18164 0.03206 0.08154 0.26381 0.18547 -0.020686 0.35568 0.085698 -0.25323 0.098891 -0.1143 0.22848 -0.08059 0.12729 -0.15246 0.017397 0.31804 -0.075062 -0.13782 -0.43266 -0.23104 0.29528 0.0043937 0.2142 0.064411 -0.19923 -0.27126 0.32619 0.45816 0.11905 -0.05112 -0.247 0.21038 0.246 -0.35307 -0.24795 0.2119 -0.056893 0.34218 0.17899 0.0868 -0.15312 -0.14971 -0.15849 0.019957 0.027276 0.14186 0.067561 -0.21625 0.19407 -0.25111 0.38977 -0.0057406 0.15307 0.14723 -0.10329 -0.27157 0.19339 0.24099 -0.036933 0.0075029 0.28843 0.090484 -0.28301 -0.0087644 -0.23528 0.27778 -0.10594 -0.142 -0.10214 -0.039282 0.14381 -0.14855 -0.18512 
love -0.046852 0.29425 0.20085 0.15035 -0.072978 -0.10656 0.35189 0.03656 0.097499 0.01611 0.11095 -0.32136 0.1666 -0.31111 0.12211 0.071151 0.084258 -0.36151 0.088169 -0.36897 0.20581 0.18993 -0.22696 -0.21572 -0.12689 0.2029 0.18726 0.03051 0.086865 0.27611 0.19411 -0.021949 0.36778 0.086532 -0.25916 0.1021 -0.1206 0.23751 -0.080782 0.13253 -0.15316 0.014581 0.32775 -0.07739 -0.14143 -0.44303 -0.24391 0.30158 0.006294 0.2211 0.063648 -0.20206 -0.27637 0.33791 0.4733 0.12389 -0.053345 -0.25824 0.21711 0.25182 -0.3598 -0.25602 0.21543 -0.05619 0.3533 0.17904 0.088529 -0.15822 -0.15468 -0.16305 0.019352 0.028561 0.14778 0.069603 -0.22161 0.20288 -0.26089 0.39922 -0.0033964 0.15195 0.14812 -0.10347 -0.28003 0.19442 0.24988 -0.036434 0.0094885 0.29904 0.090613 -0.28815 -0.0061175 -0.24271 0.28498 -0.10893 -0.14457 -0.10639 -0.044204 0.14997 -0.1511 -0.18933 
friendly -0.044044 0.31582 0.21794 0.1632 -0.081622 -0.11321 0.38192 0.039553 0.11146 0.02032 0.12082 -0.34795 0.18208 -0.33867 0.12907 0.078237 0.085336 -0.3901 0.095206 -0.3962 0.22326 0.20365 -0.24141 -0.23564 -0.13766 0.22478 0.20058 0.034823 0.092434 0.29073 0.20848 -0.021725 0.39378 0.094047 -0.28294 0.11321 -0.12635 0.25669 -0.085827 0.14301 -0.16853 0.018307 0.35215 -0.083653 -0.15406 -0.48143 -0.25677 0.32274 0.0067769 0.24312 0.071331 -0.21768 -0.3029 0.36274 0.50856 0.12982 -0.058632 -0.27808 0.23511 0.27189 -0.3875 -0.27285 0.23426 -0.064281 0.37917 0.1957 0.097259 -0.17274 -0.16645 -0.17497 0.018822 0.032847 0.15669 0.073481 -0.23902 0.21431 -0.27898 0.4335 -0.0047563 0.17185 0.16052 -0.11143 -0.30142 0.21334 0.27204 -0.045896 0.0084554 0.32007 0.099251 -0.3141 -0.0073021 -0.25917 0.30651 -0.11685 -0.15548 -0.11341 -0.041609 0.16259 -0.16617 -0.20213 
prices -0.050955 0.34929 0.24228 0.18001 -0.080374 -0.12381 0.41854 0.043422 0.11737 0.020645 0.1295 -0.38302 0.19736 -0.3652 0.13353 0.084373 0.096692 -0.42658 0.10934 -0.4269 0.24474 0.23154 -0.27118 -0.25555 -0.15647 0.24531 0.22455 0.035498 0.10553 0.32373 0.22823 -0.027097 0.43673 0.10414 -0.30247 0.12035 -0.1396 0.27414 -0.10164 0.15512 -0.18529 0.016365 0.38371 -0.094119 -0.16768 -0.52598 -0.2838 0.3651 0.0060177 0.26503 0.071557 -0.24468 -0.33355 0.40335 0.56257 0.14811 -0.066326 -0.30021 0.25205 0.30428 -0.43548 -0.30713 0.26237 -0.070826 0.41671 0.21969 0.10765 -0.19079 -0.18213 -0.19559 0.022826 0.030364 0.17038 0.085571 -0.2648 0.24565 -0.31045 0.47442 -0.0061241 0.18644 0.18063 -0.12819 -0.33481 0.23615 0.29787 -0.042243 0.012637 0.34469 0.10964 -0.34684 -0.0086268 -0.28908 0.33809 -0.13103 -0.17478 -0.12919 -0.046316 0.17277 -0.18154 -0.22412 
some -0.055724 0.38764 0.26076 0.19567 -0.097587 -0.14073 0.45953 0.051827 0.13156 0.019992 0.14689 -0.42534 0.21959 -0.40869 0.15849 0.096689 0.10743 -0.47423 0.11676 -0.4794 0.26757 0.24704 -0.29896 -0.28302 -0.1704 0.26881 0.24458 0.041764 0.112 0.35542 0.24426 -0.028682 0.48038 0.10981 -0.34524 0.13488 -0.15131 0.30849 -0.10313 0.17241 -0.20547 0.019503 0.42786 -0.10349 -0.18433 -0.58775 -0.31253 0.38866 0.0097217 0.29583 0.085291 -0.26336 -0.36553 0.44256 0.61886 0.16183 -0.072704 -0.33849 0.28475 0.33427 -0.46924 -0.33358 0.28367 -0.07742 0.45981 0.24027 0.11766 -0.20803 -0.19795 -0.20984 0.026066 0.036377 0.19007 0.088055 -0.28821 0.26373 -0.33853 0.51868 -0.0082962 0.20693 0.1966 -0.13934 -0.36469 0.24898 0.32782 -0.053113 0.011035 0.38669 0.11828 -0.37881 -0.0059705 -0.31388 0.3716 -0.1389 -0.18991 -0.1365 -0.049514 0.19545 -0.19919 -0.24672 
amazing -0.041189 0.27855 0.18967 0.14359 -0.071186 -0.098153 0.33368 0.035552 0.094962 0.015352 0.10592 -0.30972 0.15533 -0.29374 0.11621 0.070342 0.076532 -0.34271 0.083487 -0.34736 0.19545 0.18195 -0.21719 -0.20451 -0.12257 0.19532 0.17936 0.031601 0.083947 0.25678 0.17991 -0.021908 0.34721 0.083957 -0.24761 0.098703 -0.10844 0.22379 -0.076788 0.12816 -0.14766 0.016409 0.31108 -0.073116 -0.13373 -0.4238 -0.22713 0.28695 0.0041458 0.21363 0.06115 -0.19196 -0.26034 0.31868 0.4492 0.1146 -0.049458 -0.24335 0.2056 0.24058 -0.34114 -0.24147 0.20481 -0.056348 0.33344 0.17352 0.084349 -0.15161 -0.14665 -0.15377 0.021085 0.02872 0.13578 0.063828 -0.20885 0.19077 -0.24698 0.37933 -0.0047143 0.14484 0.1419 -0.098517 -0.26644 0.18416 0.2379 -0.038142 0.0086483 0.27949 0.088294 -0.27704 -0.0063731 -0.22897 0.27011 -0.10304 -0.13626 -0.10158 -0.037218 0.14162 -0.14642 -0.17878 
experience -0.039013 0.27332 0.18877 0.14257 -0.072548 -0.099191 0.33093 0.034562 0.097015 0.016851 0.106 -0.30646 0.15524 -0.29283 0.11235 0.068413 0.075555 -0.3404 0.08288 -0.34486 0.19267 0.17793 -0.21355 -0.20628 -0.12156 0.19447 0.17591 0.030641 0.081065 0.25474 0.18101 -0.020804 0.34445 0.083121 -0.24614 0.09878 -0.11063 0.22294 -0.076484 0.1248 -0.14985 0.015999 0.30711 -0.070802 -0.13094 -0.4193 -0.22493 0.28492 0.0058651 0.21169 0.062301 -0.19107 -0.26398 0.3191 0.44366 0.11447 -0.053618 -0.2414 0.20407 0.2388 -0.33917 -0.24037 0.20521 -0.055668 0.32921 0.17128 0.084017 -0.14741 -0.14328 -0.15301 0.016243 0.029559 0.13723 0.062458 -0.20909 0.1906 -0.24434 0.37481 -0.0051924 0.14774 0.14126 -0.1002 -0.26358 0.18256 0.23643 -0.03703 0.0064276 0.27818 0.086402 -0.27304 -0.006331 -0.22772 0.26741 -0.10195 -0.13616 -0.09886 -0.037488 0.14218 -0.14323 -0.17867 
also -0.035572 0.25486 0.17085 0.13142 -0.065982 -0.093069 0.30319 0.034097 0.087943 0.01405 0.098939 -0.28372 0.14254 -0.27042 0.10169 0.064597 0.069479 -0.31159 0.074253 -0.31847 0.1778 0.16604 -0.19688 -0.18825 -0.1126 0.17623 0.1642 0.028167 0.073739 0.23545 0.16404 -0.016431 0.31657 0.077421 -0.22333 0.090423 -0.10268 0.20153 -0.070538 0.11393 -0.13723 0.012573 0.28177 -0.066516 -0.12191 -0.38742 -0.20301 0.25967 0.0066806 0.19039 0.057224 -0.17336 -0.2406 0.29263 0.41275 0.10437 -0.049383 -0.22575 0.18594 0.21895 -0.31161 -0.22203 0.18077 -0.051519 0.30306 0.15393 0.077763 -0.13771 -0.13175 -0.14018 0.016431 0.026397 0.12599 0.058946 -0.19152 0.17235 -0.22381 0.34853 -0.0069269 0.13569 0.13165 -0.09159 -0.24057 0.16719 0.22096 -0.030033 0.0078038 0.25757 0.078006 -0.2512 -0.0057704 -0.20848 0.24992 -0.093422 -0.12653 -0.09063 -0.037535 0.12898 -0.12908 -0.16644 
location#general -0.03858 0.2696 0.18744 0.13958 -0.070488 -0.097677 0.32602 0.034525 0.093659 0.016358 0.10414 -0.30365 0.15461 -0.2871 0.10902 0.068635 0.07348 -0.3327 0.080692 -0.33856 0.19134 0.17369 -0.21188 -0.20228 -0.11986 0.1917 0.17474 0.029827 0.079672 0.25295 0.17829 -0.018418 0.33905 0.082743 -0.24225 0.095948 -0.10743 0.21889 -0.075899 0.12139 -0.14441 0.014239 0.30329 -0.072607 -0.13118 -0.4126 -0.22206 0.27933 0.0042338 0.2081 0.060599 -0.18798 -0.25742 0.31247 0.43631 0.11185 -0.049702 -0.23894 0.20003 0.23498 -0.33276 -0.23686 0.19958 -0.054688 0.32374 0.16672 0.084466 -0.14717 -0.14181 -0.15019 0.017676 0.028728 0.13463 0.064782 -0.20553 0.18407 -0.24043 0.36851 -0.0043621 0.14514 0.13982 -0.096161 -0.26027 0.18109 0.2312 -0.035461 0.0062196 0.27643 0.086338 -0.26939 -0.0052349 -0.22499 0.26483 -0.099337 -0.13245 -0.096955 -0.037095 0.13829 -0.14315 -0.17788 
recommend -0.043531 0.28949 0.19925 0.15523 -0.071942 -0.10567 0.35226 0.037675 0.10314 0.016657 0.11126 -0.32231 0.16718 -0.31149 0.11965 0.070469 0.079603 -0.35997 0.088658 -0.36757 0.20398 0.18383 -0.22738 -0.2187 -0.12402 0.20921 0.18687 0.028069 0.086988 0.27399 0.18971 -0.019604 0.36391 0.088781 -0.2631 0.10215 -0.1187 0.23848 -0.080025 0.13374 -0.15663 0.014702 0.32756 -0.076429 -0.14106 -0.44741 -0.23948 0.30049 0.0065627 0.22196 0.06461 -0.20079 -0.27873 0.34095 0.47224 0.11844 -0.056994 -0.26098 0.2174 0.24996 -0.35803 -0.25238 0.21742 -0.05636 0.34919 0.18189 0.08959 -0.15351 -0.15406 -0.16382 0.020264 0.030354 0.14471 0.072486 -0.21924 0.19744 -0.26564 0.39964 -0.0059505 0.15755 0.14927 -0.10354 -0.27982 0.19592 0.24922 -0.040106 0.0081755 0.29386 0.090695 -0.29272 -0.0061211 -0.24073 0.28819 -0.10812 -0.14472 -0.10676 -0.042633 0.14979 -0.15111 -0.19201 
i've -0.042401 0.27913 0.19311 0.14294 -0.06742 -0.098943 0.3349 0.03652 0.098432 0.01658 0.10635 -0.30872 0.15814 -0.29782 0.115 0.068658 0.076204 -0.34282 0.081976 -0.35079 0.19583 0.18089 -0.21683 -0.20749 -0.12129 0.1948 0.17768 0.032875 0.085597 0.25418 0.18218 -0.01977 0.34871 0.083788 -0.24092 0.10086 -0.11005 0.22302 -0.076141 0.1241 -0.14945 0.015538 0.31013 -0.073238 -0.13551 -0.42893 -0.22704 0.29062 0.0061386 0.21353 0.062237 -0.19294 -0.26144 0.32169 0.4495 0.11651 -0.050992 -0.24655 0.20859 0.24504 -0.34156 -0.24478 0.20795 -0.057513 0.33336 0.17636 0.087595 -0.15462 -0.14643 -0.15383 0.016511 0.029257 0.13949 0.065827 -0.20635 0.19342 -0.24856 0.38073 -0.0056071 0.1496 0.14669 -0.097608 -0.2633 0.18546 0.23901 -0.037536 0.0070157 0.28293 0.085082 -0.2733 -0.0058073 -0.23043 0.26498 -0.10495 -0.13878 -0.10315 -0.039008 0.14559 -0.14458 -0.18014 
most -0.059733 0.38006 0.26303 0.19593 -0.095024 -0.14078 0.45887 0.048261 0.12899 0.023631 0.14521 -0.42472 0.21904 -0.40345 0.15442 0.098437 0.10415 -0.47518 0.1168 -0.48 0.27052 0.2478 -0.30069 -0.28593 -0.16814 0.2691 0.24462 0.040475 0.11186 0.34991 0.25394 -0.030198 0.47824 0.11764 -0.3392 0.13789 -0.15105 0.31316 -0.10765 0.17157 -0.20142 0.017179 0.4282 -0.099485 -0.18574 -0.58327 -0.31423 0.39011 0.0082197 0.29377 0.085348 -0.26482 -0.36255 0.44026 0.61731 0.16027 -0.069729 -0.33833 0.28212 0.33215 -0.46747 -0.33493 0.28428 -0.076013 0.46015 0.23854 0.11824 -0.20594 -0.20103 -0.21051 0.027004 0.038758 0.19254 0.088254 -0.2886 0.26393 -0.34441 0.51867 -0.0047224 0.20394 0.20066 -0.13735 -0.36873 0.25275 0.32866 -0.053053 0.010588 0.38625 0.11879 -0.37564 -0.0096852 -0.31364 0.36762 -0.14225 -0.18591 -0.13533 -0.054457 0.19836 -0.19983 -0.24561 
fresh -0.041206 0.27718 0.18601 0.14269 -0.0734 -0.10025 0.33369 0.037245 0.096852 0.015472 0.10389 -0.30957 0.15975 -0.29356 0.11325 0.066677 0.07902 -0.34151 0.085996 -0.34669 0.19692 0.17973 -0.21533 -0.20646 -0.12033 0.19745 0.17728 0.031306 0.085082 0.25721 0.1809 -0.022218 0.34324 0.082963 -0.24757 0.098968 -0.11041 0.22304 -0.075879 0.12592 -0.15036 0.015533 0.31392 -0.073299 -0.13255 -0.42485 -0.22571 0.28832 0.0024008 0.2112 0.062592 -0.19234 -0.26638 0.32104 0.44725 0.11565 -0.04801 -0.24242 0.20617 0.23788 -0.34304 -0.24331 0.20472 -0.056052 0.33229 0.17065 0.085026 -0.15218 -0.1483 -0.15347 0.016986 0.027655 0.13608 0.06377 -0.21108 0.18925 -0.24636 0.379 -0.0049008 0.15069 0.14084 -0.097696 -0.2665 0.18429 0.23541 -0.039106 0.0071645 0.27821 0.087351 -0.27457 -0.0072534 -0.22731 0.26886 -0.10434 -0.13827 -0.099858 -0.037173 0.14254 -0.14683 -0.18213 
again -0.036656 0.24856 0.17421 0.13195 -0.0635 -0.090273 0.304 0.033136 0.086481 0.017143 0.092495 -0.27815 0.14619 -0.27083 0.10294 0.062141 0.068059 -0.30832 0.073182 -0.31414 0.17401 0.16355 -0.19454 -0.18703 -0.10945 0.17646 0.15868 0.026538 0.075543 0.23002 0.16156 -0.016636 0.31216 0.074841 -0.21903 0.0906 -0.10046 0.20466 -0.068806 0.11291 -0.13559 0.0097362 0.28052 -0.063214 -0.12145 -0.38406 -0.20613 0.25643 0.0063471 0.19502 0.053033 -0.17479 -0.23881 0.28752 0.40958 0.10233 -0.046805 -0.22356 0.18853 0.21749 -0.30693 -0.22109 0.1872 -0.049347 0.30143 0.15234 0.074033 -0.13484 -0.13134 -0.13995 0.016346 0.02745 0.12324 0.059146 -0.18822 0.16808 -0.22216 0.34421 -0.0050363 0.13374 0.13215 -0.085613 -0.2425 0.16784 0.21412 -0.031255 0.0063909 0.25391 0.078253 -0.24927 -0.0057105 -0.20441 0.24838 -0.094439 -0.12415 -0.08896 -0.035436 0.12621 -0.1299 -0.16131 
table -0.053595 0.37127 0.25205 0.19341 -0.092653 -0.13495 0.44673 0.050226 0.13151 0.021163 0.13802 -0.41177 0.21108 -0.38932 0.14732 0.099267 0.099321 -0.45315 0.11241 -0.46234 0.25984 0.23762 -0.28669 -0.27826 -0.16369 0.2588 0.23654 0.041452 0.11143 0.34317 0.23873 -0.029292 0.46188 0.10877 -0.33073 0.13181 -0.15178 0.29666 -0.098034 0.16601 -0.19641 0.020211 0.41415 -0.098114 -0.1808 -0.56226 -0.30297 0.38352 0.0087301 0.28084 0.084304 -0.25799 -0.35183 0.42761 0.59583 0.14938 -0.074127 -0.32521 0.27478 0.32033 -0.45398 -0.31763 0.27503 -0.076091 0.43988 0.22926 0.11321 -0.19977 -0.1923 -0.20399 0.024801 0.036948 0.18414 0.088158 -0.27943 0.25344 -0.32829 0.50535 -0.0041558 0.19842 0.19293 -0.131 -0.35178 0.24444 0.3181 -0.046335 0.0087624 0.3742 0.11839 -0.36711 -0.0077937 -0.30492 0.35833 -0.13707 -0.17905 -0.13146 -0.049956 0.18938 -0.19583 -0.23512 
dinner -0.038773 0.26979 0.18461 0.14265 -0.068623 -0.099023 0.327 0.031896 0.095905 0.016468 0.1025 -0.30506 0.15427 -0.28957 0.11118 0.069703 0.074011 -0.33627 0.081936 -0.34196 0.19038 0.17418 -0.21042 -0.20308 -0.12051 0.19084 0.17383 0.032726 0.083661 0.24979 0.17939 -0.020912 0.33677 0.084851 -0.24226 0.095781 -0.10791 0.21783 -0.075239 0.12103 -0.14782 0.012781 0.30072 -0.071641 -0.13111 -0.41324 -0.22141 0.27735 0.0056294 0.20663 0.061639 -0.18838 -0.25663 0.3114 0.4384 0.11053 -0.052489 -0.23863 0.20248 0.23677 -0.33324 -0.23579 0.19844 -0.056969 0.3233 0.16822 0.083227 -0.14673 -0.14161 -0.15095 0.018085 0.029235 0.1346 0.063945 -0.20238 0.18352 -0.23969 0.36887 -0.0049521 0.14272 0.14019 -0.096224 -0.26029 0.17994 0.23062 -0.036989 0.0049185 0.27576 0.084515 -0.27092 -0.0081835 -0.22506 0.26409 -0.09945 -0.12998 -0.098666 -0.034436 0.13976 -0.14259 -0.17537 
make -0.048473 0.32727 0.22559 0.17044 -0.087165 -0.11499 0.39196 0.042003 0.11294 0.022709 0.12164 -0.35859 0.18512 -0.34751 0.13293 0.085317 0.088265 -0.40382 0.10396 -0.40912 0.22704 0.21426 -0.25318 -0.24264 -0.14616 0.23012 0.21436 0.036345 0.094201 0.30032 0.2162 -0.026319 0.40722 0.094674 -0.28937 0.11692 -0.13287 0.2629 -0.088055 0.14633 -0.17262 0.016353 0.36446 -0.087695 -0.15766 -0.50027 -0.26577 0.33792 0.008425 0.25071 0.072597 -0.2259 -0.31486 0.38069 0.53016 0.13261 -0.061026 -0.28662 0.24119 0.28433 -0.40221 -0.28475 0.24548 -0.065144 0.39347 0.20662 0.098761 -0.17542 -0.17312 -0.17969 0.021094 0.027107 0.16169 0.075898 -0.24918 0.22316 -0.29404 0.43936 -0.003496 0.17366 0.17053 -0.11674 -0.31467 0.21709 0.28024 -0.043363 0.012903 0.33067 0.10475 -0.32358 -0.0068739 -0.26819 0.31884 -0.12154 -0.16174 -0.11812 -0.044329 0.16775 -0.16644 -0.21134 
can't -0.04673 0.30489 0.21315 0.16174 -0.080253 -0.11381 0.36888 0.04025 0.10403 0.020614 0.11432 -0.34278 0.1756 -0.32894 0.12401 0.078102 0.086363 -0.37934 0.091874 -0.38913 0.21031 0.19681 -0.23956 -0.22856 -0.13715 0.21769 0.19495 0.034731 0.089252 0.28594 0.20166 -0.026011 0.38372 0.094153 -0.27503 0.10938 -0.12236 0.24891 -0.084542 0.1391 -0.164 0.013344 0.34316 -0.078504 -0.15007 -0.47137 -0.25161 0.317 0.0076317 0.23848 0.069156 -0.21186 -0.2945 0.35529 0.50032 0.12879 -0.059003 -0.27464 0.22665 0.26764 -0.37808 -0.26475 0.22531 -0.064766 0.36875 0.19119 0.093233 -0.16584 -0.1606 -0.17219 0.022327 0.028402 0.1522 0.07438 -0.23364 0.20978 -0.27604 0.42256 -0.0036606 0.16315 0.15952 -0.10836 -0.29444 0.20397 0.26386 -0.0403 0.011575 0.31186 0.094888 -0.30392 -0.0057772 -0.25382 0.30302 -0.11427 -0.15196 -0.10757 -0.042556 0.15535 -0.16118 -0.19889 
